{"learner":{"attributes":{"best_iteration":"199","best_score":"6238.316346983067","scikit_learn":"{\"_estimator_type\": \"regressor\"}"},"feature_names":[],"feature_types":[],"gradient_booster":{"model":{"cats":{"enc":[],"feature_segments":[],"sorted_idx":[]},"gbtree_model_param":{"num_parallel_tree":"1","num_trees":"200"},"iteration_indptr":[0,1,2,3,4,5,6,7,8,9,10,11,12,13,14,15,16,17,18,19,20,21,22,23,24,25,26,27,28,29,30,31,32,33,34,35,36,37,38,39,40,41,42,43,44,45,46,47,48,49,50,51,52,53,54,55,56,57,58,59,60,61,62,63,64,65,66,67,68,69,70,71,72,73,74,75,76,77,78,79,80,81,82,83,84,85,86,87,88,89,90,91,92,93,94,95,96,97,98,99,100,101,102,103,104,105,106,107,108,109,110,111,112,113,114,115,116,117,118,119,120,121,122,123,124,125,126,127,128,129,130,131,132,133,134,135,136,137,138,139,140,141,142,143,144,145,146,147,148,149,150,151,152,153,154,155,156,157,158,159,160,161,162,163,164,165,166,167,168,169,170,171,172,173,174,175,176,177,178,179,180,181,182,183,184,185,186,187,188,189,190,191,192,193,194,195,196,197,198,199,200],"tree_info":[0,0,0,0,0,0,0,0,0,0,0,0,0,0,0,0,0,0,0,0,0,0,0,0,0,0,0,0,0,0,0,0,0,0,0,0,0,0,0,0,0,0,0,0,0,0,0,0,0,0,0,0,0,0,0,0,0,0,0,0,0,0,0,0,0,0,0,0,0,0,0,0,0,0,0,0,0,0,0,0,0,0,0,0,0,0,0,0,0,0,0,0,0,0,0,0,0,0,0,0,0,0,0,0,0,0,0,0,0,0,0,0,0,0,0,0,0,0,0,0,0,0,0,0,0,0,0,0,0,0,0,0,0,0,0,0,0,0,0,0,0,0,0,0,0,0,0,0,0,0,0,0,0,0,0,0,0,0,0,0,0,0,0,0,0,0,0,0,0,0,0,0,0,0,0,0,0,0,0,0,0,0,0,0,0,0,0,0,0,0,0,0,0,0,0,0,0,0,0,0],"trees":[{"base_weights":[6.769865E1,-1.249025E4,2.6341232E4,-1.9544486E4,-1.4609259E3,1.9240275E4,1.0836067E4,-4.726889E3,-3.1559456E3,-1.2522164E3,1.9160735E2,3.1152615E3,4.6309326E3],"categories":[],"categories_nodes":[],"categories_segments":[],"categories_sizes":[],"default_left":[0,0,0,0,0,0,0,0,0,0,0,0,0],"id":0,"left_children":[1,3,5,7,9,11,-1,-1,-1,-1,-1,-1,-1],"loss_changes":[1.8150082E12,2.8955587E11,3.506379E11,3.457994E10,1.687736E10,1.9990872E10,0E0,0E0,0E0,0E0,0E0,0E0,0E0],"parents":[2147483647,0,0,1,1,2,2,3,3,4,4,5,5],"right_children":[2,4,6,8,10,12,-1,-1,-1,-1,-1,-1,-1],"split_conditions":[-6.277018E-1,-2.9587383E0,4.3564E0,-4.064344E0,-1.9509556E0,1.1882583E0,1.0836067E4,-4.726889E3,-3.1559456E3,-1.2522164E3,1.9160735E2,3.1152615E3,4.6309326E3],"split_indices":[0,0,0,0,0,0,0,0,0,0,0,0,0],"split_type":[0,0,0,0,0,0,0,0,0,0,0,0,0],"sum_hessian":[5.499E3,3.721E3,1.778E3,2.269E3,1.452E3,1.418E3,3.6E2,1.085E3,1.184E3,4.86E2,9.66E2,7.35E2,6.83E2],"tree_param":{"num_deleted":"0","num_feature":"10","num_nodes":"13","size_leaf_vector":"1"}},{"base_weights":[1.94826E2,-9.732567E3,2.1716477E4,-1.5346146E4,-7.4022015E2,1.5849919E4,4.3284773E4,-3.7235613E3,-2.4145076E3,-5.609545E2,6.4798596E2,2.3955974E3,3.6027766E3,7.997048E3,9.154736E3],"categories":[],"categories_nodes":[],"categories_segments":[],"categories_sizes":[],"default_left":[0,0,0,0,0,0,0,0,0,0,0,0,0,0,0],"id":1,"left_children":[1,3,5,7,9,11,13,-1,-1,-1,-1,-1,-1,-1,-1],"loss_changes":[1.1729576E12,1.896392E11,2.1859336E11,2.4547787E10,1.1882982E10,1.1212816E10,1.2082217E9,0E0,0E0,0E0,0E0,0E0,0E0,0E0,0E0],"parents":[2147483647,0,0,1,1,2,2,3,3,4,4,5,5,6,6],"right_children":[2,4,6,8,10,12,14,-1,-1,-1,-1,-1,-1,-1,-1],"split_conditions":[-3.656647E-1,-2.6977382E0,4.3564E0,-3.9663196E0,-1.4279774E0,9.219858E-1,5.674148E0,-3.7235613E3,-2.4145076E3,-5.609545E2,6.4798596E2,2.3955974E3,3.6027766E3,7.997048E3,9.154736E3],"split_indices":[0,0,0,0,0,0,0,0,0,0,0,0,0,0,0],"split_type":[0,0,0,0,0,0,0,0,0,0,0,0,0,0,0],"sum_hessian":[5.488E3,3.756E3,1.732E3,2.312E3,1.444E3,1.363E3,3.69E2,1.154E3,1.158E3,9.51E2,4.93E2,4.91E2,8.72E2,1.66E2,2.03E2],"tree_param":{"num_deleted":"0","num_feature":"10","num_nodes":"15","size_leaf_vector":"1"}},{"base_weights":[-2.3779626E2,-7.9271323E3,1.7313488E4,-1.2500659E4,-6.228543E2,1.2783491E4,3.46062E4,-3.2402676E3,-2.1327314E3,-4.5216974E2,5.6861176E2,2.1565508E3,3.0805605E3,6.463072E3,7.3735947E3],"categories":[],"categories_nodes":[],"categories_segments":[],"categories_sizes":[],"default_left":[0,0,0,0,0,0,0,0,0,0,0,0,0,0,0],"id":2,"left_children":[1,3,5,7,9,11,13,-1,-1,-1,-1,-1,-1,-1,-1],"loss_changes":[7.3538686E11,1.2656873E11,1.2959528E11,1.5666938E10,8.2950615E9,6.735708E9,5.9100365E8,0E0,0E0,0E0,0E0,0E0,0E0,0E0,0E0],"parents":[2147483647,0,0,1,1,2,2,3,3,4,4,5,5,6,6],"right_children":[2,4,6,8,10,12,14,-1,-1,-1,-1,-1,-1,-1,-1],"split_conditions":[-1.6439009E-1,-2.8655624E0,4.3564E0,-4.343202E0,-1.3628637E0,1.3431181E0,5.8072653E0,-3.2402676E3,-2.1327314E3,-4.5216974E2,5.6861176E2,2.1565508E3,3.0805605E3,6.463072E3,7.3735947E3],"split_indices":[0,0,0,0,0,0,0,0,0,0,0,0,0,0,0],"split_type":[0,0,0,0,0,0,0,0,0,0,0,0,0,0,0],"sum_hessian":[5.447E3,3.788E3,1.659E3,2.329E3,1.459E3,1.316E3,3.43E2,7.7E2,1.559E3,9.91E2,4.68E2,7.49E2,5.67E2,1.78E2,1.65E2],"tree_param":{"num_deleted":"0","num_feature":"10","num_nodes":"15","size_leaf_vector":"1"}},{"base_weights":[-9.976723E1,-6.238759E3,1.404506E4,-9.7921875E3,-8.161828E1,1.0149937E4,2.7360938E4,-2.3470293E3,-1.3914152E3,-2.5949472E2,5.388035E2,1.7253008E3,2.419822E3,4.51107E3,5.6888555E3],"categories":[],"categories_nodes":[],"categories_segments":[],"categories_sizes":[],"default_left":[0,0,0,0,0,0,0,0,0,0,0,0,0,0,0],"id":3,"left_children":[1,3,5,7,9,11,13,-1,-1,-1,-1,-1,-1,-1,-1],"loss_changes":[4.7741947E11,8.388316E10,8.602898E10,1.3309526E10,4.7416745E9,3.7232312E9,1.3158973E9,0E0,0E0,0E0,0E0,0E0,0E0,0E0,0E0],"parents":[2147483647,0,0,1,1,2,2,3,3,4,4,5,5,6,6],"right_children":[2,4,6,8,10,12,14,-1,-1,-1,-1,-1,-1,-1,-1],"split_conditions":[-4.2397246E-2,-2.501635E0,2.821268E0,-3.7680783E0,-1.277963E0,1.3051813E0,5.086653E0,-2.3470293E3,-1.3914152E3,-2.5949472E2,5.388035E2,1.7253008E3,2.419822E3,4.51107E3,5.6888555E3],"split_indices":[0,0,0,0,0,0,0,0,0,0,0,0,0,0,0],"split_type":[0,0,0,0,0,0,0,0,0,0,0,0,0,0,0],"sum_hessian":[5.496E3,3.833E3,1.663E3,2.43E3,1.403E3,1.288E3,3.75E2,1.44E3,9.9E2,9.76E2,4.27E2,7.26E2,5.62E2,7.3E1,3.02E2],"tree_param":{"num_deleted":"0","num_feature":"10","num_nodes":"15","size_leaf_vector":"1"}},{"base_weights":[-3.8893836E0,-4.815566E3,1.1728325E4,-7.723885E3,2.8044604E2,8.361497E3,2.1774508E4,-1.8532041E3,-1.052958E3,-3.166534E2,3.154761E2,1.0018125E3,1.8130853E3,3.768733E3,4.6437183E3],"categories":[],"categories_nodes":[],"categories_segments":[],"categories_sizes":[],"default_left":[0,0,0,0,0,0,0,0,0,0,0,0,0,0,0],"id":4,"left_children":[1,3,5,7,9,11,13,-1,-1,-1,-1,-1,-1,-1,-1],"loss_changes":[3.113307E11,5.796643E10,5.4071247E10,9.39393E9,3.4396332E9,2.7935293E9,1.2639109E9,0E0,0E0,0E0,0E0,0E0,0E0,0E0,0E0],"parents":[2147483647,0,0,1,1,2,2,3,3,4,4,5,5,6,6],"right_children":[2,4,6,8,10,12,14,-1,-1,-1,-1,-1,-1,-1,-1],"split_conditions":[2.2249116E-1,-2.399707E0,2.821268E0,-3.6847928E0,-1.6962347E0,-1.6313758E0,5.354103E0,-1.8532041E3,-1.052958E3,-3.166534E2,3.154761E2,1.0018125E3,1.8130853E3,3.768733E3,4.6437183E3],"split_indices":[0,0,0,0,0,1,0,0,0,0,0,0,0,0,0],"split_type":[0,0,0,0,0,0,0,0,0,0,0,0,0,0,0],"sum_hessian":[5.513E3,3.91E3,1.603E3,2.489E3,1.421E3,1.202E3,4.01E2,1.528E3,9.61E2,5.83E2,8.38E2,2.1E2,9.92E2,1.37E2,2.64E2],"tree_param":{"num_deleted":"0","num_feature":"10","num_nodes":"15","size_leaf_vector":"1"}},{"base_weights":[8.008568E1,-4.5046543E3,8.219221E3,-6.9510703E3,-1.5097238E3,5.8759185E3,1.8021484E4,-2.0170208E3,-1.2175795E3,-6.366586E2,-7.014176E-1,6.335232E2,1.4703109E3,3.3269114E3,3.9502036E3],"categories":[],"categories_nodes":[],"categories_segments":[],"categories_sizes":[],"default_left":[0,0,0,0,0,0,0,0,0,0,0,0,0,0,0],"id":5,"left_children":[1,3,5,7,9,11,13,-1,-1,-1,-1,-1,-1,-1,-1],"loss_changes":[2.0691593E11,2.5977823E10,4.578752E10,5.2191805E9,4.0231194E9,6.427013E9,5.949604E8,0E0,0E0,0E0,0E0,0E0,0E0,0E0,0E0],"parents":[2147483647,0,0,1,1,2,2,3,3,4,4,5,5,6,6],"right_children":[2,4,6,8,10,12,14,-1,-1,-1,-1,-1,-1,-1,-1],"split_conditions":[-1.0542973E0,-3.4001365E0,4.3564E0,-4.6081862E0,-2.0823262E0,6.7210126E-1,5.90824E0,-2.0170208E3,-1.2175795E3,-6.366586E2,-7.014176E-1,6.335232E2,1.4703109E3,3.3269114E3,3.9502036E3],"split_indices":[0,0,0,0,0,0,0,0,0,0,0,0,0,0,0],"split_type":[0,0,0,0,0,0,0,0,0,0,0,0,0,0,0],"sum_hessian":[5.543E3,3.546E3,1.997E3,1.951E3,1.595E3,1.613E3,3.84E2,4.19E2,1.532E3,7.55E2,8.4E2,5.7E2,1.043E3,2.19E2,1.65E2],"tree_param":{"num_deleted":"0","num_feature":"10","num_nodes":"15","size_leaf_vector":"1"}},{"base_weights":[6.0936977E1,-3.4126345E3,6.858082E3,-5.390184E3,-7.213587E2,4.732138E3,1.3777291E4,-1.8011764E3,-9.7611487E2,-4.318548E2,3.0955856E1,4.502587E2,1.0818687E3,2.8557288E3,1.6327435E3],"categories":[],"categories_nodes":[],"categories_segments":[],"categories_sizes":[],"default_left":[0,0,0,0,0,0,0,0,0,0,0,0,0,0,0],"id":6,"left_children":[1,3,5,7,9,11,13,-1,-1,-1,-1,-1,-1,-1,-1],"loss_changes":[1.29360994E11,1.9294159E10,2.7192156E10,3.807064E9,1.9366653E9,2.371799E9,1.1076895E9,0E0,0E0,0E0,0E0,0E0,0E0,0E0,0E0],"parents":[2147483647,0,0,1,1,2,2,3,3,4,4,5,5,6,6],"right_children":[2,4,6,8,10,12,14,-1,-1,-1,-1,-1,-1,-1,-1],"split_conditions":[-8.4203714E-1,-3.2682793E0,2.4409254E0,-4.838297E0,-2.0261269E0,4.614868E-1,7.072978E-1,-1.8011764E3,-9.7611487E2,-4.318548E2,3.0955856E1,4.502587E2,1.0818687E3,2.8557288E3,1.6327435E3],"split_indices":[0,0,0,0,0,0,7,0,0,0,0,0,0,0,0],"split_type":[0,0,0,0,0,0,0,0,0,0,0,0,0,0,0],"sum_hessian":[5.477E3,3.625E3,1.852E3,2.089E3,1.536E3,1.418E3,4.34E2,2.56E2,1.833E3,5.81E2,9.55E2,3.05E2,1.113E3,3.97E2,3.7E1],"tree_param":{"num_deleted":"0","num_feature":"10","num_nodes":"15","size_leaf_vector":"1"}},{"base_weights":[-8.030037E1,-2.7718193E3,5.364118E3,-4.6785884E3,-9.911271E2,3.9058826E3,1.1508212E4,-1.2975133E3,-8.061506E2,-4.3087695E2,6.462686E-1,1.7098349E1,8.860712E2,2.35554E3,1.0192026E3],"categories":[],"categories_nodes":[],"categories_segments":[],"categories_sizes":[],"default_left":[0,0,0,0,0,0,0,0,0,0,0,0,0,0,0],"id":7,"left_children":[1,3,5,7,9,11,13,-1,-1,-1,-1,-1,-1,-1,-1],"loss_changes":[8.1636295E10,1.2653296E10,1.6467472E10,2.0833075E9,2.2312717E9,2.9871288E9,5.499699E8,0E0,0E0,0E0,0E0,0E0,0E0,0E0,0E0],"parents":[2147483647,0,0,1,1,2,2,3,3,4,4,5,5,6,6],"right_children":[2,4,6,8,10,12,14,-1,-1,-1,-1,-1,-1,-1,-1],"split_conditions":[-9.081055E-1,-3.525652E0,4.3564E0,-4.564987E0,-2.196921E0,-2.1296418E0,4.1850343E0,-1.2975133E3,-8.061506E2,-4.3087695E2,6.462686E-1,1.7098349E1,8.860712E2,2.35554E3,1.0192026E3],"split_indices":[0,0,0,0,0,1,1,0,0,0,0,0,0,0,0],"split_type":[0,0,0,0,0,0,0,0,0,0,0,0,0,0,0],"sum_hessian":[5.569E3,3.727E3,1.842E3,1.799E3,1.928E3,1.49E3,3.52E2,4.72E2,1.327E3,8.88E2,1.04E3,1.8E2,1.31E3,3.37E2,1.5E1],"tree_param":{"num_deleted":"0","num_feature":"10","num_nodes":"15","size_leaf_vector":"1"}},{"base_weights":[1.313304E1,-1.970323E3,4.9686084E3,-3.688574E3,-5.0713882E2,3.2343005E3,8.368948E3,-9.1520135E2,-5.529934E2,6.0460804E1,-3.4596063E2,8.530268E2,1.661519E2,1.3651486E3,2.0166129E3],"categories":[],"categories_nodes":[],"categories_segments":[],"categories_sizes":[],"default_left":[0,0,0,0,0,0,0,0,0,0,0,0,0,0,0],"id":8,"left_children":[1,3,5,7,9,11,13,-1,-1,-1,-1,-1,-1,-1,-1],"loss_changes":[5.401997E10,9.866041E9,9.237488E9,1.466796E9,2.0996276E9,2.5781688E9,1.3331538E9,0E0,0E0,0E0,0E0,0E0,0E0,0E0,0E0],"parents":[2147483647,0,0,1,1,2,2,3,3,4,4,5,5,6,6],"right_children":[2,4,6,8,10,12,14,-1,-1,-1,-1,-1,-1,-1,-1],"split_conditions":[4.2305133E-1,-3.5104327E0,1.935899E0,-4.2220097E0,-2.7458102E-1,1.2704828E0,5.459173E0,-9.1520135E2,-5.529934E2,6.0460804E1,-3.4596063E2,8.530268E2,1.661519E2,1.3651486E3,2.0166129E3],"split_indices":[0,0,0,0,2,2,0,0,0,0,0,0,0,0,0],"split_type":[0,0,0,0,0,0,0,0,0,0,0,0,0,0,0],"sum_hessian":[5.494E3,3.924E3,1.57E3,1.804E3,2.12E3,1.041E3,5.29E2,9.18E2,8.86E2,1.276E3,8.44E2,7.28E2,3.13E2,2.81E2,2.48E2],"tree_param":{"num_deleted":"0","num_feature":"10","num_nodes":"15","size_leaf_vector":"1"}},{"base_weights":[-3.050719E1,-1.953805E3,3.3712925E3,-2.7473562E3,-5.4401605E2,2.0570618E3,6.5856187E3,-7.807598E2,-4.4090283E2,-9.436215E2,-6.7735756E1,5.270038E2,7.723196E1,1.3642734E3,-2.1245152E2],"categories":[],"categories_nodes":[],"categories_segments":[],"categories_sizes":[],"default_left":[0,0,0,0,0,0,0,0,0,0,0,0,0,0,0],"id":9,"left_children":[1,3,5,7,9,11,13,-1,-1,-1,-1,-1,-1,-1,-1],"loss_changes":[3.5795014E10,3.9084995E9,8.3338015E9,1.3950792E9,1.0783437E9,1.3548396E9,1.0403533E9,0E0,0E0,0E0,0E0,0E0,0E0,0E0,0E0],"parents":[2147483647,0,0,1,1,2,2,3,3,4,4,5,5,6,6],"right_children":[2,4,6,8,10,12,14,-1,-1,-1,-1,-1,-1,-1,-1],"split_conditions":[-1.1510508E0,-3.1166956E0,1.7702534E0,-4.3799663E0,-2.6804569E0,1.1586591E0,6.3946447E0,-7.807598E2,-4.4090283E2,-9.436215E2,-6.7735756E1,5.270038E2,7.723196E1,1.3642734E3,-2.1245152E2],"split_indices":[0,0,0,0,1,2,2,0,0,0,0,0,0,0,0],"split_type":[0,0,0,0,0,0,0,0,0,0,0,0,0,0,0],"sum_hessian":[5.469E3,3.494E3,1.975E3,2.235E3,1.259E3,1.403E3,5.72E2,7.12E2,1.523E3,5.8E1,1.201E3,1.042E3,3.61E2,5.55E2,1.7E1],"tree_param":{"num_deleted":"0","num_feature":"10","num_nodes":"15","size_leaf_vector":"1"}},{"base_weights":[-2.5441185E1,-1.3073578E3,3.1891897E3,-2.0465319E3,1.9135965E2,2.4015461E3,6.2727676E3,-3.6357358E2,-1.01175616E3,1.1026807E2,-3.646622E2,-1.6112047E3,5.036109E2,8.111994E2,1.4102396E3],"categories":[],"categories_nodes":[],"categories_segments":[],"categories_sizes":[],"default_left":[0,0,0,0,0,0,0,0,0,0,0,0,0,0,0],"id":10,"left_children":[1,3,5,7,9,11,13,-1,-1,-1,-1,-1,-1,-1,-1],"loss_changes":[2.263609E10,4.350774E9,3.788375E9,1.8023301E9,9.4237005E8,1.542061E9,5.2014285E8,0E0,0E0,0E0,0E0,0E0,0E0,0E0,0E0],"parents":[2147483647,0,0,1,1,2,2,3,3,4,4,5,5,6,6],"right_children":[2,4,6,8,10,12,14,-1,-1,-1,-1,-1,-1,-1,-1],"split_conditions":[3.6165753E-1,-2.2202842E0,4.944219E0,1.4402381E0,5.222769E-1,-4.7757444E0,-1.2148056E0,-3.6357358E2,-1.01175616E3,1.1026807E2,-3.646622E2,-1.6112047E3,5.036109E2,8.111994E2,1.4102396E3],"split_indices":[0,0,0,2,2,1,1,0,0,0,0,0,0,0,0],"split_type":[0,0,0,0,0,0,0,0,0,0,0,0,0,0,0],"sum_hessian":[5.491E3,3.926E3,1.565E3,2.629E3,1.297E3,1.248E3,3.17E2,2.445E3,1.84E2,1.101E3,1.96E2,1.3E1,1.235E3,8.4E1,2.33E2],"tree_param":{"num_deleted":"0","num_feature":"10","num_nodes":"15","size_leaf_vector":"1"}},{"base_weights":[-1.9051928E1,-1.4677249E3,1.8843175E3,-1.1336165E3,-3.102717E3,1.0363489E3,4.1540137E3,-7.4345026E2,-1.6548119E2,-1.2033411E3,-5.3648926E2,-1.5898773E2,2.8995187E2,5.8845654E2,1.038628E3],"categories":[],"categories_nodes":[],"categories_segments":[],"categories_sizes":[],"default_left":[0,0,0,0,0,0,0,0,0,0,0,0,0,0,0],"id":11,"left_children":[1,3,5,7,9,11,13,-1,-1,-1,-1,-1,-1,-1,-1],"loss_changes":[1.5184788E10,1.7046528E9,4.576316E9,2.0522962E9,6.3293235E8,1.3139173E9,7.993856E8,0E0,0E0,0E0,0E0,0E0,0E0,0E0,0E0],"parents":[2147483647,0,0,1,1,2,2,3,3,4,4,5,5,6,6],"right_children":[2,4,6,8,10,12,14,-1,-1,-1,-1,-1,-1,-1,-1],"split_conditions":[-1.6431127E0,5.222769E-1,1.6268542E0,-4.7822022E0,-1.9145283E0,-1.4288715E0,1.5907933E-1,-7.4345026E2,-1.6548119E2,-1.2033411E3,-5.3648926E2,-1.5898773E2,2.8995187E2,5.8845654E2,1.038628E3],"split_indices":[0,2,0,0,1,1,1,0,0,0,0,0,0,0,0],"split_type":[0,0,0,0,0,0,0,0,0,0,0,0,0,0,0],"sum_hessian":[5.505E3,3.126E3,2.379E3,2.597E3,5.29E2,1.733E3,6.46E2,2.74E2,2.323E3,6.5E1,4.64E2,3.19E2,1.414E3,3E2,3.46E2],"tree_param":{"num_deleted":"0","num_feature":"10","num_nodes":"15","size_leaf_vector":"1"}},{"base_weights":[1.3204063E1,-7.99107E2,2.4032637E3,-1.690479E3,-1.3868947E2,1.7159117E3,4.0260464E3,-1.321584E2,-4.1270554E2,1.2342594E2,-1.4268701E2,4.4577036E2,-3.670693E1,8.8028156E2,5.5014484E1],"categories":[],"categories_nodes":[],"categories_segments":[],"categories_sizes":[],"default_left":[0,0,0,0,0,0,0,0,0,0,0,0,0,0,0],"id":12,"left_children":[1,3,5,7,9,11,13,-1,-1,-1,-1,-1,-1,-1,-1],"loss_changes":[1.0746026E10,2.4315935E9,1.5591444E9,6.739251E8,1.0317147E9,9.630195E8,5.8591386E8,0E0,0E0,0E0,0E0,0E0,0E0,0E0,0E0],"parents":[2147483647,0,0,1,1,2,2,3,3,4,4,5,5,6,6],"right_children":[2,4,6,8,10,12,14,-1,-1,-1,-1,-1,-1,-1,-1],"split_conditions":[7.097751E-1,-3.525652E0,2.4409254E0,-5.825724E-1,-5.2764106E-1,1.8719611E0,1.265232E0,-1.321584E2,-4.1270554E2,1.2342594E2,-1.4268701E2,4.4577036E2,-3.670693E1,8.8028156E2,5.5014484E1],"split_indices":[0,0,0,2,2,2,5,0,0,0,0,0,0,0,0],"split_type":[0,0,0,0,0,0,0,0,0,0,0,0,0,0,0],"sum_hessian":[5.533E3,4.13E3,1.403E3,1.757E3,2.373E3,9.87E2,4.16E2,4.68E2,1.289E3,1.025E3,1.348E3,7.77E2,2.1E2,3.78E2,3.8E1],"tree_param":{"num_deleted":"0","num_feature":"10","num_nodes":"15","size_leaf_vector":"1"}},{"base_weights":[-7.6642785E0,-6.701597E2,1.8263883E3,5.6054517E2,-1.0040921E3,1.5438129E3,4.823789E3,1.8462729E1,2.1428569E2,-1.846632E2,-9.52777E2,4.0817963E2,2.1112356E1,5.245168E2,1.1709386E3],"categories":[],"categories_nodes":[],"categories_segments":[],"categories_sizes":[],"default_left":[0,0,0,0,0,0,0,0,0,0,0,0,0,0,0],"id":13,"left_children":[1,3,5,7,9,11,13,-1,-1,-1,-1,-1,-1,-1,-1],"loss_changes":[6.7216737E9,1.6707538E9,1.2359373E9,2.075368E8,9.665352E8,9.599401E8,2.7056845E8,0E0,0E0,0E0,0E0,0E0,0E0,0E0,0E0],"parents":[2147483647,0,0,1,1,2,2,3,3,4,4,5,5,6,6],"right_children":[2,4,6,8,10,12,14,-1,-1,-1,-1,-1,-1,-1,-1],"split_conditions":[5.665972E-1,-7.7056444E-1,6.0586143E0,-1.8530283E0,2.6764607E0,1.7712053E0,-1.5599108E0,1.8462729E1,2.1428569E2,-1.846632E2,-9.52777E2,4.0817963E2,2.1112356E1,5.245168E2,1.1709386E3],"split_indices":[0,2,0,0,2,2,1,0,0,0,0,0,0,0,0],"split_type":[0,0,0,0,0,0,0,0,0,0,0,0,0,0,0],"sum_hessian":[5.53E3,4.063E3,1.467E3,8.67E2,3.196E3,1.342E3,1.25E2,4.53E2,4.14E2,3.13E3,6.6E1,9.97E2,3.45E2,4.1E1,8.4E1],"tree_param":{"num_deleted":"0","num_feature":"10","num_nodes":"15","size_leaf_vector":"1"}},{"base_weights":[1.6601613E0,-8.45721E2,1.0219687E3,-2.6127024E3,-6.7590674E2,4.8855258E2,2.1829502E3,-5.333677E2,-3.6377988E2,-5.3934967E1,-3.1235825E2,-1.8508061E2,1.7155481E2,3.610733E2,8.4587775E2],"categories":[],"categories_nodes":[],"categories_segments":[],"categories_sizes":[],"default_left":[0,0,0,0,0,0,0,0,0,0,0,0,0,0,0],"id":14,"left_children":[1,3,5,7,9,11,13,-1,-1,-1,-1,-1,-1,-1,-1],"loss_changes":[4.771673E9,9.0291046E8,1.5496261E9,6.494336E6,9.899534E8,8.9717555E8,6.012534E8,0E0,0E0,0E0,0E0,0E0,0E0,0E0,0E0],"parents":[2147483647,0,0,1,1,2,2,3,3,4,4,5,5,6,6],"right_children":[2,4,6,8,10,12,14,-1,-1,-1,-1,-1,-1,-1,-1],"split_conditions":[-1.7362846E0,-4.838297E0,1.5278548E0,-4.9026456E0,4.2838205E-2,-1.2649902E0,6.193569E0,-5.333677E2,-3.6377988E2,-5.3934967E1,-3.1235825E2,-1.8508061E2,1.7155481E2,3.610733E2,8.4587775E2],"split_indices":[0,0,0,0,2,1,0,0,0,0,0,0,0,0,0],"split_type":[0,0,0,0,0,0,0,0,0,0,0,0,0,0,0],"sum_hessian":[5.517E3,3.014E3,2.503E3,2.63E2,2.751E3,1.716E3,7.87E2,2.44E2,1.9E1,1.887E3,8.64E2,3.55E2,1.361E3,6.66E2,1.21E2],"tree_param":{"num_deleted":"0","num_feature":"10","num_nodes":"15","size_leaf_vector":"1"}},{"base_weights":[4.3273296E0,-6.8519507E2,8.10314E2,-5.153893E2,-1.8701478E3,5.186998E2,2.2083374E3,-2.969929E2,-4.859623E1,-8.549306E2,-3.098443E2,1.9113661E2,-6.640533E1,-2.2571916E2,5.0779794E2],"categories":[],"categories_nodes":[],"categories_segments":[],"categories_sizes":[],"default_left":[0,0,0,0,0,0,0,0,0,0,0,0,0,0,0],"id":15,"left_children":[1,3,5,7,9,11,13,-1,-1,-1,-1,-1,-1,-1,-1],"loss_changes":[3.047154E9,5.93617E8,1.0294783E9,6.8265376E8,2.7889523E8,7.783968E8,4.839324E8,0E0,0E0,0E0,0E0,0E0,0E0,0E0,0E0],"parents":[2147483647,0,0,1,1,2,2,3,3,4,4,5,5,6,6],"right_children":[2,4,6,8,10,12,14,-1,-1,-1,-1,-1,-1,-1,-1],"split_conditions":[-1.793914E0,7.907991E-1,2.1978846E0,-4.46671E0,-2.3581786E0,5.381302E-1,-2.9674404E0,-2.969929E2,-4.859623E1,-8.549306E2,-3.098443E2,1.9113661E2,-6.640533E1,-2.2571916E2,5.0779794E2],"split_indices":[0,2,0,0,1,2,1,0,0,0,0,0,0,0,0],"split_type":[0,0,0,0,0,0,0,0,0,0,0,0,0,0,0],"sum_hessian":[5.481E3,2.954E3,2.527E3,2.585E3,3.69E2,2.092E3,4.35E2,5.66E2,2.019E3,4.2E1,3.27E2,1.382E3,7.1E2,3.9E1,3.96E2],"tree_param":{"num_deleted":"0","num_feature":"10","num_nodes":"15","size_leaf_vector":"1"}},{"base_weights":[5.168522E0,-3.1051743E2,1.2583501E3,-1.3334023E3,-1.3649603E2,-3.2634983E3,1.3850203E3,-2.0000605E1,-3.7664804E2,-1.9708638E2,2.4280724E1,-1.1143608E3,1.3265547E2,5.2947375E2,2.0255559E2],"categories":[],"categories_nodes":[],"categories_segments":[],"categories_sizes":[],"default_left":[0,0,0,0,0,0,0,0,0,0,0,0,0,0,0],"id":16,"left_children":[1,3,5,7,9,11,13,-1,-1,-1,-1,-1,-1,-1,-1],"loss_changes":[2.1430244E9,7.700407E8,6.28854E8,4.2638016E8,8.0997965E8,2.7562157E8,4.9588237E8,0E0,0E0,0E0,0E0,0E0,0E0,0E0,0E0],"parents":[2147483647,0,0,1,1,2,2,3,3,4,4,5,5,6,6],"right_children":[2,4,6,8,10,12,14,-1,-1,-1,-1,-1,-1,-1,-1],"split_conditions":[1.0605254E0,-1.2386274E0,-4.209575E0,-5.412772E-1,-4.1697483E0,4.3564E0,-2.2229226E-2,-2.0000605E1,-3.7664804E2,-1.9708638E2,2.4280724E1,-1.1143608E3,1.3265547E2,5.2947375E2,2.0255559E2],"split_indices":[0,1,1,2,0,0,2,0,0,0,0,0,0,0,0],"split_type":[0,0,0,0,0,0,0,0,0,0,0,0,0,0,0],"sum_hessian":[5.415E3,4.326E3,1.089E3,6.28E2,3.698E3,2.9E1,1.06E3,1.94E2,4.34E2,8.61E2,2.837E3,1.8E1,1.1E1,2.4E2,8.2E2],"tree_param":{"num_deleted":"0","num_feature":"10","num_nodes":"15","size_leaf_vector":"1"}},{"base_weights":[2.3463879E1,-3.9626196E2,7.300872E2,-3.3647583E2,-2.6307668E3,6.0188873E2,2.9433079E3,-3.249797E2,-4.7911808E1,-4.1941147E2,-1.024786E3,1.5338144E2,-3.008077E2,3.3660617E2,7.7536084E2],"categories":[],"categories_nodes":[],"categories_segments":[],"categories_sizes":[],"default_left":[0,0,0,0,0,0,0,0,0,0,0,0,0,0,0],"id":17,"left_children":[1,3,5,7,9,11,13,-1,-1,-1,-1,-1,-1,-1,-1],"loss_changes":[1.6172877E9,4.5613453E8,5.7477094E8,4.1580173E8,1.0768045E8,6.690809E8,1.2406272E8,0E0,0E0,0E0,0E0,0E0,0E0,0E0,0E0],"parents":[2147483647,0,0,1,1,2,2,3,3,4,4,5,5,6,6],"right_children":[2,4,6,8,10,12,14,-1,-1,-1,-1,-1,-1,-1,-1],"split_conditions":[-1.1805457E0,2.1337545E0,6.193569E0,-4.9026456E0,4.147819E0,2.8587074E0,-2.0024435E-1,-3.249797E2,-4.7911808E1,-4.1941147E2,-1.024786E3,1.5338144E2,-3.008077E2,3.3660617E2,7.7536084E2],"split_indices":[0,2,0,0,2,2,1,0,0,0,0,0,0,0,0],"split_type":[0,0,0,0,0,0,0,0,0,0,0,0,0,0,0],"sum_hessian":[5.451E3,3.42E3,2.031E3,3.332E3,8.8E1,1.921E3,1.1E2,2.32E2,3.1E3,7.4E1,1.4E1,1.782E3,1.39E2,4.8E1,6.2E1],"tree_param":{"num_deleted":"0","num_feature":"10","num_nodes":"15","size_leaf_vector":"1"}},{"base_weights":[-1.1662535E1,-2.0400223E2,9.886031E2,8.472041E2,-3.347493E2,1.3861794E3,-3.9508064E1,1.332047E2,2.926199E2,-1.9547514E2,-1.6219847E1,1.1694022E2,3.709143E2,-1.3308775E2,5.2169604E2],"categories":[],"categories_nodes":[],"categories_segments":[],"categories_sizes":[],"default_left":[0,0,0,0,0,0,0,0,0,0,0,0,0,0,0],"id":18,"left_children":[1,3,5,7,9,11,13,-1,-1,-1,-1,-1,-1,-1,-1],"loss_changes":[1.06527706E9,6.3856486E8,3.650711E8,5.638192E7,6.7328294E8,2.40677E8,4.161001E8,0E0,0E0,0E0,0E0,0E0,0E0,0E0,0E0],"parents":[2147483647,0,0,1,1,2,2,3,3,4,4,5,5,6,6],"right_children":[2,4,6,8,10,12,14,-1,-1,-1,-1,-1,-1,-1,-1],"split_conditions":[1.4126126E0,-9.7989374E-1,2.2610302E0,2.8232187E-1,-6.245712E-1,-3.6892414E-1,6.5488415E0,1.332047E2,2.926199E2,-1.9547514E2,-1.6219847E1,1.1694022E2,3.709143E2,-1.3308775E2,5.2169604E2],"split_indices":[0,2,2,0,1,1,0,0,0,0,0,0,0,0,0],"split_type":[0,0,0,0,0,0,0,0,0,0,0,0,0,0,0],"sum_hessian":[5.535E3,4.643E3,8.92E2,5.13E2,4.13E3,6.43E2,2.49E2,3.98E2,1.15E2,1.168E3,2.962E3,2.38E2,4.05E2,2.02E2,4.7E1],"tree_param":{"num_deleted":"0","num_feature":"10","num_nodes":"15","size_leaf_vector":"1"}},{"base_weights":[-1.3177835E1,-1.7610402E2,9.2526917E2,1.8843603E1,-7.21846E2,-1.1206237E2,1.3555774E3,-2.1845479E2,2.5798603E1,-5.971074E2,-1.2268748E2,-1.1016046E2,5.286859E2,1.13366776E2,3.4289572E2],"categories":[],"categories_nodes":[],"categories_segments":[],"categories_sizes":[],"default_left":[0,0,0,0,0,0,0,0,0,0,0,0,0,0,0],"id":19,"left_children":[1,3,5,7,9,11,13,-1,-1,-1,-1,-1,-1,-1,-1],"loss_changes":[8.3926483E8,4.9760477E8,3.6260634E8,4.2201555E8,3.002604E8,2.903937E8,1.6151654E8,0E0,0E0,0E0,0E0,0E0,0E0,0E0,0E0],"parents":[2147483647,0,0,1,1,2,2,3,3,4,4,5,5,6,6],"right_children":[2,4,6,8,10,12,14,-1,-1,-1,-1,-1,-1,-1,-1],"split_conditions":[1.4813566E0,2.948226E-1,-1.1312362E0,-4.7184396E0,-3.2412946E0,6.5488415E0,-7.1952933E-1,-2.1845479E2,2.5798603E1,-5.971074E2,-1.2268748E2,-1.1016046E2,5.286859E2,1.13366776E2,3.4289572E2],"split_indices":[0,2,3,0,1,0,1,0,0,0,0,0,0,0,0],"split_type":[0,0,0,0,0,0,0,0,0,0,0,0,0,0,0],"sum_hessian":[5.487E3,4.676E3,8.11E2,3.446E3,1.23E3,2.38E2,5.73E2,3.1E2,3.136E3,5.5E1,1.175E3,2.06E2,3.2E1,1.8E2,3.93E2],"tree_param":{"num_deleted":"0","num_feature":"10","num_nodes":"15","size_leaf_vector":"1"}},{"base_weights":[-6.706302E0,-4.4313196E2,2.5602084E2,-4.026838E2,-3.582599E3,-1.2072327E3,3.801253E2,-3.0814335E1,-1.4116006E2,-4.6024142E2,-9.033127E2,-5.606926E2,-1.2516268E2,5.442079E0,1.4293349E2],"categories":[],"categories_nodes":[],"categories_segments":[],"categories_sizes":[],"default_left":[0,0,0,0,0,0,0,0,0,0,0,0,0,0,0],"id":20,"left_children":[1,3,5,7,9,11,13,-1,-1,-1,-1,-1,-1,-1,-1],"loss_changes":[6.267351E8,2.593858E8,6.200655E8,1.527935E8,2.0722624E7,2.4604266E8,3.7141267E8,0E0,0E0,0E0,0E0,0E0,0E0,0E0,0E0],"parents":[2147483647,0,0,1,1,2,2,3,3,4,4,5,5,6,6],"right_children":[2,4,6,8,10,12,14,-1,-1,-1,-1,-1,-1,-1,-1],"split_conditions":[-3.327739E0,3.627009E0,-1.5469916E0,-2.3521039E-1,4.147819E0,-1.7703543E0,6.996017E-2,-3.0814335E1,-1.4116006E2,-4.6024142E2,-9.033127E2,-5.606926E2,-1.2516268E2,5.442079E0,1.4293349E2],"split_indices":[0,2,4,2,2,1,1,0,0,0,0,0,0,0,0],"split_type":[0,0,0,0,0,0,0,0,0,0,0,0,0,0,0],"sum_hessian":[5.464E3,2.053E3,3.411E3,2.028E3,2.5E1,2.66E2,3.145E3,1.115E3,9.13E2,1.2E1,1.3E1,7E1,1.96E2,1.531E3,1.614E3],"tree_param":{"num_deleted":"0","num_feature":"10","num_nodes":"15","size_leaf_vector":"1"}},{"base_weights":[-4.306744E0,-1.9432515E2,4.2318124E2,-7.9632806E2,-3.810543E1,4.7780316E2,-4.1834883E3,-6.8915565E1,-2.690186E2,-7.920821E1,3.0804214E1,1.1739713E2,-2.1396219E2,-3.5645627E2,-1.5125027E3],"categories":[],"categories_nodes":[],"categories_segments":[],"categories_sizes":[],"default_left":[0,0,0,0,0,0,0,0,0,0,0,0,0,0,0],"id":21,"left_children":[1,3,5,7,9,11,13,-1,-1,-1,-1,-1,-1,-1,-1],"loss_changes":[4.4823136E8,3.592205E8,4.292583E8,1.9463747E8,2.087059E8,2.843326E8,1.4879622E8,0E0,0E0,0E0,0E0,0E0,0E0,0E0,0E0],"parents":[2147483647,0,0,1,1,2,2,3,3,4,4,5,5,6,6],"right_children":[2,4,6,8,10,12,14,-1,-1,-1,-1,-1,-1,-1,-1],"split_conditions":[1.434454E-1,-8.2764095E-1,1.1838025E0,-2.482968E-1,-3.8530476E0,1.4128182E0,2.2998634E-1,-6.8915565E1,-2.690186E2,-7.920821E1,3.0804214E1,1.1739713E2,-2.1396219E2,-3.5645627E2,-1.5125027E3],"split_indices":[0,1,7,2,0,5,6,0,0,0,0,0,0,0,0],"split_type":[0,0,0,0,0,0,0,0,0,0,0,0,0,0,0],"sum_hessian":[5.516E3,3.819E3,1.697E3,7.86E2,3.033E3,1.678E3,1.9E1,4.32E2,3.54E2,1.059E3,1.974E3,1.568E3,1.1E2,1.2E1,7E0],"tree_param":{"num_deleted":"0","num_feature":"10","num_nodes":"15","size_leaf_vector":"1"}},{"base_weights":[-3.2151043E0,6.516564E2,-9.226057E1,4.7241702E2,1.7801882E3,-2.3751216E2,3.4212088E2,6.3838074E1,1.6573235E2,1.7821375E2,4.627249E2,-2.9213336E2,-2.9832233E1,-6.1416473E2,7.1788506E1],"categories":[],"categories_nodes":[],"categories_segments":[],"categories_sizes":[],"default_left":[0,0,0,0,0,0,0,0,0,0,0,0,0,0,0],"id":22,"left_children":[1,3,5,7,9,11,13,-1,-1,-1,-1,-1,-1,-1,-1],"loss_changes":[3.1763456E8,1.3104381E8,3.0261984E8,3.052208E7,4.015008E7,3.8817466E8,7.011082E7,0E0,0E0,0E0,0E0,0E0,0E0,0E0,0E0],"parents":[2147483647,0,0,1,1,2,2,3,3,4,4,5,5,6,6],"right_children":[2,4,6,8,10,12,14,-1,-1,-1,-1,-1,-1,-1,-1],"split_conditions":[-9.2292E-1,7.823532E-1,5.15422E-1,3.116456E-1,3.5981497E-1,-1.2981896E0,-4.7757444E0,6.3838074E1,1.6573235E2,1.7821375E2,4.627249E2,-2.9213336E2,-2.9832233E1,-6.1416473E2,7.1788506E1],"split_indices":[2,0,3,3,4,4,1,0,0,0,0,0,0,0,0],"split_type":[0,0,0,0,0,0,0,0,0,0,0,0,0,0,0],"sum_hessian":[5.445E3,6.51E2,4.794E3,5.63E2,8.8E1,3.593E3,1.201E3,3.95E2,1.68E2,3.4E1,5.4E1,2.41E2,3.352E3,5E0,1.196E3],"tree_param":{"num_deleted":"0","num_feature":"10","num_nodes":"15","size_leaf_vector":"1"}},{"base_weights":[1.1389173E1,-4.4123943E1,1.2685356E3,-7.4276953E0,-2.5111458E3,2.2347725E3,6.8544525E2,1.3440399E1,-1.5209868E2,-6.70362E2,-2.3958936E2,6.2416656E2,3.0615027E2,-7.4802505E1,4.0148166E2],"categories":[],"categories_nodes":[],"categories_segments":[],"categories_sizes":[],"default_left":[0,0,0,0,0,0,0,0,0,0,0,0,0,0,0],"id":23,"left_children":[1,3,5,7,9,11,13,-1,-1,-1,-1,-1,-1,-1,-1],"loss_changes":[3.877988E8,4.8178435E8,1.3086797E8,2.948257E8,8.209357E7,5.0117664E7,2.0803424E8,0E0,0E0,0E0,0E0,0E0,0E0,0E0,0E0],"parents":[2147483647,0,0,1,1,2,2,3,3,4,4,5,5,6,6],"right_children":[2,4,6,8,10,12,14,-1,-1,-1,-1,-1,-1,-1,-1],"split_conditions":[5.459173E0,3.627009E0,1.5666718E0,1.1493177E0,3.2229584E-1,6.653659E-3,6.5488415E0,1.3440399E1,-1.5209868E2,-6.70362E2,-2.3958936E2,6.2416656E2,3.0615027E2,-7.4802505E1,4.0148166E2],"split_indices":[0,2,2,5,3,9,0,0,0,0,0,0,0,0,0],"split_type":[0,0,0,0,0,0,0,0,0,0,0,0,0,0,0],"sum_hessian":[5.555E3,5.321E3,2.34E2,5.244E3,7.7E1,8.7E1,1.47E2,4.772E3,4.72E2,4.6E1,3.1E1,3.7E1,5E1,8.2E1,6.5E1],"tree_param":{"num_deleted":"0","num_feature":"10","num_nodes":"15","size_leaf_vector":"1"}},{"base_weights":[-8.12023E0,-1.7776056E2,3.192745E2,-7.3417737E2,-3.63221E1,1.8199074E2,1.12119E3,-4.7628085E2,-1.2142665E2,-1.92283E2,4.353166E0,8.47637E1,-2.569995E1,3.034264E2,-1.7313573E2],"categories":[],"categories_nodes":[],"categories_segments":[],"categories_sizes":[],"default_left":[0,0,0,0,0,0,0,0,0,0,0,0,0,0,0],"id":24,"left_children":[1,3,5,7,9,11,13,-1,-1,-1,-1,-1,-1,-1,-1],"loss_changes":[3.0413472E8,2.8383968E8,2.0555413E8,1.5153088E8,1.5462149E8,1.1996557E8,2.1607824E8,0E0,0E0,0E0,0E0,0E0,0E0,0E0,0E0],"parents":[2147483647,0,0,1,1,2,2,3,3,4,4,5,5,6,6],"right_children":[2,4,6,8,10,12,14,-1,-1,-1,-1,-1,-1,-1,-1],"split_conditions":[5.5982995E-1,-7.6451796E-1,1.8763156E0,-2.0501533E0,-4.9026456E0,1.6919433E-1,3.627009E0,-4.7628085E2,-1.2142665E2,-1.92283E2,4.353166E0,8.47637E1,-2.569995E1,3.034264E2,-1.7313573E2],"split_indices":[1,3,0,4,0,2,2,0,0,0,0,0,0,0,0],"split_type":[0,0,0,0,0,0,0,0,0,0,0,0,0,0,0],"sum_hessian":[5.474E3,3.606E3,1.868E3,7.3E2,2.876E3,1.596E3,2.72E2,5.1E1,6.79E2,1.69E2,2.707E3,8.97E2,6.99E2,2.27E2,4.5E1],"tree_param":{"num_deleted":"0","num_feature":"10","num_nodes":"15","size_leaf_vector":"1"}},{"base_weights":[5.088099E0,-1.9850623E2,2.3252626E2,-1.305004E2,-8.369981E2,3.38399E2,-8.1383295E2,-1.4809738E2,-1.2786797E1,-1.5231609E2,-7.295888E2,1.27403564E2,1.0727282E1,-1.9023438E2,5.5727325E2],"categories":[],"categories_nodes":[],"categories_segments":[],"categories_sizes":[],"default_left":[0,0,0,0,0,0,0,0,0,0,0,0,0,0,0],"id":25,"left_children":[1,3,5,7,9,11,13,-1,-1,-1,-1,-1,-1,-1,-1],"loss_changes":[2.53613E8,1.2537796E8,2.8686566E8,1.06052504E8,5.615645E7,1.9979914E8,1.2032883E8,0E0,0E0,0E0,0E0,0E0,0E0,0E0,0E0],"parents":[2147483647,0,0,1,1,2,2,3,3,4,4,5,5,6,6],"right_children":[2,4,6,8,10,12,14,-1,-1,-1,-1,-1,-1,-1,-1],"split_conditions":[-1.8375816E0,1.057081E0,1.4574707E0,-4.838297E0,5.391983E0,6.768743E-2,7.042026E0,-1.4809738E2,-1.2786797E1,-1.5231609E2,-7.295888E2,1.27403564E2,1.0727282E1,-1.9023438E2,5.5727325E2],"split_indices":[0,2,5,0,2,2,0,0,0,0,0,0,0,0,0],"split_type":[0,0,0,0,0,0,0,0,0,0,0,0,0,0,0],"sum_hessian":[5.475E3,2.889E3,2.586E3,2.612E3,2.77E2,2.349E3,2.37E2,2.56E2,2.356E3,2.71E2,6E0,1.146E3,1.203E3,2.29E2,8E0],"tree_param":{"num_deleted":"0","num_feature":"10","num_nodes":"15","size_leaf_vector":"1"}},{"base_weights":[-3.1991484E0,-7.5284375E2,5.007497E1,-5.9423596E2,-3.5932039E3,-6.435028E1,4.3398605E2,-9.674469E1,-4.3895465E2,-3.6625534E2,-9.991621E2,-7.3893265E1,1.0616494E1,1.0846549E2,-2.1060152E2],"categories":[],"categories_nodes":[],"categories_segments":[],"categories_sizes":[],"default_left":[0,0,0,0,0,0,0,0,0,0,0,0,0,0,0],"id":26,"left_children":[1,3,5,7,9,11,13,-1,-1,-1,-1,-1,-1,-1,-1],"loss_changes":[2.1849118E8,1.6139744E8,2.2441789E8,5.996173E7,3.7805824E7,1.4104891E8,1.8954486E8,0E0,0E0,0E0,0E0,0E0,0E0,0E0,0E0],"parents":[2147483647,0,0,1,1,2,2,3,3,4,4,5,5,6,6],"right_children":[2,4,6,8,10,12,14,-1,-1,-1,-1,-1,-1,-1,-1],"split_conditions":[-2.247387E0,1.041595E0,7.823532E-1,2.560249E0,5.6375355E-1,-4.153163E-1,6.633136E-2,-9.674469E1,-4.3895465E2,-3.6625534E2,-9.991621E2,-7.3893265E1,1.0616494E1,1.0846549E2,-2.1060152E2],"split_indices":[1,6,0,5,7,3,9,0,0,0,0,0,0,0,0],"split_type":[0,0,0,0,0,0,0,0,0,0,0,0,0,0,0],"sum_hessian":[5.469E3,3.62E2,5.107E3,3.44E2,1.8E1,3.935E3,1.172E3,3.23E2,2.1E1,9E0,9E0,1.093E3,2.842E3,1.093E3,7.9E1],"tree_param":{"num_deleted":"0","num_feature":"10","num_nodes":"15","size_leaf_vector":"1"}},{"base_weights":[-5.2805815E0,-3.1442375E1,1.6918728E3,-1.4184715E1,-3.148278E3,-3.153101E2,2.0307827E3,-1.2340496E2,8.236945E0,-8.272824E2,-3.4470477E2,-2.3681004E2,1.1969486E2,4.4676447E2,-3.4740627E1],"categories":[],"categories_nodes":[],"categories_segments":[],"categories_sizes":[],"default_left":[0,0,0,0,0,0,0,0,0,0,0,0,0,0,0],"id":27,"left_children":[1,3,5,7,9,11,13,-1,-1,-1,-1,-1,-1,-1,-1],"loss_changes":[2.456772E8,2.9305315E8,5.7781664E7,1.8093912E8,3.510627E7,1.1028558E7,3.2615072E7,0E0,0E0,0E0,0E0,0E0,0E0,0E0,0E0],"parents":[2147483647,0,0,1,1,2,2,3,3,4,4,5,5,6,6],"right_children":[2,4,6,8,10,12,14,-1,-1,-1,-1,-1,-1,-1,-1],"split_conditions":[6.342539E0,5.391983E0,-1.0210906E0,-1.3700296E0,-5.334125E-1,-9.339281E-1,9.913258E-2,-1.2340496E2,8.236945E0,-8.272824E2,-3.4470477E2,-2.3681004E2,1.1969486E2,4.4676447E2,-3.4740627E1],"split_indices":[0,2,4,3,3,7,9,0,0,0,0,0,0,0,0],"split_type":[0,0,0,0,0,0,0,0,0,0,0,0,0,0,0],"sum_hessian":[5.531E3,5.448E3,8.3E1,5.419E3,2.9E1,1.2E1,7.1E1,4.55E2,4.964E3,1.6E1,1.3E1,6E0,6E0,6.5E1,6E0],"tree_param":{"num_deleted":"0","num_feature":"10","num_nodes":"15","size_leaf_vector":"1"}},{"base_weights":[-1.3339607E1,-2.2252838E2,1.3512532E2,-1.8924545E2,-2.411678E3,6.7412895E1,8.318013E2,-1.0375865E1,-1.1023335E2,-5.8136414E2,2.0830249E2,-8.501531E1,2.5917631E1,2.0017259E2,-2.082805E2],"categories":[],"categories_nodes":[],"categories_segments":[],"categories_sizes":[],"default_left":[0,0,0,0,0,0,0,0,0,0,0,0,0,0,0],"id":28,"left_children":[1,3,5,7,9,11,13,-1,-1,-1,-1,-1,-1,-1,-1],"loss_changes":[1.7028563E8,1.6537595E8,1.512297E8,1.1148379E8,6.1161424E7,8.958989E7,9.098138E7,0E0,0E0,0E0,0E0,0E0,0E0,0E0,0E0],"parents":[2147483647,0,0,1,1,2,2,3,3,4,4,5,5,6,6],"right_children":[2,4,6,8,10,12,14,-1,-1,-1,-1,-1,-1,-1,-1],"split_conditions":[-1.8817236E-1,1.041595E0,2.0058534E0,3.9233232E-1,6.733176E0,-4.5177617E0,1.4128182E0,-1.0375865E1,-1.1023335E2,-5.8136414E2,2.0830249E2,-8.501531E1,2.5917631E1,2.0017259E2,-2.082805E2],"split_indices":[1,6,0,5,0,0,5,0,0,0,0,0,0,0,0],"split_type":[0,0,0,0,0,0,0,0,0,0,0,0,0,0,0],"sum_hessian":[5.481E3,2.275E3,3.206E3,2.242E3,3.3E1,2.923E3,2.83E2,1.626E3,6.16E2,2.9E1,4E0,3.27E2,2.596E3,2.6E2,2.3E1],"tree_param":{"num_deleted":"0","num_feature":"10","num_nodes":"15","size_leaf_vector":"1"}},{"base_weights":[-5.1196566E0,5.053789E1,-5.228717E2,-1.2060459E2,2.823948E2,-1.2117458E2,-1.0378342E3,-1.29841E2,-1.5046552E1,-1.2305768E1,9.285628E1,1.2723041E1,-2.7938513E2,-4.245043E2,-1.6311491E2],"categories":[],"categories_nodes":[],"categories_segments":[],"categories_sizes":[],"default_left":[0,0,0,0,0,0,0,0,0,0,0,0,0,0,0],"id":29,"left_children":[1,3,5,7,9,11,13,-1,-1,-1,-1,-1,-1,-1,-1],"loss_changes":[1.5794253E8,1.9641322E8,1.0992318E8,6.8256376E7,1.3151939E8,7.081259E7,5.4441104E7,0E0,0E0,0E0,0E0,0E0,0E0,0E0,0E0],"parents":[2147483647,0,0,1,1,2,2,3,3,4,4,5,5,6,6],"right_children":[2,4,6,8,10,12,14,-1,-1,-1,-1,-1,-1,-1,-1],"split_conditions":[3.5158258E-2,-1.793914E0,-8.253656E-3,-1.4543916E0,-2.586187E-1,2.7523766E0,-1.1549946E0,-1.29841E2,-1.5046552E1,-1.2305768E1,9.285628E1,1.2723041E1,-2.7938513E2,-4.245043E2,-1.6311491E2],"split_indices":[9,0,6,1,4,2,4,0,0,0,0,0,0,0,0],"split_type":[0,0,0,0,0,0,0,0,0,0,0,0,0,0,0],"sum_hessian":[5.479E3,4.948E3,5.31E2,2.847E3,2.101E3,2.99E2,2.32E2,2.24E2,2.623E3,7.27E2,1.374E3,2.62E2,3.7E1,3.8E1,1.94E2],"tree_param":{"num_deleted":"0","num_feature":"10","num_nodes":"15","size_leaf_vector":"1"}},{"base_weights":[-9.908775E0,8.018256E1,-3.2845367E2,-3.6671745E1,4.0927905E2,-3.7111807E2,1.9192153E3,-1.160637E2,1.1643184E0,-6.164846E-1,1.1827837E2,-5.858631E1,-3.8218506E2,1.9861552E2,6.4990643E2],"categories":[],"categories_nodes":[],"categories_segments":[],"categories_sizes":[],"default_left":[0,0,0,0,0,0,0,0,0,0,0,0,0,0,0],"id":30,"left_children":[1,3,5,7,9,11,13,-1,-1,-1,-1,-1,-1,-1,-1],"loss_changes":[1.5958798E8,1.6672325E8,1.18280056E8,7.392774E7,8.531122E7,1.443924E8,2.5110264E7,0E0,0E0,0E0,0E0,0E0,0E0,0E0,0E0],"parents":[2147483647,0,0,1,1,2,2,3,3,4,4,5,5,6,6],"right_children":[2,4,6,8,10,12,14,-1,-1,-1,-1,-1,-1,-1,-1],"split_conditions":[8.8070595E-1,-1.0209763E0,7.042026E0,-5.0126534E0,-2.7207187E-1,4.7628736E0,1.5319194E-2,-1.160637E2,1.1643184E0,-6.164846E-1,1.1827837E2,-5.858631E1,-3.8218506E2,1.9861552E2,6.4990643E2],"split_indices":[2,0,0,0,4,2,9,0,0,0,0,0,0,0,0],"split_type":[0,0,0,0,0,0,0,0,0,0,0,0,0,0,0],"sum_hessian":[5.559E3,4.334E3,1.225E3,3.199E3,1.135E3,1.203E3,2.2E1,2.31E2,2.968E3,3.48E2,7.87E2,1.146E3,5.7E1,1.4E1,8E0],"tree_param":{"num_deleted":"0","num_feature":"10","num_nodes":"15","size_leaf_vector":"1"}},{"base_weights":[9.388002E0,-6.70078E1,3.7081372E2,-4.36007E1,-1.4676813E3,-8.1758255E1,4.5422467E2,-1.9262604E1,1.1778408E2,-7.509875E1,-3.4325336E2,-1.1099987E2,8.442016E0,5.516047E1,1.5493452E2],"categories":[],"categories_nodes":[],"categories_segments":[],"categories_sizes":[],"default_left":[0,0,0,0,0,0,0,0,0,0,0,0,0,0,0],"id":31,"left_children":[1,3,5,7,9,11,13,-1,-1,-1,-1,-1,-1,-1,-1],"loss_changes":[1.5064507E8,1.4760278E8,3.597463E7,1.477936E8,1.9446688E7,8.764795E6,4.5755104E7,0E0,0E0,0E0,0E0,0E0,0E0,0E0,0E0],"parents":[2147483647,0,0,1,1,2,2,3,3,4,4,5,5,6,6],"right_children":[2,4,6,8,10,12,14,-1,-1,-1,-1,-1,-1,-1,-1],"split_conditions":[7.943312E-1,2.2516294E0,-3.4962163E0,2.0944338E0,-3.5763508E-1,-1.0149489E-1,2.9226068E-1,-1.9262604E1,1.1778408E2,-7.509875E1,-3.4325336E2,-1.1099987E2,8.442016E0,5.516047E1,1.5493452E2],"split_indices":[3,5,0,0,2,6,4,0,0,0,0,0,0,0,0],"split_type":[0,0,0,0,0,0,0,0,0,0,0,0,0,0,0],"sum_hessian":[5.454E3,4.503E3,9.51E2,4.43E3,7.3E1,1.48E2,8.03E2,4.09E3,3.4E2,1.4E1,5.9E1,3E1,1.18E2,5.17E2,2.86E2],"tree_param":{"num_deleted":"0","num_feature":"10","num_nodes":"15","size_leaf_vector":"1"}},{"base_weights":[-1.5622987E0,7.59684E1,-2.907404E2,2.055581E1,6.013268E2,-2.580142E2,-4.0120874E3,7.695725E1,-9.902386E0,-1.2303182E2,1.505151E2,-1.2368838E1,-1.2042123E2,-3.9168048E2,-1.0109621E3],"categories":[],"categories_nodes":[],"categories_segments":[],"categories_sizes":[],"default_left":[0,0,0,0,0,0,0,0,0,0,0,0,0,0,0],"id":32,"left_children":[1,3,5,7,9,11,13,-1,-1,-1,-1,-1,-1,-1,-1],"loss_changes":[1.224811E8,1.2539986E8,1.3962709E8,9.9499144E7,7.608363E7,7.731835E7,1.1514896E7,0E0,0E0,0E0,0E0,0E0,0E0,0E0,0E0],"parents":[2147483647,0,0,1,1,2,2,3,3,4,4,5,5,6,6],"right_children":[2,4,6,8,10,12,14,-1,-1,-1,-1,-1,-1,-1,-1],"split_conditions":[1.7098343E-2,1.6661428E0,5.391983E0,-8.7838846E-1,-2.1295857E0,1.1783493E-1,2.821268E0,7.695725E1,-9.902386E0,-1.2303182E2,1.505151E2,-1.2368838E1,-1.2042123E2,-3.9168048E2,-1.0109621E3],"split_indices":[9,0,2,2,3,6,0,0,0,0,0,0,0,0,0],"split_type":[0,0,0,0,0,0,0,0,0,0,0,0,0,0,0],"sum_hessian":[5.461E3,4.307E3,1.154E3,3.897E3,4.1E2,1.145E3,9E0,6.28E2,3.269E3,4.5E1,3.65E2,7.3E2,4.15E2,4E0,5E0],"tree_param":{"num_deleted":"0","num_feature":"10","num_nodes":"15","size_leaf_vector":"1"}},{"base_weights":[-9.299868E0,-1.0725254E3,1.1118293E1,-1.2803529E3,1.5814492E3,8.563804E2,-1.1967022E1,-2.0792798E2,-5.7975336E2,4.5097632E2,-5.851302E1,1.1040057E2,2.9072708E2,-2.2408155E1,3.0266592E1],"categories":[],"categories_nodes":[],"categories_segments":[],"categories_sizes":[],"default_left":[0,0,0,0,0,0,0,0,0,0,0,0,0,0,0],"id":33,"left_children":[1,3,5,7,9,11,13,-1,-1,-1,-1,-1,-1,-1,-1],"loss_changes":[1.1982449E8,5.938799E7,1.0569342E8,3.4774944E7,1.0755874E7,2.5375496E7,8.618854E7,0E0,0E0,0E0,0E0,0E0,0E0,0E0,0E0],"parents":[2147483647,0,0,1,1,2,2,3,3,4,4,5,5,6,6],"right_children":[2,4,6,8,10,12,14,-1,-1,-1,-1,-1,-1,-1,-1],"split_conditions":[-2.3590076E0,1.746043E0,-1.287573E0,5.0656047E-2,2.0286412E0,3.5470477E-1,4.4641966E-1,-2.0792798E2,-5.7975336E2,4.5097632E2,-5.851302E1,1.1040057E2,2.9072708E2,-2.2408155E1,3.0266592E1],"split_indices":[3,4,2,9,4,4,1,0,0,0,0,0,0,0,0],"split_type":[0,0,0,0,0,0,0,0,0,0,0,0,0,0,0],"sum_hessian":[5.518E3,1.03E2,5.415E3,9.6E1,7E0,1.43E2,5.272E3,8.5E1,1.1E1,5E0,2E0,9.6E1,4.7E1,3.269E3,2.003E3],"tree_param":{"num_deleted":"0","num_feature":"10","num_nodes":"15","size_leaf_vector":"1"}},{"base_weights":[-5.3891E0,1.7373203E2,-1.2252403E2,1.08344345E2,7.535861E2,-2.075382E2,2.2138322E2,-1.0738804E2,2.8123972E1,1.8753215E2,-3.9589302E1,-2.9748579E1,-1.4625072E2,5.498474E1,-1.0090963E2],"categories":[],"categories_nodes":[],"categories_segments":[],"categories_sizes":[],"default_left":[0,0,0,0,0,0,0,0,0,0,0,0,0,0,0],"id":34,"left_children":[1,3,5,7,9,11,13,-1,-1,-1,-1,-1,-1,-1,-1],"loss_changes":[1.13719176E8,8.117088E7,9.585554E7,4.020892E7,3.81938E7,8.0812616E7,2.5402072E7,0E0,0E0,0E0,0E0,0E0,0E0,0E0,0E0],"parents":[2147483647,0,0,1,1,2,2,3,3,4,4,5,5,6,6],"right_children":[2,4,6,8,10,12,14,-1,-1,-1,-1,-1,-1,-1,-1],"split_conditions":[-3.8308528E-1,7.823532E-1,8.2817835E-1,-5.11165E0,7.5260216E-1,9.433187E-1,3.3757844E0,-1.0738804E2,2.8123972E1,1.8753215E2,-3.9589302E1,-2.9748579E1,-1.4625072E2,5.498474E1,-1.0090963E2],"split_indices":[2,0,3,0,5,5,2,0,0,0,0,0,0,0,0],"split_type":[0,0,0,0,0,0,0,0,0,0,0,0,0,0,0],"sum_hessian":[5.418E3,2.142E3,3.276E3,1.926E3,2.16E2,2.627E3,6.49E2,9.1E1,1.835E3,1.81E2,3.5E1,2.363E3,2.64E2,6.05E2,4.4E1],"tree_param":{"num_deleted":"0","num_feature":"10","num_nodes":"15","size_leaf_vector":"1"}},{"base_weights":[8.777987E0,-7.667735E0,1.00017474E3,4.2870373E1,-4.127154E2,4.825E1,1.3074408E3,-1.5721845E1,3.7911976E1,-2.2354854E2,-5.0210793E1,1.0564795E2,-3.570722E2,2.8972018E2,-7.852917E1],"categories":[],"categories_nodes":[],"categories_segments":[],"categories_sizes":[],"default_left":[0,0,0,0,0,0,0,0,0,0,0,0,0,0,0],"id":35,"left_children":[1,3,5,7,9,11,13,-1,-1,-1,-1,-1,-1,-1,-1],"loss_changes":[8.992553E7,1.1108978E8,2.6261392E7,8.599534E7,6.833278E7,2.118573E7,1.6887712E7,0E0,0E0,0E0,0E0,0E0,0E0,0E0,0E0],"parents":[2147483647,0,0,1,1,2,2,3,3,4,4,5,5,6,6],"right_children":[2,4,6,8,10,12,14,-1,-1,-1,-1,-1,-1,-1,-1],"split_conditions":[6.342539E0,1.6116396E0,-6.089517E-1,1.5782705E-1,-1.2862618E0,5.954023E-2,1.1378486E-1,-1.5721845E1,3.7911976E1,-2.2354854E2,-5.0210793E1,1.0564795E2,-3.570722E2,2.8972018E2,-7.852917E1],"split_indices":[0,2,4,4,3,9,9,0,0,0,0,0,0,0,0],"split_type":[0,0,0,0,0,0,0,0,0,0,0,0,0,0,0],"sum_hessian":[5.514E3,5.425E3,8.9E1,4.824E3,6.01E2,2.2E1,6.7E1,2.639E3,2.185E3,1.11E2,4.9E2,1.8E1,4E0,6.2E1,5E0],"tree_param":{"num_deleted":"0","num_feature":"10","num_nodes":"15","size_leaf_vector":"1"}},{"base_weights":[-7.9832582E0,2.0129961E1,-5.8366656E2,-2.0627552E1,4.293859E2,-7.23037E2,1.00374854E3,-2.7576826E1,2.844194E1,4.911945E1,2.8661652E2,-2.8909103E2,-8.766313E1,9.246224E1,6.378559E2],"categories":[],"categories_nodes":[],"categories_segments":[],"categories_sizes":[],"default_left":[0,0,0,0,0,0,0,0,0,0,0,0,0,0,0],"id":36,"left_children":[1,3,5,7,9,11,13,-1,-1,-1,-1,-1,-1,-1,-1],"loss_changes":[8.863703E7,8.711314E7,5.7141616E7,9.071488E7,8.690142E7,4.770309E7,2.3375444E7,0E0,0E0,0E0,0E0,0E0,0E0,0E0,0E0],"parents":[2147483647,0,0,1,1,2,2,3,3,4,4,5,5,6,6],"right_children":[2,4,6,8,10,12,14,-1,-1,-1,-1,-1,-1,-1,-1],"split_conditions":[2.7523766E0,1.691865E0,7.042026E0,1.0042676E-1,2.353346E0,-1.2122307E0,2.4052243E0,-2.7576826E1,2.844194E1,4.911945E1,2.8661652E2,-2.8909103E2,-8.766313E1,9.246224E1,6.378559E2],"split_indices":[2,0,0,3,1,3,4,0,0,0,0,0,0,0,0],"split_type":[0,0,0,0,0,0,0,0,0,0,0,0,0,0,0],"sum_hessian":[5.475E3,5.221E3,2.54E2,4.749E3,4.72E2,2.34E2,2E1,2.761E3,1.988E3,4E2,7.2E1,6.5E1,1.69E2,1.7E1,3E0],"tree_param":{"num_deleted":"0","num_feature":"10","num_nodes":"15","size_leaf_vector":"1"}},{"base_weights":[-4.3107724E0,9.590132E1,-1.3673209E2,-3.9560687E2,1.2569753E2,-2.044552E1,-3.4564124E2,-9.892235E1,-6.436483E1,7.80872E-1,4.7271816E1,-1.4642862E2,4.9088016E0,-7.524593E1,1.448122E2],"categories":[],"categories_nodes":[],"categories_segments":[],"categories_sizes":[],"default_left":[0,0,0,0,0,0,0,0,0,0,0,0,0,0,0],"id":37,"left_children":[1,3,5,7,9,11,13,-1,-1,-1,-1,-1,-1,-1,-1],"loss_changes":[7.331779E7,4.610852E7,5.7811052E7,1.155694E6,3.9974296E7,4.9006944E7,2.8117568E7,0E0,0E0,0E0,0E0,0E0,0E0,0E0,0E0],"parents":[2147483647,0,0,1,1,2,2,3,3,4,4,5,5,6,6],"right_children":[2,4,6,8,10,12,14,-1,-1,-1,-1,-1,-1,-1,-1],"split_conditions":[-1.5967262E-4,-5.0661173E0,1.0791246E-2,-5.151457E0,3.2303266E-2,-2.9674404E0,2.4144232E0,-9.892235E1,-6.436483E1,7.80872E-1,4.7271816E1,-1.4642862E2,4.9088016E0,-7.524593E1,1.448122E2],"split_indices":[2,0,9,0,4,1,3,0,0,0,0,0,0,0,0],"split_type":[0,0,0,0,0,0,0,0,0,0,0,0,0,0,0],"sum_hessian":[5.523E3,3.144E3,2.379E3,1.79E2,2.965E3,1.529E3,8.5E2,7.4E1,1.05E2,1.412E3,1.553E3,9E1,1.439E3,8.27E2,2.3E1],"tree_param":{"num_deleted":"0","num_feature":"10","num_nodes":"15","size_leaf_vector":"1"}},{"base_weights":[-2.0911477E0,-4.0942E1,2.876523E2,1.810331E1,-2.8850964E2,3.626975E2,-6.21645E2,-1.6998501E0,1.0753275E2,-7.659594E0,-8.831808E1,3.782974E1,1.8897069E2,-1.8482887E2,2.737172E2],"categories":[],"categories_nodes":[],"categories_segments":[],"categories_sizes":[],"default_left":[0,0,0,0,0,0,0,0,0,0,0,0,0,0,0],"id":38,"left_children":[1,3,5,7,9,11,13,-1,-1,-1,-1,-1,-1,-1,-1],"loss_changes":[6.198036E7,7.097419E7,4.464866E7,5.4199216E7,3.5796016E7,6.064284E7,3.1366952E7,0E0,0E0,0E0,0E0,0E0,0E0,0E0,0E0],"parents":[2147483647,0,0,1,1,2,2,3,3,4,4,5,5,6,6],"right_children":[2,4,6,8,10,12,14,-1,-1,-1,-1,-1,-1,-1,-1],"split_conditions":[1.6661428E0,6.957673E-1,4.7628736E0,1.5805242E0,-8.7137725E-3,1.9779166E0,2.4052243E0,-1.6998501E0,1.0753275E2,-7.659594E0,-8.831808E1,3.782974E1,1.8897069E2,-1.8482887E2,2.737172E2],"split_indices":[0,2,2,3,9,1,4,0,0,0,0,0,0,0,0],"split_type":[0,0,0,0,0,0,0,0,0,0,0,0,0,0,0],"sum_hessian":[5.504E3,4.854E3,6.5E2,3.92E3,9.34E2,6.01E2,4.9E1,3.73E3,1.9E2,3.55E2,5.79E2,4.64E2,1.37E2,4.3E1,6E0],"tree_param":{"num_deleted":"0","num_feature":"10","num_nodes":"15","size_leaf_vector":"1"}},{"base_weights":[-1.7398915E0,-3.211664E2,3.508444E1,-7.2310156E2,-1.6791722E2,-4.129951E0,3.4160587E2,-1.10710815E2,-2.9325906E2,-2.1387918E1,-3.5005432E2,2.4985296E1,-2.0907022E1,-4.6028748E1,8.874317E1],"categories":[],"categories_nodes":[],"categories_segments":[],"categories_sizes":[],"default_left":[0,0,0,0,0,0,0,0,0,0,0,0,0,0,0],"id":39,"left_children":[1,3,5,7,9,11,13,-1,-1,-1,-1,-1,-1,-1,-1],"loss_changes":[6.3612012E7,3.4310876E7,5.8286636E7,1.8593344E7,3.898704E7,5.573216E7,3.221186E7,0E0,0E0,0E0,0E0,0E0,0E0,0E0,0E0],"parents":[2147483647,0,0,1,1,2,2,3,3,4,4,5,5,6,6],"right_children":[2,4,6,8,10,12,14,-1,-1,-1,-1,-1,-1,-1,-1],"split_conditions":[-1.2610762E0,-8.633782E-1,1.5657735E0,1.04376696E-1,4.7628736E0,-4.2080176E-1,-7.8647816E-1,-1.10710815E2,-2.9325906E2,-2.1387918E1,-3.5005432E2,2.4985296E1,-2.0907022E1,-4.6028748E1,8.874317E1],"split_indices":[3,4,0,8,2,2,4,0,0,0,0,0,0,0,0],"split_type":[0,0,0,0,0,0,0,0,0,0,0,0,0,0,0],"sum_hessian":[5.406E3,5.58E2,4.848E3,1.53E2,4.05E2,4.299E3,5.49E2,1.26E2,2.7E1,3.91E2,1.4E1,1.881E3,2.418E3,8.3E1,4.66E2],"tree_param":{"num_deleted":"0","num_feature":"10","num_nodes":"15","size_leaf_vector":"1"}},{"base_weights":[2.4055374E0,5.0971317E1,-1.8305287E2,-8.839812E1,1.23842316E2,-2.0007663E2,2.2423066E3,4.8078637E0,-4.1478275E1,-4.0870293E1,3.619839E1,-9.361442E1,-1.4493024E1,-1.3755313E2,5.518281E2],"categories":[],"categories_nodes":[],"categories_segments":[],"categories_sizes":[],"default_left":[0,0,0,0,0,0,0,0,0,0,0,0,0,0,0],"id":40,"left_children":[1,3,5,7,9,11,13,-1,-1,-1,-1,-1,-1,-1,-1],"loss_changes":[4.9304268E7,4.4067636E7,4.7352636E7,1.9940136E7,5.347326E7,3.85771E7,1.4012528E7,0E0,0E0,0E0,0E0,0E0,0E0,0E0,0E0],"parents":[2147483647,0,0,1,1,2,2,3,3,4,4,5,5,6,6],"right_children":[2,4,6,8,10,12,14,-1,-1,-1,-1,-1,-1,-1,-1],"split_conditions":[1.7098343E-2,-3.613348E0,7.042026E0,-3.1080702E-1,-1.2122307E0,-4.5460033E-1,-8.2067984E-1,4.8078637E0,-4.1478275E1,-4.0870293E1,3.619839E1,-9.361442E1,-1.4493024E1,-1.3755313E2,5.518281E2],"split_indices":[9,0,0,2,3,4,5,0,0,0,0,0,0,0,0],"split_type":[0,0,0,0,0,0,0,0,0,0,0,0,0,0,0],"sum_hessian":[5.472E3,4.337E3,1.135E3,1.489E3,2.848E3,1.128E3,7E0,7.66E2,7.23E2,4.22E2,2.426E3,3.63E2,7.65E2,1E0,6E0],"tree_param":{"num_deleted":"0","num_feature":"10","num_nodes":"15","size_leaf_vector":"1"}},{"base_weights":[7.0410805E0,-4.109086E1,2.1761731E2,1.3577501E1,-2.5777487E2,1.1509784E2,5.157005E2,-7.870998E0,3.859948E1,-5.8119648E1,2.7334286E2,4.34479E0,7.232164E1,8.216381E1,1.8391185E2],"categories":[],"categories_nodes":[],"categories_segments":[],"categories_sizes":[],"default_left":[0,0,0,0,0,0,0,0,0,0,0,0,0,0,0],"id":41,"left_children":[1,3,5,7,9,11,13,-1,-1,-1,-1,-1,-1,-1,-1],"loss_changes":[5.5622116E7,5.291851E7,3.1141728E7,3.3893396E7,4.8386252E7,1.750856E7,1.067748E7,0E0,0E0,0E0,0E0,0E0,0E0,0E0,0E0],"parents":[2147483647,0,0,1,1,2,2,3,3,4,4,5,5,6,6],"right_children":[2,4,6,8,10,12,14,-1,-1,-1,-1,-1,-1,-1,-1],"split_conditions":[1.2939523E0,4.4003037E-1,2.4602748E-1,4.654042E-1,6.733176E0,2.816782E-1,-4.705462E-3,-7.870998E0,3.859948E1,-5.8119648E1,2.7334286E2,4.34479E0,7.232164E1,8.216381E1,1.8391185E2],"split_indices":[1,5,6,3,0,4,9,0,0,0,0,0,0,0,0],"split_type":[0,0,0,0,0,0,0,0,0,0,0,0,0,0,0],"sum_hessian":[5.486E3,4.466E3,1.02E3,3.567E3,8.99E2,7.6E2,2.6E2,2.755E3,8.12E2,8.82E2,1.7E1,5.52E2,2.08E2,2.08E2,5.2E1],"tree_param":{"num_deleted":"0","num_feature":"10","num_nodes":"15","size_leaf_vector":"1"}},{"base_weights":[1.5308288E1,9.081604E2,5.323858E0,2.589364E2,1.1588086E3,-5.00577E0,7.985322E2,1.0370109E2,-6.932383E1,8.348077E1,2.5827524E2,6.7315966E-1,-2.2114839E2,1.9061034E2,4.542412E1],"categories":[],"categories_nodes":[],"categories_segments":[],"categories_sizes":[],"default_left":[0,0,0,0,0,0,0,0,0,0,0,0,0,0,0],"id":42,"left_children":[1,3,5,7,9,11,13,-1,-1,-1,-1,-1,-1,-1,-1],"loss_changes":[4.8365892E7,9.463552E6,4.3978764E7,3.0090258E6,3.687276E6,4.8833412E7,5.875844E6,0E0,0E0,0E0,0E0,0E0,0E0,0E0,0E0],"parents":[2147483647,0,0,1,1,2,2,3,3,4,4,5,5,6,6],"right_children":[2,4,6,8,10,12,14,-1,-1,-1,-1,-1,-1,-1,-1],"split_conditions":[-1.4378846E0,-1.858884E-1,2.7911234E0,1.8483773E-1,-3.145687E-1,2.7527714E0,2.2121827E-1,1.0370109E2,-6.932383E1,8.348077E1,2.5827524E2,6.7315966E-1,-2.2114839E2,1.9061034E2,4.542412E1],"split_indices":[2,6,3,7,4,5,8,0,0,0,0,0,0,0,0],"split_type":[0,0,0,0,0,0,0,0,0,0,0,0,0,0,0],"sum_hessian":[5.425E3,5.9E1,5.366E3,1.7E1,4.2E1,5.298E3,6.8E1,1.2E1,5E0,7E0,3.5E1,5.259E3,3.9E1,5.3E1,1.5E1],"tree_param":{"num_deleted":"0","num_feature":"10","num_nodes":"15","size_leaf_vector":"1"}},{"base_weights":[5.8964235E-1,-2.3152257E2,3.4457462E1,-3.889149E2,-4.6441467E1,7.758855E-1,3.3067395E2,-6.0928288E0,-1.1564325E2,-2.3794785E1,6.981278E1,4.3607774E0,-8.4413376E1,2.9152983E1,1.8688094E2],"categories":[],"categories_nodes":[],"categories_segments":[],"categories_sizes":[],"default_left":[0,0,0,0,0,0,0,0,0,0,0,0,0,0,0],"id":43,"left_children":[1,3,5,7,9,11,13,-1,-1,-1,-1,-1,-1,-1,-1],"loss_changes":[4.2969076E7,2.025666E7,4.7590216E7,2.5495944E7,9.250048E6,3.8100548E7,5.423017E7,0E0,0E0,0E0,0E0,0E0,0E0,0E0,0E0],"parents":[2147483647,0,0,1,1,2,2,3,3,4,4,5,5,6,6],"right_children":[2,4,6,8,10,12,14,-1,-1,-1,-1,-1,-1,-1,-1],"split_conditions":[-9.4268334E-1,1.4234196E-1,1.8160388E0,-1.9509556E0,2.167921E0,2.1954577E0,1.9779166E0,-6.0928288E0,-1.1564325E2,-2.3794785E1,6.981278E1,4.3607774E0,-8.4413376E1,2.9152983E1,1.8688094E2],"split_indices":[4,3,0,0,3,2,1,0,0,0,0,0,0,0,0],"split_type":[0,0,0,0,0,0,0,0,0,0,0,0,0,0,0],"sum_hessian":[5.464E3,6.95E2,4.769E3,3.75E2,3.2E2,4.283E3,4.86E2,1.3E2,2.45E2,2.71E2,4.9E1,4.081E3,2.02E2,3.73E2,1.13E2],"tree_param":{"num_deleted":"0","num_feature":"10","num_nodes":"15","size_leaf_vector":"1"}},{"base_weights":[1.0706315E1,-9.5841077E2,1.9554743E1,-3.1421729E3,-7.5216693E2,-2.3589718E1,1.9906769E2,8.718516E1,-8.9603625E2,-1.990542E2,-7.959405E0,2.0600671E-2,-6.435076E1,3.3887253E1,3.4658237E2],"categories":[],"categories_nodes":[],"categories_segments":[],"categories_sizes":[],"default_left":[0,0,0,0,0,0,0,0,0,0,0,0,0,0,0],"id":44,"left_children":[1,3,5,7,9,11,13,-1,-1,-1,-1,-1,-1,-1,-1],"loss_changes":[4.7387944E7,2.0155932E7,4.240851E7,2.1103128E7,8.099852E6,3.1189004E7,4.792882E7,0E0,0E0,0E0,0E0,0E0,0E0,0E0,0E0],"parents":[2147483647,0,0,1,1,2,2,3,3,4,4,5,5,6,6],"right_children":[2,4,6,8,10,12,14,-1,-1,-1,-1,-1,-1,-1,-1],"split_conditions":[-4.209575E0,-1.6551614E0,6.4885986E-1,2.4409254E0,3.053664E-2,1.1723111E0,6.5488415E0,8.718516E1,-8.9603625E2,-1.990542E2,-7.959405E0,2.0600671E-2,-6.435076E1,3.3887253E1,3.4658237E2],"split_indices":[1,8,4,0,9,5,0,0,0,0,0,0,0,0,0],"split_type":[0,0,0,0,0,0,0,0,0,0,0,0,0,0,0],"sum_hessian":[5.523E3,4.9E1,5.474E3,3E0,4.6E1,4.414E3,1.06E3,1E0,2E0,3.4E1,1.2E1,4.09E3,3.24E2,1.041E3,1.9E1],"tree_param":{"num_deleted":"0","num_feature":"10","num_nodes":"15","size_leaf_vector":"1"}},{"base_weights":[-6.298907E0,5.8891605E1,-1.0325663E2,-2.6068035E1,2.0630377E2,-1.2899037E2,6.5254407E2,-9.70754E1,2.3925446E-1,3.6212715E1,2.5180486E2,-2.3259218E1,-3.4148813E2,-6.2734303E1,2.0461443E2],"categories":[],"categories_nodes":[],"categories_segments":[],"categories_sizes":[],"default_left":[0,0,0,0,0,0,0,0,0,0,0,0,0,0,0],"id":45,"left_children":[1,3,5,7,9,11,13,-1,-1,-1,-1,-1,-1,-1,-1],"loss_changes":[3.477638E7,4.1209616E7,4.310663E7,2.6148064E7,3.1736804E7,4.2681228E7,2.6455632E7,0E0,0E0,0E0,0E0,0E0,0E0,0E0,0E0],"parents":[2147483647,0,0,1,1,2,2,3,3,4,4,5,5,6,6],"right_children":[2,4,6,8,10,12,14,-1,-1,-1,-1,-1,-1,-1,-1],"split_conditions":[6.768743E-2,-1.7549745E0,6.5488415E0,-1.6770753E0,5.571539E0,6.3946447E0,-6.089517E-1,-9.70754E1,2.3925446E-1,3.6212715E1,2.5180486E2,-2.3259218E1,-3.4148813E2,-6.2734303E1,2.0461443E2],"split_indices":[2,0,0,1,0,2,4,0,0,0,0,0,0,0,0],"split_type":[0,0,0,0,0,0,0,0,0,0,0,0,0,0,0],"sum_hessian":[5.5E3,3.289E3,2.211E3,2.087E3,1.202E3,2.139E3,7.2E1,1.16E2,1.971E3,1.175E3,2.7E1,2.123E3,1.6E1,2E1,5.2E1],"tree_param":{"num_deleted":"0","num_feature":"10","num_nodes":"15","size_leaf_vector":"1"}},{"base_weights":[7.497723E0,4.819169E2,-6.1573043E0,9.166337E2,2.882724E2,-6.991024E1,8.490458E1,2.4647386E2,1.0036531E2,2.7256077E1,1.4353362E2,-1.2393042E1,-2.6188303E2,-1.7725607E1,2.9944738E1],"categories":[],"categories_nodes":[],"categories_segments":[],"categories_sizes":[],"default_left":[0,0,0,0,0,0,0,0,0,0,0,0,0,0,0],"id":46,"left_children":[1,3,5,7,9,11,13,-1,-1,-1,-1,-1,-1,-1,-1],"loss_changes":[3.5659016E7,1.269956E7,3.1070964E7,5.537128E6,6.950785E6,3.0920066E7,2.4804364E7,0E0,0E0,0E0,0E0,0E0,0E0,0E0,0E0],"parents":[2147483647,0,0,1,1,2,2,3,3,4,4,5,5,6,6],"right_children":[2,4,6,8,10,12,14,-1,-1,-1,-1,-1,-1,-1,-1],"split_conditions":[-1.287573E0,-3.1587985E-1,1.0042676E-1,-2.482099E-1,1.785523E-1,2.7527714E0,-3.613348E0,2.4647386E2,1.0036531E2,2.7256077E1,1.4353362E2,-1.2393042E1,-2.6188303E2,-1.7725607E1,2.9944738E1],"split_indices":[2,5,3,1,7,5,0,0,0,0,0,0,0,0,0],"split_type":[0,0,0,0,0,0,0,0,0,0,0,0,0,0,0],"sum_hessian":[5.503E3,1.53E2,5.35E3,4.6E1,1.07E2,3.147E3,2.203E3,2.5E1,2.1E1,8E1,2.7E1,3.128E3,1.9E1,5.99E2,1.604E3],"tree_param":{"num_deleted":"0","num_feature":"10","num_nodes":"15","size_leaf_vector":"1"}},{"base_weights":[-5.356074E0,-4.319222E1,1.9470863E2,-2.4751809E0,-2.6633856E2,1.2672774E2,4.9073053E2,9.634214E0,-3.1949064E1,-8.88796E1,-7.070367E-1,4.4436005E1,-5.026947E1,2.405944E2,4.57325E0],"categories":[],"categories_nodes":[],"categories_segments":[],"categories_sizes":[],"default_left":[0,0,0,0,0,0,0,0,0,0,0,0,0,0,0],"id":47,"left_children":[1,3,5,7,9,11,13,-1,-1,-1,-1,-1,-1,-1,-1],"loss_changes":[4.1883864E7,4.227584E7,1.7646788E7,3.1358496E7,3.359697E7,2.5931034E7,5.4622604E7,0E0,0E0,0E0,0E0,0E0,0E0,0E0,0E0],"parents":[2147483647,0,0,1,1,2,2,3,3,4,4,5,5,6,6],"right_children":[2,4,6,8,10,12,14,-1,-1,-1,-1,-1,-1,-1,-1],"split_conditions":[1.4399691E0,6.1271167E-1,2.0058534E0,4.207191E-1,3.0472383E-1,1.6116396E0,4.3564E0,9.634214E0,-3.1949064E1,-8.88796E1,-7.070367E-1,4.4436005E1,-5.026947E1,2.405944E2,4.57325E0],"split_indices":[1,5,0,2,4,2,0,0,0,0,0,0,0,0,0],"split_type":[0,0,0,0,0,0,0,0,0,0,0,0,0,0,0],"sum_hessian":[5.531E3,4.652E3,8.79E2,3.935E3,7.17E2,7.16E2,1.63E2,2.977E3,9.58E2,4.27E2,2.9E2,5.72E2,1.44E2,6.4E1,9.9E1],"tree_param":{"num_deleted":"0","num_feature":"10","num_nodes":"15","size_leaf_vector":"1"}},{"base_weights":[-1.3118893E1,2.3902299E-1,-5.763447E2,-7.249385E1,6.152818E1,-4.2432373E2,-1.6139717E3,-6.1419034E0,-5.8627815E1,8.705296E0,1.5509825E2,-1.4584984E2,-3.0486475E1,-6.456498E2,-1.1734645E2],"categories":[],"categories_nodes":[],"categories_segments":[],"categories_sizes":[],"default_left":[0,0,0,0,0,0,0,0,0,0,0,0,0,0,0],"id":48,"left_children":[1,3,5,7,9,11,13,-1,-1,-1,-1,-1,-1,-1,-1],"loss_changes":[4.15676E7,2.4067322E7,1.9506016E7,2.275398E7,3.7624224E7,9.257282E6,2.4637864E7,0E0,0E0,0E0,0E0,0E0,0E0,0E0,0E0],"parents":[2147483647,0,0,1,1,2,2,3,3,4,4,5,5,6,6],"right_children":[2,4,6,8,10,12,14,-1,-1,-1,-1,-1,-1,-1,-1],"split_conditions":[3.627009E0,4.9621087E-2,8.2563E-2,7.5260216E-1,2.5384426E0,2.0944338E0,4.3564E0,-6.1419034E0,-5.8627815E1,8.705296E0,1.5509825E2,-1.4584984E2,-3.0486475E1,-6.456498E2,-1.1734645E2],"split_indices":[2,4,9,5,1,0,0,0,0,0,0,0,0,0,0],"split_type":[0,0,0,0,0,0,0,0,0,0,0,0,0,0,0],"sum_hessian":[5.524E3,5.397E3,1.27E2,2.468E3,2.929E3,1.12E2,1.5E1,2.076E3,3.92E2,2.858E3,7.1E1,5.2E1,6E1,5E0,1E1],"tree_param":{"num_deleted":"0","num_feature":"10","num_nodes":"15","size_leaf_vector":"1"}},{"base_weights":[-7.965271E0,-4.429797E2,6.7271423E0,-5.0064587E2,1.6754656E3,-6.33476E0,3.400646E2,-4.8868343E1,-1.9129753E2,9.655677E1,4.619318E2,7.8483706E0,-2.4273506E1,7.536533E1,-2.3527461E2],"categories":[],"categories_nodes":[],"categories_segments":[],"categories_sizes":[],"default_left":[0,0,0,0,0,0,0,0,0,0,0,0,0,0,0],"id":49,"left_children":[1,3,5,7,9,11,13,-1,-1,-1,-1,-1,-1,-1,-1],"loss_changes":[3.521327E7,2.2828088E7,2.320909E7,2.0329096E7,2.666888E6,2.6900346E7,1.164851E7,0E0,0E0,0E0,0E0,0E0,0E0,0E0,0E0],"parents":[2147483647,0,0,1,1,2,2,3,3,4,4,5,5,6,6],"right_children":[2,4,6,8,10,12,14,-1,-1,-1,-1,-1,-1,-1,-1],"split_conditions":[-2.050114E0,9.3279415E-1,1.9949619E0,2.821268E0,7.030423E-2,1.0282851E-2,1.4719371E0,-4.8868343E1,-1.9129753E2,9.655677E1,4.619318E2,7.8483706E0,-2.4273506E1,7.536533E1,-2.3527461E2],"split_indices":[3,8,3,0,7,9,6,0,0,0,0,0,0,0,0],"split_type":[0,0,0,0,0,0,0,0,0,0,0,0,0,0,0],"sum_hessian":[5.508E3,1.79E2,5.329E3,1.75E2,4E0,5.129E3,2E2,1.13E2,6.2E1,2E0,2E0,3.674E3,1.455E3,1.96E2,4E0],"tree_param":{"num_deleted":"0","num_feature":"10","num_nodes":"15","size_leaf_vector":"1"}},{"base_weights":[5.5001915E-2,-2.615732E2,1.6639576E1,-2.2215636E2,-7.256891E2,7.997944E1,-7.816246E1,-7.271276E1,-2.1911331E1,-1.0475679E2,-1.8700853E2,-2.6404465E1,2.430152E1,-3.8352657E1,1.3774101E1],"categories":[],"categories_nodes":[],"categories_segments":[],"categories_sizes":[],"default_left":[0,0,0,0,0,0,0,0,0,0,0,0,0,0,0],"id":50,"left_children":[1,3,5,7,9,11,13,-1,-1,-1,-1,-1,-1,-1,-1],"loss_changes":[2.36562E7,5.784328E6,3.0792592E7,4.752823E6,5.66978E5,2.7079672E7,3.432131E7,0E0,0E0,0E0,0E0,0E0,0E0,0E0,0E0],"parents":[2147483647,0,0,1,1,2,2,3,3,4,4,5,5,6,6],"right_children":[2,4,6,8,10,12,14,-1,-1,-1,-1,-1,-1,-1,-1],"split_conditions":[-4.6846647E0,4.0277904E-1,1.2040149E-1,-5.11165E0,7.508826E-1,-7.470718E-1,3.7553585E-1,-7.271276E1,-2.1911331E1,-1.0475679E2,-1.8700853E2,-2.6404465E1,2.430152E1,-3.8352657E1,1.3774101E1],"split_indices":[0,2,5,0,2,4,1,0,0,0,0,0,0,0,0],"split_type":[0,0,0,0,0,0,0,0,0,0,0,0,0,0,0],"sum_hessian":[5.45E3,3.24E2,5.126E3,3E2,2.4E1,3.073E3,2.053E3,1.32E2,1.68E2,1.4E1,1E1,5.03E2,2.57E3,1.158E3,8.95E2],"tree_param":{"num_deleted":"0","num_feature":"10","num_nodes":"15","size_leaf_vector":"1"}},{"base_weights":[-1.4023124E0,7.25639E2,-6.7538486E0,-7.691758E1,7.639675E2,-4.2767143E1,1.10034584E2,1.5822113E2,-2.6728125E1,-2.0833309E0,-3.385012E1,-2.6702566E0,5.5766212E1],"categories":[],"categories_nodes":[],"categories_segments":[],"categories_sizes":[],"default_left":[0,0,0,0,0,0,0,0,0,0,0,0,0],"id":51,"left_children":[1,3,5,-1,7,9,11,-1,-1,-1,-1,-1,-1],"loss_changes":[2.1299184E7,1.99595E6,2.2859762E7,0E0,1.055742E6,1.6995582E7,2.6683236E7,0E0,0E0,0E0,0E0,0E0,0E0],"parents":[2147483647,0,0,1,1,2,2,4,4,5,5,6,6],"right_children":[2,4,6,-1,8,10,12,-1,-1,-1,-1,-1,-1],"split_conditions":[-1.5014981E0,-9.882973E-1,1.0162783E0,-7.691758E1,6.066792E-1,1.6067991E-2,4.8785407E-2,1.5822113E2,-2.6728125E1,-2.0833309E0,-3.385012E1,-2.6702566E0,5.5766212E1],"split_indices":[2,4,1,0,7,9,6,0,0,0,0,0,0],"split_type":[0,0,0,0,0,0,0,0,0,0,0,0,0],"sum_hessian":[5.472E3,3.9E1,5.433E3,1E0,3.8E1,4.153E3,1.28E3,3.7E1,1E0,3.308E3,8.45E2,7.4E2,5.4E2],"tree_param":{"num_deleted":"0","num_feature":"10","num_nodes":"13","size_leaf_vector":"1"}},{"base_weights":[6.381052E0,1.6780481E1,-3.7179126E2,1.2123709E1,1.0072569E3,-5.0503604E2,4.9956485E2,-1.9712032E0,4.25865E1,3.250382E2,9.739094E1,-1.3643053E2,5.8178387E1,-3.3775196E1,1.74497E2],"categories":[],"categories_nodes":[],"categories_segments":[],"categories_sizes":[],"default_left":[0,0,0,0,0,0,0,0,0,0,0,0,0,0,0],"id":52,"left_children":[1,3,5,7,9,11,13,-1,-1,-1,-1,-1,-1,-1,-1],"loss_changes":[2.1601116E7,2.4641194E7,1.7319532E7,2.3487512E7,7.246416E6,1.8242848E7,5.132842E6,0E0,0E0,0E0,0E0,0E0,0E0,0E0,0E0],"parents":[2147483647,0,0,1,1,2,2,3,3,4,4,5,5,6,6],"right_children":[2,4,6,8,10,12,14,-1,-1,-1,-1,-1,-1,-1,-1],"split_conditions":[3.627009E0,6.5488415E0,7.042026E0,1.192524E0,3.949178E-3,3.6577752E0,-2.7600625E-1,-1.9712032E0,4.25865E1,3.250382E2,9.739094E1,-1.3643053E2,5.8178387E1,-3.3775196E1,1.74497E2],"split_indices":[2,0,0,3,9,1,5,0,0,0,0,0,0,0,0],"split_type":[0,0,0,0,0,0,0,0,0,0,0,0,0,0,0],"sum_hessian":[5.49E3,5.344E3,1.46E2,5.32E3,2.4E1,1.27E2,1.9E1,4.796E3,5.24E2,1E1,1.4E1,1.04E2,2.3E1,7E0,1.2E1],"tree_param":{"num_deleted":"0","num_feature":"10","num_nodes":"15","size_leaf_vector":"1"}},{"base_weights":[1.451101E-1,-7.954831E1,4.7019558E1,5.0439507E1,-1.7282352E2,4.181004E2,1.5328829E1,-5.6361794E1,1.7109888E1,-2.0581018E1,-5.4816273E1,3.0130539E1,1.7509595E2,-7.5823364E1,9.278348E0],"categories":[],"categories_nodes":[],"categories_segments":[],"categories_sizes":[],"default_left":[0,0,0,0,0,0,0,0,0,0,0,0,0,0,0],"id":53,"left_children":[1,3,5,7,9,11,13,-1,-1,-1,-1,-1,-1,-1,-1],"loss_changes":[2.0889394E7,2.511885E7,4.1399924E7,1.012619E7,8.51002E6,3.3752144E7,3.977737E7,0E0,0E0,0E0,0E0,0E0,0E0,0E0,0E0],"parents":[2147483647,0,0,1,1,2,2,3,3,4,4,5,5,6,6],"right_children":[2,4,6,8,10,12,14,-1,-1,-1,-1,-1,-1,-1,-1],"split_conditions":[-3.3559432E0,-4.0356353E-1,-2.8655624E0,-5.1276674E0,-4.064344E0,-3.1669E0,-2.3050313E0,-5.6361794E1,1.7109888E1,-2.0581018E1,-5.4816273E1,3.0130539E1,1.7509595E2,-7.5823364E1,9.278348E0],"split_indices":[0,2,0,0,0,0,0,0,0,0,0,0,0,0,0],"split_type":[0,0,0,0,0,0,0,0,0,0,0,0,0,0,0],"sum_hessian":[5.59E3,2.07E3,3.52E3,8.65E2,1.205E3,2.76E2,3.244E3,8.2E1,7.83E2,7.14E2,4.91E2,1.75E2,1.01E2,2.36E2,3.008E3],"tree_param":{"num_deleted":"0","num_feature":"10","num_nodes":"15","size_leaf_vector":"1"}},{"base_weights":[-1.1783384E1,3.465977E1,-1.3672289E2,2.8118717E1,1.0680679E3,-1.7365114E2,2.352334E2,-4.593651E0,2.6046524E1,2.4607515E2,3.455219E1,-2.3404066E1,-9.166241E1,7.813687E1,-1.23968956E2],"categories":[],"categories_nodes":[],"categories_segments":[],"categories_sizes":[],"default_left":[0,0,0,0,0,0,0,0,0,0,0,0,0,0,0],"id":54,"left_children":[1,3,5,7,9,11,13,-1,-1,-1,-1,-1,-1,-1,-1],"loss_changes":[3.1669444E7,2.686632E7,2.0355938E7,2.0634998E7,3.420324E6,2.1644664E7,1.8053808E7,0E0,0E0,0E0,0E0,0E0,0E0,0E0,0E0],"parents":[2147483647,0,0,1,1,2,2,3,3,4,4,5,5,6,6],"right_children":[2,4,6,8,10,12,14,-1,-1,-1,-1,-1,-1,-1,-1],"split_conditions":[5.850828E-1,5.571539E0,2.8245785E0,-1.6258758E0,5.5191016E-1,2.821268E0,1.7016902E0,-4.593651E0,2.6046524E1,2.4607515E2,3.455219E1,-2.3404066E1,-9.166241E1,7.813687E1,-1.23968956E2],"split_indices":[2,0,1,0,8,0,5,0,0,0,0,0,0,0,0],"split_type":[0,0,0,0,0,0,0,0,0,0,0,0,0,0,0],"sum_hessian":[5.456E3,3.978E3,1.478E3,3.954E3,2.4E1,1.345E3,1.33E2,2.636E3,1.318E3,2E1,4E0,1.123E3,2.22E2,1.13E2,2E1],"tree_param":{"num_deleted":"0","num_feature":"10","num_nodes":"15","size_leaf_vector":"1"}},{"base_weights":[8.760475E0,-4.096574E2,1.8536419E1,-7.6664856E1,-8.66861E2,1.0866916E1,4.9160056E2,7.0268906E1,-8.222652E1,-2.5703284E2,-6.939097E1,3.150832E0,-1.890888E2,6.257801E1,2.2106448E2],"categories":[],"categories_nodes":[],"categories_segments":[],"categories_sizes":[],"default_left":[0,0,0,0,0,0,0,0,0,0,0,0,0,0,0],"id":55,"left_children":[1,3,5,7,9,11,13,-1,-1,-1,-1,-1,-1,-1,-1],"loss_changes":[2.2574494E7,1.9116462E7,1.9557734E7,1.0737943E7,1.108046E7,2.4818348E7,9.08651E6,0E0,0E0,0E0,0E0,0E0,0E0,0E0,0E0],"parents":[2147483647,0,0,1,1,2,2,3,3,4,4,5,5,6,6],"right_children":[2,4,6,8,10,12,14,-1,-1,-1,-1,-1,-1,-1,-1],"split_conditions":[-2.1413815E0,-6.277018E-1,6.342539E0,5.000538E-1,-1.5195283E-1,5.391983E0,-2.2970091E-1,7.0268906E1,-8.222652E1,-2.5703284E2,-6.939097E1,3.150832E0,-1.890888E2,6.257801E1,2.2106448E2],"split_indices":[4,0,0,2,3,2,3,0,0,0,0,0,0,0,0],"split_type":[0,0,0,0,0,0,0,0,0,0,0,0,0,0,0],"sum_hessian":[5.516E3,1.25E2,5.391E3,7.3E1,5.2E1,5.306E3,8.5E1,3.2E1,4.1E1,2.8E1,2.4E1,5.28E3,2.6E1,6.7E1,1.8E1],"tree_param":{"num_deleted":"0","num_feature":"10","num_nodes":"15","size_leaf_vector":"1"}},{"base_weights":[6.3627424E0,1.04332184E2,-2.8482502E1,1.2376878E1,2.848465E2,3.233051E1,-1.3844394E2,5.6926837E0,-2.3356848E2,4.1218586E1,1.0427091E2,5.7297654E0,3.2814923E2,-3.4063095E2,-2.5072607E1],"categories":[],"categories_nodes":[],"categories_segments":[],"categories_sizes":[],"default_left":[0,0,0,0,0,0,0,0,0,0,0,0,0,0,0],"id":56,"left_children":[1,3,5,7,9,11,13,-1,-1,-1,-1,-1,-1,-1,-1],"loss_changes":[1.8932322E7,2.4148384E7,2.7361344E7,1.8354388E7,9.037848E6,1.5556609E7,2.9608092E7,0E0,0E0,0E0,0E0,0E0,0E0,0E0,0E0],"parents":[2147483647,0,0,1,1,2,2,3,3,4,4,5,5,6,6],"right_children":[2,4,6,8,10,12,14,-1,-1,-1,-1,-1,-1,-1,-1],"split_conditions":[-1.2467431E-2,2.3462008E-1,8.692146E-2,2.7527714E0,6.5011925E-1,7.042026E0,-2.9088032E0,5.6926837E0,-2.3356848E2,4.1218586E1,1.0427091E2,5.7297654E0,3.2814923E2,-3.4063095E2,-2.5072607E1],"split_indices":[9,6,8,5,6,0,3,0,0,0,0,0,0,0,0],"split_type":[0,0,0,0,0,0,0,0,0,0,0,0,0,0,0],"sum_hessian":[5.544E3,1.454E3,4.09E3,9.64E2,4.9E2,2.634E3,1.456E3,9.52E2,1.2E1,3.69E2,1.21E2,2.629E3,5E0,1.1E1,1.445E3],"tree_param":{"num_deleted":"0","num_feature":"10","num_nodes":"15","size_leaf_vector":"1"}},{"base_weights":[3.1847878E0,-3.6868506E2,1.23251295E1,-4.3573584E2,1.4215524E3,-1.5560167E1,1.3097565E2,1.489775E2,-1.0842025E2,2.7172398E1,4.4667838E2,9.8470587E-1,-6.5999146E1,1.1076745E2,1.8895182E1],"categories":[],"categories_nodes":[],"categories_segments":[],"categories_sizes":[],"default_left":[0,0,0,0,0,0,0,0,0,0,0,0,0,0,0],"id":57,"left_children":[1,3,5,7,9,11,13,-1,-1,-1,-1,-1,-1,-1,-1],"loss_changes":[1.8702538E7,1.6464284E7,1.7769246E7,1.6477722E7,4.915439E6,2.8012674E7,1.572157E7,0E0,0E0,0E0,0E0,0E0,0E0,0E0,0E0],"parents":[2147483647,0,0,1,1,2,2,3,3,4,4,5,5,6,6],"right_children":[2,4,6,8,10,12,14,-1,-1,-1,-1,-1,-1,-1,-1],"split_conditions":[-2.2333472E0,9.9561477E-1,1.0605254E0,-2.509626E0,1.1723111E0,1.6116396E0,1.1882583E0,1.489775E2,-1.0842025E2,2.7172398E1,4.4667838E2,9.8470587E-1,-6.5999146E1,1.1076745E2,1.8895182E1],"split_indices":[3,8,0,5,5,2,0,0,0,0,0,0,0,0,0],"split_type":[0,0,0,0,0,0,0,0,0,0,0,0,0,0,0],"sum_hessian":[5.5E3,1.31E2,5.369E3,1.27E2,4E0,4.348E3,1.021E3,1E1,1.17E2,2E0,2E0,4.083E3,2.65E2,8E1,9.41E2],"tree_param":{"num_deleted":"0","num_feature":"10","num_nodes":"15","size_leaf_vector":"1"}},{"base_weights":[-6.072232E0,-1.2706401E1,5.740277E2,1.9681658E1,-1.3664883E2,-2.6046332E2,7.04903E2,7.5227547E0,-4.0958096E1,-2.9708994E1,1.9185365E2,-9.599331E1,1.4955626E2,1.4446515E0,1.8178517E2],"categories":[],"categories_nodes":[],"categories_segments":[],"categories_sizes":[],"default_left":[0,0,0,0,0,0,0,0,0,0,0,0,0,0,0],"id":58,"left_children":[1,3,5,7,9,11,13,-1,-1,-1,-1,-1,-1,-1,-1],"loss_changes":[2.0762154E7,2.1410714E7,6.845672E6,1.703053E7,1.4548558E7,2.3507265E6,7.537592E6,0E0,0E0,0E0,0E0,0E0,0E0,0E0,0E0],"parents":[2147483647,0,0,1,1,2,2,3,3,4,4,5,5,6,6],"right_children":[2,4,6,8,10,12,14,-1,-1,-1,-1,-1,-1,-1,-1],"split_conditions":[2.7911234E0,5.0935864E-1,-3.327739E0,2.0941875E0,7.042026E0,1.7954579E-1,-8.487871E-1,7.5227547E0,-4.0958096E1,-2.9708994E1,1.9185365E2,-9.599331E1,1.4955626E2,1.4446515E0,1.8178517E2],"split_indices":[3,5,0,2,0,8,7,0,0,0,0,0,0,0,0],"split_type":[0,0,0,0,0,0,0,0,0,0,0,0,0,0,0],"sum_hessian":[5.392E3,5.332E3,6E1,4.228E3,1.104E3,8E0,5.2E1,3.916E3,3.12E2,1.093E3,1.1E1,7E0,1E0,1.2E1,4E1],"tree_param":{"num_deleted":"0","num_feature":"10","num_nodes":"15","size_leaf_vector":"1"}},{"base_weights":[-7.5442376E0,8.8010345E1,-4.1094334E1,3.6644806E2,4.664963E1,-2.0481718E1,-4.8454785E2,1.3019878E2,1.5600766E1,3.3655907E1,-1.8927511E1,-6.9974313E0,2.0475038E2,-5.682346E2,-5.7524513E1],"categories":[],"categories_nodes":[],"categories_segments":[],"categories_sizes":[],"default_left":[0,0,0,0,0,0,0,0,0,0,0,0,0,0,0],"id":59,"left_children":[1,3,5,7,9,11,13,-1,-1,-1,-1,-1,-1,-1,-1],"loss_changes":[1.785067E7,1.6647112E7,3.765905E7,1.5297358E7,2.1685888E7,5.970011E7,8.410929E7,0E0,0E0,0E0,0E0,0E0,0E0,0E0,0E0],"parents":[2147483647,0,0,1,1,2,2,3,3,4,4,5,5,6,6],"right_children":[2,4,6,8,10,12,14,-1,-1,-1,-1,-1,-1,-1,-1],"split_conditions":[-4.4560197E-1,-1.6313758E0,4.3564E0,-2.8251125E-2,4.649732E-1,2.3041027E0,4.788968E0,1.3019878E2,1.5600766E1,3.3655907E1,-1.8927511E1,-6.9974313E0,2.0475038E2,-5.682346E2,-5.7524513E1],"split_indices":[5,1,0,6,2,0,0,0,0,0,0,0,0,0,0],"split_type":[0,0,0,0,0,0,0,0,0,0,0,0,0,0,0],"sum_hessian":[5.566E3,1.446E3,4.12E3,1.86E2,1.26E3,3.938E3,1.82E2,9.3E1,9.3E1,6.77E2,5.83E2,3.885E3,5.3E1,1.3E1,1.69E2],"tree_param":{"num_deleted":"0","num_feature":"10","num_nodes":"15","size_leaf_vector":"1"}},{"base_weights":[2.2691426E0,-4.6351265E1,8.933699E1,-4.2376133E1,-1.1331953E3,8.217517E1,2.9276008E3,-1.5675011E0,-2.8457657E1,7.526055E1,-3.2473502E2,1.147285E0,4.267675E1,9.3317346E2,4.2693493E1],"categories":[],"categories_nodes":[],"categories_segments":[],"categories_sizes":[],"default_left":[0,0,0,0,0,0,0,0,0,0,0,0,0,0,0],"id":60,"left_children":[1,3,5,7,9,11,13,-1,-1,-1,-1,-1,-1,-1,-1],"loss_changes":[2.3604644E7,1.541019E7,4.0373E7,1.2304541E7,1.0235909E7,1.9997438E7,2.259342E7,0E0,0E0,0E0,0E0,0E0,0E0,0E0,0E0],"parents":[2147483647,0,0,1,1,2,2,3,3,4,4,5,5,6,6],"right_children":[2,4,6,8,10,12,14,-1,-1,-1,-1,-1,-1,-1,-1],"split_conditions":[3.0472383E-1,6.3946447E0,4.1850343E0,1.3921186E-2,-3.4016602E0,4.1867456E-1,3.656648E-1,-1.5675011E0,-2.8457657E1,7.526055E1,-3.2473502E2,1.147285E0,4.267675E1,9.3317346E2,4.2693493E1],"split_indices":[4,2,1,9,3,1,4,0,0,0,0,0,0,0,0],"split_type":[0,0,0,0,0,0,0,0,0,0,0,0,0,0,0],"sum_hessian":[5.574E3,3.577E3,1.997E3,3.565E3,1.2E1,1.993E3,4E0,2.65E3,9.15E2,3E0,9E0,1.26E3,7.33E2,2E0,2E0],"tree_param":{"num_deleted":"0","num_feature":"10","num_nodes":"15","size_leaf_vector":"1"}},{"base_weights":[9.6073985E-1,-1.5295546E2,1.7271393E1,-1.2890419E2,-5.2097034E2,6.76692E1,-4.3602863E1,-4.2009686E1,-1.476552E1,-6.40887E1,-1.4537425E2,9.2602415E0,6.4589775E1,-1.454426E1,3.7787663E1],"categories":[],"categories_nodes":[],"categories_segments":[],"categories_sizes":[],"default_left":[0,0,0,0,0,0,0,0,0,0,0,0,0,0,0],"id":61,"left_children":[1,3,5,7,9,11,13,-1,-1,-1,-1,-1,-1,-1,-1],"loss_changes":[1.3807737E7,4.597442E6,1.525976E7,2.20119E6,1.088316E6,1.4827598E7,1.5269333E7,0E0,0E0,0E0,0E0,0E0,0E0,0E0,0E0],"parents":[2147483647,0,0,1,1,2,2,3,3,4,4,5,5,6,6],"right_children":[2,4,6,8,10,12,14,-1,-1,-1,-1,-1,-1,-1,-1],"split_conditions":[-4.5177617E0,8.3658975E-1,-7.106783E-2,-5.0470386E0,-1.1074967E-4,1.5810189E0,2.4067678E0,-4.2009686E1,-1.476552E1,-6.40887E1,-1.4537425E2,9.2602415E0,6.4589775E1,-1.454426E1,3.7787663E1],"split_indices":[0,2,2,0,9,1,1,0,0,0,0,0,0,0,0],"split_type":[0,0,0,0,0,0,0,0,0,0,0,0,0,0,0],"sum_hessian":[5.498E3,5.26E2,4.972E3,4.95E2,3.1E1,2.72E3,2.252E3,1.99E2,2.96E2,1.7E1,1.4E1,2.511E3,2.09E2,2.002E3,2.5E2],"tree_param":{"num_deleted":"0","num_feature":"10","num_nodes":"15","size_leaf_vector":"1"}},{"base_weights":[-7.667207E0,-1.6677422E2,1.4964705E1,4.3104678E2,-2.135841E2,-3.1551693E1,9.329703E1,2.5993527E2,4.692978E1,-3.5194653E1,-2.045298E2,4.5424557E0,-2.2352682E1,7.903646E1,1.3534514E1],"categories":[],"categories_nodes":[],"categories_segments":[],"categories_sizes":[],"default_left":[0,0,0,0,0,0,0,0,0,0,0,0,0,0,0],"id":62,"left_children":[1,3,5,7,9,11,13,-1,-1,-1,-1,-1,-1,-1,-1],"loss_changes":[1.9778614E7,1.9233074E7,1.752568E7,8.224883E6,1.9142854E7,1.3138703E7,1.383554E7,0E0,0E0,0E0,0E0,0E0,0E0,0E0,0E0],"parents":[2147483647,0,0,1,1,2,2,3,3,4,4,5,5,6,6],"right_children":[2,4,6,8,10,12,14,-1,-1,-1,-1,-1,-1,-1,-1],"split_conditions":[-9.4268334E-1,-6.891659E-2,1.6221152E-1,-9.549516E-1,4.3564E0,7.456115E-2,-2.1904655E0,2.5993527E2,4.692978E1,-3.5194653E1,-2.045298E2,4.5424557E0,-2.2352682E1,7.903646E1,1.3534514E1],"split_indices":[4,9,3,5,0,5,1,0,0,0,0,0,0,0,0],"split_type":[0,0,0,0,0,0,0,0,0,0,0,0,0,0,0],"sum_hessian":[5.491E3,6.83E2,4.808E3,4.9E1,6.34E2,3.017E3,1.791E3,8E0,4.1E1,6.07E2,2.7E1,1.8E3,1.217E3,1.39E2,1.652E3],"tree_param":{"num_deleted":"0","num_feature":"10","num_nodes":"15","size_leaf_vector":"1"}},{"base_weights":[1.3026994E1,8.948753E0,8.065078E2,6.2669342E1,-4.1563255E1,4.3406467E2,1.3426414E3,-2.0269743E1,1.785137E1,-2.3650276E1,7.1294365E0,-1.3547969E2,1.0785836E2,-1.0417969E0,3.6974728E2],"categories":[],"categories_nodes":[],"categories_segments":[],"categories_sizes":[],"default_left":[0,0,0,0,0,0,0,0,0,0,0,0,0,0,0],"id":63,"left_children":[1,3,5,7,9,11,13,-1,-1,-1,-1,-1,-1,-1,-1],"loss_changes":[1.7719624E7,1.4794082E7,5.008226E6,1.1530363E7,1.6642572E7,2.470525E6,7.513172E6,0E0,0E0,0E0,0E0,0E0,0E0,0E0,0E0],"parents":[2147483647,0,0,1,1,2,2,3,3,4,4,5,5,6,6],"right_children":[2,4,6,8,10,12,14,-1,-1,-1,-1,-1,-1,-1,-1],"split_conditions":[7.042026E0,-9.9945575E-2,1.5319194E-2,-4.492427E0,5.755026E-2,-1.7958735E0,4.147819E0,-2.0269743E1,1.785137E1,-2.3650276E1,7.1294365E0,-1.3547969E2,1.0785836E2,-1.0417969E0,3.6974728E2],"split_indices":[0,5,9,0,1,4,2,0,0,0,0,0,0,0,0],"split_type":[0,0,0,0,0,0,0,0,0,0,0,0,0,0,0],"sum_hessian":[5.477E3,5.45E3,2.7E1,2.641E3,2.809E3,1.7E1,1E1,3.68E2,2.273E3,1.409E3,1.4E3,1E0,1.6E1,3E0,7E0],"tree_param":{"num_deleted":"0","num_feature":"10","num_nodes":"15","size_leaf_vector":"1"}},{"base_weights":[-6.1115985E0,-1.2889303E1,4.017617E2,-4.2368603E0,-3.6618683E2,9.7823175E2,1.483259E2,1.264592E0,-4.3083252E1,-6.574682E1,-3.6342786E2,3.1669788E2,1.05810295E2,-4.6651226E1,7.175328E1],"categories":[],"categories_nodes":[],"categories_segments":[],"categories_sizes":[],"default_left":[0,0,0,0,0,0,0,0,0,0,0,0,0,0,0],"id":64,"left_children":[1,3,5,7,9,11,13,-1,-1,-1,-1,-1,-1,-1,-1],"loss_changes":[1.5052051E7,1.6368078E7,1.2857638E7,1.1659889E7,6.358438E6,6.502736E6,5.1426035E6,0E0,0E0,0E0,0E0,0E0,0E0,0E0,0E0],"parents":[2147483647,0,0,1,1,2,2,3,3,4,4,5,5,6,6],"right_children":[2,4,6,8,10,12,14,-1,-1,-1,-1,-1,-1,-1,-1],"split_conditions":[6.342539E0,7.9071784E-1,2.0941875E0,4.3564E0,6.3946447E0,3.949178E-3,6.733176E0,1.264592E0,-4.3083252E1,-6.574682E1,-3.6342786E2,3.1669788E2,1.05810295E2,-4.6651226E1,7.175328E1],"split_indices":[0,8,2,0,2,9,0,0,0,0,0,0,0,0,0],"split_type":[0,0,0,0,0,0,0,0,0,0,0,0,0,0,0],"sum_hessian":[5.442E3,5.354E3,8.8E1,5.227E3,1.27E2,2.6E1,6.2E1,4.979E3,2.48E2,1.25E2,2E0,1E1,1.6E1,2.2E1,4E1],"tree_param":{"num_deleted":"0","num_feature":"10","num_nodes":"15","size_leaf_vector":"1"}},{"base_weights":[3.580372E0,-1.975895E-1,8.377622E2,4.3650595E2,-6.861718E0,1.15491104E2,2.3581519E3,1.3521843E2,-6.0607704E1,-9.350746E1,-1.7107171E-1,1.6896666E2,-4.6002464E1,-1.0255664E1,7.628132E2],"categories":[],"categories_nodes":[],"categories_segments":[],"categories_sizes":[],"default_left":[0,0,0,0,0,0,0,0,0,0,0,0,0,0,0],"id":65,"left_children":[1,3,5,7,9,11,13,-1,-1,-1,-1,-1,-1,-1,-1],"loss_changes":[1.7475272E7,1.6070477E7,2.718099E7,1.4911204E7,1.5049222E7,4.730146E6,2.825896E7,0E0,0E0,0E0,0E0,0E0,0E0,0E0,0E0],"parents":[2147483647,0,0,1,1,2,2,3,3,4,4,5,5,6,6],"right_children":[2,4,6,8,10,12,14,-1,-1,-1,-1,-1,-1,-1,-1],"split_conditions":[4.1850343E0,-8.062206E-2,-7.731151E-1,3.2486248E0,-3.5756328E0,-1.9776399E0,2.0058534E0,1.3521843E2,-6.0607704E1,-9.350746E1,-1.7107171E-1,1.6896666E2,-4.6002464E1,-1.0255664E1,7.628132E2],"split_indices":[1,9,7,2,1,3,0,0,0,0,0,0,0,0,0],"split_type":[0,0,0,0,0,0,0,0,0,0,0,0,0,0,0],"sum_hessian":[5.544E3,5.52E3,2.4E1,8.2E1,5.438E3,1.7E1,7E0,6.2E1,2E1,6.9E1,5.369E3,5E0,1.2E1,3E0,4E0],"tree_param":{"num_deleted":"0","num_feature":"10","num_nodes":"15","size_leaf_vector":"1"}},{"base_weights":[-5.9465895E0,1.1723042E2,-2.6838192E1,-1.1753071E2,2.59163E2,-2.0387453E2,-3.6318963E0,7.898832E1,-3.9334805E1,1.3870801E2,3.2775414E1,-2.639424E1,-1.515208E2,-2.9773858E0,6.0448463E1],"categories":[],"categories_nodes":[],"categories_segments":[],"categories_sizes":[],"default_left":[0,0,0,0,0,0,0,0,0,0,0,0,0,0,0],"id":66,"left_children":[1,3,5,7,9,11,13,-1,-1,-1,-1,-1,-1,-1,-1],"loss_changes":[1.4285323E7,2.6853264E7,1.9497524E7,1.2407536E7,2.066414E7,2.1798272E7,1.4453193E7,0E0,0E0,0E0,0E0,0E0,0E0,0E0,0E0],"parents":[2147483647,0,0,1,1,2,2,3,3,4,4,5,5,6,6],"right_children":[2,4,6,8,10,12,14,-1,-1,-1,-1,-1,-1,-1,-1],"split_conditions":[-1.3794968E0,-1.6258758E0,-8.4942526E-1,-1.2007269E0,-4.0356353E-1,1.6994801E-1,6.5011925E-1,7.898832E1,-3.9334805E1,1.3870801E2,3.2775414E1,-2.639424E1,-1.515208E2,-2.9773858E0,6.0448463E1],"split_indices":[1,0,1,5,2,7,6,0,0,0,0,0,0,0,0],"split_type":[0,0,0,0,0,0,0,0,0,0,0,0,0,0,0],"sum_hessian":[5.549E3,8.04E2,4.745E3,3.03E2,5.01E2,5.49E2,4.196E3,4E1,2.63E2,8.9E1,4.12E2,4.87E2,6.2E1,4.048E3,1.48E2],"tree_param":{"num_deleted":"0","num_feature":"10","num_nodes":"15","size_leaf_vector":"1"}},{"base_weights":[8.491708E0,-2.4441105E1,7.339613E1,2.8975082E2,-3.379202E1,-1.0542116E2,1.0911224E2,-6.419597E1,8.2002754E1,5.654494E-1,-2.4474089E1,3.0295742E0,-8.0996376E1,2.751155E1,-1.9539627E1],"categories":[],"categories_nodes":[],"categories_segments":[],"categories_sizes":[],"default_left":[0,0,0,0,0,0,0,0,0,0,0,0,0,0,0],"id":67,"left_children":[1,3,5,7,9,11,13,-1,-1,-1,-1,-1,-1,-1,-1],"loss_changes":[1.1804988E7,1.0774557E7,1.1884299E7,7.91712E6,1.1544592E7,1.1202636E7,9.131824E6,0E0,0E0,0E0,0E0,0E0,0E0,0E0,0E0],"parents":[2147483647,0,0,1,1,2,2,3,3,4,4,5,5,6,6],"right_children":[2,4,6,8,10,12,14,-1,-1,-1,-1,-1,-1,-1,-1],"split_conditions":[3.4182647E-1,-6.891659E-2,-3.1902897E-1,-6.359897E-1,1.4211054E-1,3.9233232E-1,3.6213878E-1,-6.419597E1,8.2002754E1,5.654494E-1,-2.4474089E1,3.0295742E0,-8.0996376E1,2.751155E1,-1.9539627E1],"split_indices":[4,9,6,8,2,5,8,0,0,0,0,0,0,0,0],"split_type":[0,0,0,0,0,0,0,0,0,0,0,0,0,0,0],"sum_hessian":[5.521E3,3.663E3,1.858E3,1.05E2,3.558E3,3.09E2,1.549E3,1.7E1,8.8E1,2.518E3,1.04E3,2.21E2,8.8E1,1.362E3,1.87E2],"tree_param":{"num_deleted":"0","num_feature":"10","num_nodes":"15","size_leaf_vector":"1"}},{"base_weights":[6.742324E0,-4.80046E1,5.1477398E1,-5.806536E1,3.1595038E2,4.715387E1,1.2381268E3,-5.8041186E0,-3.601069E1,-1.9539572E1,1.791185E2,1.1415954E1,-9.43471E1,5.847568E2,-2.8557814E1],"categories":[],"categories_nodes":[],"categories_segments":[],"categories_sizes":[],"default_left":[0,0,0,0,0,0,0,0,0,0,0,0,0,0,0],"id":68,"left_children":[1,3,5,7,9,11,13,-1,-1,-1,-1,-1,-1,-1,-1],"loss_changes":[1.3533791E7,9.117581E6,1.5543512E7,8.565572E6,1.6151947E7,1.5637914E7,2.6022736E7,0E0,0E0,0E0,0E0,0E0,0E0,0E0,0E0],"parents":[2147483647,0,0,1,1,2,2,3,3,4,4,5,5,6,6],"right_children":[2,4,6,8,10,12,14,-1,-1,-1,-1,-1,-1,-1,-1],"split_conditions":[4.9621087E-2,8.397513E-1,3.6577752E0,8.1542563E-1,1.3788655E0,3.8822908E0,4.944219E0,-5.8041186E0,-3.601069E1,-1.9539572E1,1.791185E2,1.1415954E1,-9.43471E1,5.847568E2,-2.8557814E1],"split_indices":[4,6,1,2,0,2,0,0,0,0,0,0,0,0,0],"split_type":[0,0,0,0,0,0,0,0,0,0,0,0,0,0,0],"sum_hessian":[5.524E3,2.484E3,3.04E3,2.418E3,6.6E1,3.03E3,1E1,1.954E3,4.64E2,3.9E1,2.7E1,2.974E3,5.6E1,4E0,6E0],"tree_param":{"num_deleted":"0","num_feature":"10","num_nodes":"15","size_leaf_vector":"1"}},{"base_weights":[-5.1894975E0,-2.6556313E1,1.3175543E2,-3.3822006E2,-1.87489E1,2.8267114E2,-1.5496966E1,1.9112522E1,-1.0692336E2,4.5918717E0,-1.4461754E1,1.9788656E1,1.6900078E2,-2.9084772E2,1.3883229E1],"categories":[],"categories_nodes":[],"categories_segments":[],"categories_sizes":[],"default_left":[0,0,0,0,0,0,0,0,0,0,0,0,0,0,0],"id":69,"left_children":[1,3,5,7,9,11,13,-1,-1,-1,-1,-1,-1,-1,-1],"loss_changes":[1.6064736E7,1.1549341E7,1.64714E7,9.933536E6,1.0353501E7,3.773012E7,4.6036124E7,0E0,0E0,0E0,0E0,0E0,0E0,0E0,0E0],"parents":[2147483647,0,0,1,1,2,2,3,3,4,4,5,5,6,6],"right_children":[2,4,6,8,10,12,14,-1,-1,-1,-1,-1,-1,-1,-1],"split_conditions":[1.5657735E0,-1.8659232E0,4.3564E0,-1.9761542E0,2.5788192E-2,2.1978846E0,4.788968E0,1.9112522E1,-1.0692336E2,4.5918717E0,-1.4461754E1,1.9788656E1,1.6900078E2,-2.9084772E2,1.3883229E1],"split_indices":[0,3,0,0,5,0,0,0,0,0,0,0,0,0,0],"split_type":[0,0,0,0,0,0,0,0,0,0,0,0,0,0,0],"sum_hessian":[5.488E3,4.748E3,7.4E2,1.15E2,4.633E3,3.65E2,3.75E2,3.6E1,7.9E1,2.605E3,2.028E3,2.76E2,8.9E1,2E1,3.55E2],"tree_param":{"num_deleted":"0","num_feature":"10","num_nodes":"15","size_leaf_vector":"1"}},{"base_weights":[-3.9324207E0,-1.5927313E1,1.5107678E2,-7.8316504E-1,-2.0737619E2,-1.3468666E3,1.7356174E2,-1.5787041E0,1.426892E2,1.3602698E1,-5.4971508E1,-1.4277864E1,-3.9335156E2,-6.850748E1,4.5632687E1],"categories":[],"categories_nodes":[],"categories_segments":[],"categories_sizes":[],"default_left":[0,0,0,0,0,0,0,0,0,0,0,0,0,0,0],"id":70,"left_children":[1,3,5,7,9,11,13,-1,-1,-1,-1,-1,-1,-1,-1],"loss_changes":[1.0303032E7,1.4911092E7,1.3638871E7,2.4214474E7,7.024737E6,4.603537E6,1.1152853E7,0E0,0E0,0E0,0E0,0E0,0E0,0E0,0E0],"parents":[2147483647,0,0,1,1,2,2,3,3,4,4,5,5,6,6],"right_children":[2,4,6,8,10,12,14,-1,-1,-1,-1,-1,-1,-1,-1],"split_conditions":[1.1814661E0,1.9888643E0,-4.209575E0,6.0586143E0,-4.9554177E-2,-3.741799E-2,-5.253794E-1,-1.5787041E0,1.426892E2,1.3602698E1,-5.4971508E1,-1.4277864E1,-3.9335156E2,-6.850748E1,4.5632687E1],"split_indices":[4,2,1,0,9,9,6,0,0,0,0,0,0,0,0],"split_type":[0,0,0,0,0,0,0,0,0,0,0,0,0,0,0],"sum_hessian":[5.539E3,5.142E3,3.97E2,4.766E3,3.76E2,5E0,3.92E2,4.72E3,4.6E1,7.4E1,3.02E2,2E0,3E0,3.7E1,3.55E2],"tree_param":{"num_deleted":"0","num_feature":"10","num_nodes":"15","size_leaf_vector":"1"}},{"base_weights":[-8.426439E-1,-2.4238524E2,7.5828876E0,3.132821E2,-3.2769336E2,1.3346848E2,-1.1390837E1,1.0247875E2,-5.4383648E1,-2.1195789E2,-5.114814E1,-1.41514845E1,5.0319225E1,3.2868817E0,-2.849274E1],"categories":[],"categories_nodes":[],"categories_segments":[],"categories_sizes":[],"default_left":[0,0,0,0,0,0,0,0,0,0,0,0,0,0,0],"id":71,"left_children":[1,3,5,7,9,11,13,-1,-1,-1,-1,-1,-1,-1,-1],"loss_changes":[1.1109549E7,8.824799E6,1.2600956E7,3.052333E6,8.157168E6,1.668799E7,1.6724453E7,0E0,0E0,0E0,0E0,0E0,0E0,0E0,0E0],"parents":[2147483647,0,0,1,1,2,2,3,3,4,4,5,5,6,6],"right_children":[2,4,6,8,10,12,14,-1,-1,-1,-1,-1,-1,-1,-1],"split_conditions":[-1.8692505E0,-1.6168541E0,-1.4288715E0,1.7098343E-2,-7.996787E-1,-1.6258758E0,8.8070595E-1,1.0247875E2,-5.4383648E1,-2.1195789E2,-5.114814E1,-1.41514845E1,5.0319225E1,3.2868817E0,-2.849274E1],"split_indices":[4,5,1,9,2,0,2,0,0,0,0,0,0,0,0],"split_type":[0,0,0,0,0,0,0,0,0,0,0,0,0,0,0],"sum_hessian":[5.457E3,1.83E2,5.274E3,2.4E1,1.59E2,6.9E2,4.584E3,1.8E1,6E0,1.3E1,1.46E2,2.53E2,4.37E2,3.782E3,8.02E2],"tree_param":{"num_deleted":"0","num_feature":"10","num_nodes":"15","size_leaf_vector":"1"}},{"base_weights":[2.5970373E-1,9.0684654E1,-2.263223E1,6.847715E1,4.5673245E2,-9.932722E0,-2.9130417E2,1.0121716E1,1.1213368E2,6.343014E0,1.4567326E2,-4.6720653E0,1.880819E2,-3.7762744E2,-4.2987087E1],"categories":[],"categories_nodes":[],"categories_segments":[],"categories_sizes":[],"default_left":[0,0,0,0,0,0,0,0,0,0,0,0,0,0,0],"id":72,"left_children":[1,3,5,7,9,11,13,-1,-1,-1,-1,-1,-1,-1,-1],"loss_changes":[1.1496773E7,9.08947E6,1.5119098E7,9.285274E6,7.365642E6,5.403852E7,2.3983804E7,0E0,0E0,0E0,0E0,0E0,0E0,0E0,0E0],"parents":[2147483647,0,0,1,1,2,2,3,3,4,4,5,5,6,6],"right_children":[2,4,6,8,10,12,14,-1,-1,-1,-1,-1,-1,-1,-1],"split_conditions":[-5.70564E-1,1.3322272E0,4.3564E0,2.0752544E0,8.0654114E-1,2.3041027E0,4.788968E0,1.0121716E1,1.1213368E2,6.343014E0,1.4567326E2,-4.6720653E0,1.880819E2,-3.7762744E2,-4.2987087E1],"split_indices":[5,4,0,3,0,0,0,0,0,0,0,0,0,0,0],"split_type":[0,0,0,0,0,0,0,0,0,0,0,0,0,0,0],"sum_hessian":[5.552E3,1.121E3,4.431E3,1.058E3,6.3E1,4.232E3,1.99E2,1.022E3,3.6E1,2.5E1,3.8E1,4.174E3,5.8E1,8E0,1.91E2],"tree_param":{"num_deleted":"0","num_feature":"10","num_nodes":"15","size_leaf_vector":"1"}},{"base_weights":[-6.1935086E0,-9.744813E0,4.999369E2,3.8271695E2,-1.4066228E1,-1.1488164E2,1.1208018E3,-1.0168627E1,1.148601E2,-2.3960996E0,-1.5118538E2,3.8216824E1,-1.7212982E2,5.867057E2,-3.6216537E1],"categories":[],"categories_nodes":[],"categories_segments":[],"categories_sizes":[],"default_left":[0,0,0,0,0,0,0,0,0,0,0,0,0,0,0],"id":73,"left_children":[1,3,5,7,9,11,13,-1,-1,-1,-1,-1,-1,-1,-1],"loss_changes":[9.802625E6,9.187475E6,1.4634092E7,4.929914E6,8.2784005E6,4.728042E6,4.5370456E7,0E0,0E0,0E0,0E0,0E0,0E0,0E0,0E0],"parents":[2147483647,0,0,1,1,2,2,3,3,4,4,5,5,6,6],"right_children":[2,4,6,8,10,12,14,-1,-1,-1,-1,-1,-1,-1,-1],"split_conditions":[3.6577752E0,-1.4378846E0,2.4409254E0,-1.858884E-1,6.3946447E0,4.7628736E0,4.944219E0,-1.0168627E1,1.148601E2,-2.3960996E0,-1.5118538E2,3.8216824E1,-1.7212982E2,5.867057E2,-3.6216537E1],"split_indices":[1,2,0,6,2,2,0,0,0,0,0,0,0,0,0],"split_type":[0,0,0,0,0,0,0,0,0,0,0,0,0,0,0],"sum_hessian":[5.45E3,5.413E3,3.7E1,5.8E1,5.355E3,1.9E1,1.8E1,1.8E1,4E1,5.341E3,1.4E1,1.4E1,5E0,7E0,1.1E1],"tree_param":{"num_deleted":"0","num_feature":"10","num_nodes":"15","size_leaf_vector":"1"}},{"base_weights":[-1.5968896E0,-4.2760193E1,4.344888E1,-1.3696145E1,-1.9005829E2,-1.5176158E1,1.1253966E2,2.1712395E1,-9.775894E0,-4.6644802E1,1.2724225E2,-5.0181527E0,8.406028E1,3.0405542E1,-2.5007074E1],"categories":[],"categories_nodes":[],"categories_segments":[],"categories_sizes":[],"default_left":[0,0,0,0,0,0,0,0,0,0,0,0,0,0,0],"id":74,"left_children":[1,3,5,7,9,11,13,-1,-1,-1,-1,-1,-1,-1,-1],"loss_changes":[1.0294703E7,1.2416805E7,1.073945E7,1.0432015E7,1.7196984E7,6.2062845E6,1.1436139E7,0E0,0E0,0E0,0E0,0E0,0E0,0E0,0E0],"parents":[2147483647,0,0,1,1,2,2,3,3,4,4,5,5,6,6],"right_children":[2,4,6,8,10,12,14,-1,-1,-1,-1,-1,-1,-1,-1],"split_conditions":[1.0726185E-1,1.6994801E-1,8.671635E-2,-1.4047774E0,6.5488415E0,3.6577752E0,1.534013E0,2.1712395E1,-9.775894E0,-4.6644802E1,1.2724225E2,-5.0181527E0,8.406028E1,3.0405542E1,-2.5007074E1],"split_indices":[1,7,6,1,0,1,2,0,0,0,0,0,0,0,0],"split_type":[0,0,0,0,0,0,0,0,0,0,0,0,0,0,0],"sum_hessian":[5.55E3,2.9E3,2.65E3,2.423E3,4.77E2,1.434E3,1.216E3,5.41E2,1.882E3,4.54E2,2.3E1,1.403E3,3.1E1,1.043E3,1.73E2],"tree_param":{"num_deleted":"0","num_feature":"10","num_nodes":"15","size_leaf_vector":"1"}},{"base_weights":[2.1572475E0,-1.3029426E1,1.0896925E2,7.6747795E1,-3.8615215E1,2.6636273E2,7.6618204E0,5.5827522E1,4.1649737E0,-4.10135E-1,-2.218641E1,1.985854E1,9.852968E1,-7.311498E-1,3.1565E2],"categories":[],"categories_nodes":[],"categories_segments":[],"categories_sizes":[],"default_left":[0,0,0,0,0,0,0,0,0,0,0,0,0,0,0],"id":75,"left_children":[1,3,5,7,9,11,13,-1,-1,-1,-1,-1,-1,-1,-1],"loss_changes":[8.952273E6,1.1102169E7,1.0952261E7,1.2127328E7,9.944728E6,1.0120778E7,7.4535955E6,0E0,0E0,0E0,0E0,0E0,0E0,0E0,0E0],"parents":[2147483647,0,0,1,1,2,2,3,3,4,4,5,5,6,6],"right_children":[2,4,6,8,10,12,14,-1,-1,-1,-1,-1,-1,-1,-1],"split_conditions":[1.7398449E0,-5.70564E-1,3.7141395E-1,-1.2148056E0,-9.582419E-2,-6.087178E-2,7.042026E0,5.5827522E1,4.1649737E0,-4.10135E-1,-2.218641E1,1.985854E1,9.852968E1,-7.311498E-1,3.1565E2],"split_indices":[1,5,2,1,2,6,0,0,0,0,0,0,0,0,0],"split_type":[0,0,0,0,0,0,0,0,0,0,0,0,0,0,0],"sum_hessian":[5.517E3,4.831E3,6.86E2,1.071E3,3.76E3,2.68E2,4.18E2,2.31E2,8.4E2,2.498E3,1.262E3,1.55E2,1.13E2,4.16E2,2E0],"tree_param":{"num_deleted":"0","num_feature":"10","num_nodes":"15","size_leaf_vector":"1"}},{"base_weights":[5.722401E-1,1.9981976E2,-5.0025144E0,1.384638E2,8.989876E2,-2.981815E1,4.4603966E1,9.730277E1,1.4590973E1,-6.097461E0,2.4244002E2,3.4158115E0,-1.3578471E1,-1.7341602E2,1.013886E1],"categories":[],"categories_nodes":[],"categories_segments":[],"categories_sizes":[],"default_left":[0,0,0,0,0,0,0,0,0,0,0,0,0,0,0],"id":76,"left_children":[1,3,5,7,9,11,13,-1,-1,-1,-1,-1,-1,-1,-1],"loss_changes":[6.162363E6,6.353138E6,6.6451255E6,3.1565612E6,3.530434E6,6.4256555E6,1.0038382E7,0E0,0E0,0E0,0E0,0E0,0E0,0E0,0E0],"parents":[2147483647,0,0,1,1,2,2,3,3,4,4,5,5,6,6],"right_children":[2,4,6,8,10,12,14,-1,-1,-1,-1,-1,-1,-1,-1],"split_conditions":[-1.287573E0,9.5971096E-1,3.4746292E-1,-1.6419979E0,7.557814E-3,-2.8655624E0,-2.9088032E0,9.730277E1,1.4590973E1,-6.097461E0,2.4244002E2,3.4158115E0,-1.3578471E1,-1.7341602E2,1.013886E1],"split_indices":[2,3,4,2,9,0,3,0,0,0,0,0,0,0,0],"split_type":[0,0,0,0,0,0,0,0,0,0,0,0,0,0,0],"sum_hessian":[5.546E3,1.5E2,5.396E3,1.39E2,1.1E1,3.597E3,1.799E3,2.1E1,1.18E2,3E0,8E0,1.612E3,1.985E3,1.1E1,1.788E3],"tree_param":{"num_deleted":"0","num_feature":"10","num_nodes":"15","size_leaf_vector":"1"}},{"base_weights":[2.1467242E0,-3.7948759E0,2.916064E2,5.902957E0,-1.9898682E2,6.3391797E2,-9.923697E0,-8.308756E-1,1.0828407E2,-2.9045048E1,-3.0139987E2,1.7692638E2,4.4338245E1,-1.1083148E2,8.451076E1],"categories":[],"categories_nodes":[],"categories_segments":[],"categories_sizes":[],"default_left":[0,0,0,0,0,0,0,0,0,0,0,0,0,0,0],"id":77,"left_children":[1,3,5,7,9,11,13,-1,-1,-1,-1,-1,-1,-1,-1],"loss_changes":[9.49126E6,1.0238188E7,1.1463402E7,2.7755676E7,1.7783276E7,5.178136E6,1.435629E7,0E0,0E0,0E0,0E0,0E0,0E0,0E0,0E0],"parents":[2147483647,0,0,1,1,2,2,3,3,4,4,5,5,6,6],"right_children":[2,4,6,8,10,12,14,-1,-1,-1,-1,-1,-1,-1,-1],"split_conditions":[6.193569E0,4.3564E0,2.7523766E0,2.1978846E0,2.2109094E0,2.4566088E-2,6.733176E0,-8.308756E-1,1.0828407E2,-2.9045048E1,-3.0139987E2,1.7692638E2,4.4338245E1,-1.1083148E2,8.451076E1],"split_indices":[0,0,2,0,4,9,0,0,0,0,0,0,0,0,0],"split_type":[0,0,0,0,0,0,0,0,0,0,0,0,0,0,0],"sum_hessian":[5.517E3,5.407E3,1.1E2,5.152E3,2.55E2,5.1E1,5.9E1,5.058E3,9.4E1,2.46E2,9E0,3.1E1,2E1,2.6E1,3.3E1],"tree_param":{"num_deleted":"0","num_feature":"10","num_nodes":"15","size_leaf_vector":"1"}},{"base_weights":[9.51908E0,3.0292698E1,-6.7998375E1,2.2925E1,7.267675E2,9.306639E1,-1.2025249E2,-3.0514486E0,1.8773417E1,1.8228644E2,-1.8656718E2,-9.207516E1,4.048561E1,5.358726E1,-3.5226486E1],"categories":[],"categories_nodes":[],"categories_segments":[],"categories_sizes":[],"default_left":[0,0,0,0,0,0,0,0,0,0,0,0,0,0,0],"id":78,"left_children":[1,3,5,7,9,11,13,-1,-1,-1,-1,-1,-1,-1,-1],"loss_changes":[8.784734E6,2.2058694E7,9.715181E6,1.1535194E7,1.464137E7,1.7221868E7,1.8940896E7,0E0,0E0,0E0,0E0,0E0,0E0,0E0,0E0],"parents":[2147483647,0,0,1,1,2,2,3,3,4,4,5,5,6,6],"right_children":[2,4,6,8,10,12,14,-1,-1,-1,-1,-1,-1,-1,-1],"split_conditions":[9.107284E-1,5.571539E0,-1.6770753E0,-1.6258758E0,5.740896E-1,-5.3727025E-1,-6.359897E-1,-3.0514486E0,1.8773417E1,1.8228644E2,-1.8656718E2,-9.207516E1,4.048561E1,5.358726E1,-3.5226486E1],"split_indices":[2,0,1,0,8,8,8,0,0,0,0,0,0,0,0],"split_type":[0,0,0,0,0,0,0,0,0,0,0,0,0,0,0],"sum_hessian":[5.453E3,4.301E3,1.152E3,4.257E3,4.4E1,2.82E2,8.7E2,2.768E3,1.489E3,4E1,4E0,4.6E1,2.36E2,1.09E2,7.61E2],"tree_param":{"num_deleted":"0","num_feature":"10","num_nodes":"15","size_leaf_vector":"1"}},{"base_weights":[9.0507555E-1,5.0829773E1,-3.0464594E1,-1.9689177E1,1.1477113E2,8.188159E0,-1.16737686E2,-6.4696574E0,2.0695352E2,-1.2602815E1,3.110109E1,-1.14364505E-1,6.575689E1,-3.813305E1,-2.8038108E0],"categories":[],"categories_nodes":[],"categories_segments":[],"categories_sizes":[],"default_left":[0,0,0,0,0,0,0,0,0,0,0,0,0,0,0],"id":79,"left_children":[1,3,5,7,9,11,13,-1,-1,-1,-1,-1,-1,-1,-1],"loss_changes":[8.604252E6,9.561504E6,1.1252208E7,1.3502093E7,8.062855E6,6.5466095E6,7.925187E6,0E0,0E0,0E0,0E0,0E0,0E0,0E0,0E0],"parents":[2147483647,0,0,1,1,2,2,3,3,4,4,5,5,6,6],"right_children":[2,4,6,8,10,12,14,-1,-1,-1,-1,-1,-1,-1,-1],"split_conditions":[-5.131171E-3,3.5882927E-2,1.9191949E-1,6.5488415E0,-1.0224476E0,2.5384426E0,3.7553585E-1,-6.4696574E0,2.0695352E2,-1.2602815E1,3.110109E1,-1.14364505E-1,6.575689E1,-3.813305E1,-2.8038108E0],"split_indices":[9,6,5,0,3,1,1,0,0,0,0,0,0,0,0],"split_type":[0,0,0,0,0,0,0,0,0,0,0,0,0,0,0],"sum_hessian":[5.492E3,2.119E3,3.373E3,1.008E3,1.111E3,2.33E3,1.043E3,9.97E2,1.1E1,2.07E2,9.04E2,2.269E3,6.1E1,6.06E2,4.37E2],"tree_param":{"num_deleted":"0","num_feature":"10","num_nodes":"15","size_leaf_vector":"1"}},{"base_weights":[7.8736844E0,1.8603888E1,-1.3332184E2,1.0462396E1,4.072024E2,-5.7544244E2,1.1497556E1,3.2309003E0,-5.1685207E1,-5.826482E1,1.3809947E2,-5.8548653E1,-2.317511E2,-6.352554E0,1.5302617E2],"categories":[],"categories_nodes":[],"categories_segments":[],"categories_sizes":[],"default_left":[0,0,0,0,0,0,0,0,0,0,0,0,0,0,0],"id":80,"left_children":[1,3,5,7,9,11,13,-1,-1,-1,-1,-1,-1,-1,-1],"loss_changes":[8.344383E6,1.6187924E7,2.4913368E7,7.678309E6,2.0979502E7,1.549139E7,9.609415E6,0E0,0E0,0E0,0E0,0E0,0E0,0E0,0E0],"parents":[2147483647,0,0,1,1,2,2,3,3,4,4,5,5,6,6],"right_children":[2,4,6,8,10,12,14,-1,-1,-1,-1,-1,-1,-1,-1],"split_conditions":[4.3564E0,2.0944338E0,5.2169375E0,2.9666739E0,-3.051536E-1,-2.098671E-1,1.1389791E0,3.2309003E0,-5.1685207E1,-5.826482E1,1.3809947E2,-5.8548653E1,-2.317511E2,-6.352554E0,1.5302617E2],"split_indices":[0,0,0,2,8,5,8,0,0,0,0,0,0,0,0],"split_type":[0,0,0,0,0,0,0,0,0,0,0,0,0,0,0],"sum_hessian":[5.505E3,5.117E3,3.88E2,5.013E3,1.04E2,9.5E1,2.93E2,4.91E3,1.03E2,3E1,7.4E1,6.5E1,3E1,2.78E2,1.5E1],"tree_param":{"num_deleted":"0","num_feature":"10","num_nodes":"15","size_leaf_vector":"1"}},{"base_weights":[-2.7411718E0,-3.474282E2,3.2750409E0,3.2296188E2,-5.8188995E2,-8.824703E0,1.582985E2,1.08700134E2,-2.589922E1,-3.7328465E1,-1.7138062E2,-2.309942E0,1.5802428E2,-2.8455673E2,3.5673748E1],"categories":[],"categories_nodes":[],"categories_segments":[],"categories_sizes":[],"default_left":[0,0,0,0,0,0,0,0,0,0,0,0,0,0,0],"id":81,"left_children":[1,3,5,7,9,11,13,-1,-1,-1,-1,-1,-1,-1,-1],"loss_changes":[1.1362998E7,1.4962927E7,1.0104154E7,2.5649948E6,7.448946E6,1.0888261E7,1.2629531E7,0E0,0E0,0E0,0E0,0E0,0E0,0E0,0E0],"parents":[2147483647,0,0,1,1,2,2,3,3,4,4,5,5,6,6],"right_children":[2,4,6,8,10,12,14,-1,-1,-1,-1,-1,-1,-1,-1],"split_conditions":[-2.323019E0,-1.9761542E0,1.1814661E0,-1.4940839E0,-1.4956261E-1,4.1850343E0,-4.209575E0,1.08700134E2,-2.589922E1,-3.7328465E1,-1.7138062E2,-2.309942E0,1.5802428E2,-2.8455673E2,3.5673748E1],"split_indices":[4,0,4,3,8,1,1,0,0,0,0,0,0,0,0],"split_type":[0,0,0,0,0,0,0,0,0,0,0,0,0,0,0],"sum_hessian":[5.478E3,9.3E1,5.385E3,2.4E1,6.9E1,4.996E3,3.89E2,1.6E1,8E0,2.9E1,4E1,4.98E3,1.6E1,4E0,3.85E2],"tree_param":{"num_deleted":"0","num_feature":"10","num_nodes":"15","size_leaf_vector":"1"}},{"base_weights":[7.821062E0,-1.1270658E2,2.0747047E1,-8.222933E1,-2.813857E2,7.291883E1,-7.4179077E0,-2.8201502E1,1.949268E1,-8.100665E1,-3.932471E1,5.4831386E0,1.5062541E2,-5.4793274E1,2.3843043E0],"categories":[],"categories_nodes":[],"categories_segments":[],"categories_sizes":[],"default_left":[0,0,0,0,0,0,0,0,0,0,0,0,0,0,0],"id":82,"left_children":[1,3,5,7,9,11,13,-1,-1,-1,-1,-1,-1,-1,-1],"loss_changes":[8.556978E6,2.711807E6,7.288845E6,4.7877715E6,7.69292E5,5.38042E7,1.6612336E7,0E0,0E0,0E0,0E0,0E0,0E0,0E0,0E0],"parents":[2147483647,0,0,1,1,2,2,3,3,4,4,5,5,6,6],"right_children":[2,4,6,8,10,12,14,-1,-1,-1,-1,-1,-1,-1,-1],"split_conditions":[-4.5177617E0,-4.564987E0,-2.8655624E0,-4.6846647E0,-4.1388642E-2,-3.1669E0,-2.337422E0,-2.8201502E1,1.949268E1,-8.100665E1,-3.932471E1,5.4831386E0,1.5062541E2,-5.4793274E1,2.3843043E0],"split_indices":[0,0,0,0,6,0,0,0,0,0,0,0,0,0,0],"split_type":[0,0,0,0,0,0,0,0,0,0,0,0,0,0,0],"sum_hessian":[5.49E3,5.31E2,4.959E3,4.51E2,8E1,1.738E3,3.221E3,3.4E2,1.11E2,3.1E1,4.9E1,1.63E3,1.08E2,2.17E2,3.004E3],"tree_param":{"num_deleted":"0","num_feature":"10","num_nodes":"15","size_leaf_vector":"1"}},{"base_weights":[5.7652626E0,7.368489E2,2.9889576E0,-8.2100586E1,8.779016E2,-1.4678105E1,7.27538E1,-4.936758E1,1.10182295E1,2.148291E2,3.0567657E1,-2.2425673E1,2.3144834E0,2.352057E1,-1.4126503E1],"categories":[],"categories_nodes":[],"categories_segments":[],"categories_sizes":[],"default_left":[0,0,0,0,0,0,0,0,0,0,0,0,0,0,0],"id":83,"left_children":[1,3,5,7,9,11,13,-1,-1,-1,-1,-1,-1,-1,-1],"loss_changes":[1.1266754E7,2.497893E6,6.819479E6,1.0400097E5,2.397036E6,1.1295398E7,7.1978735E6,0E0,0E0,0E0,0E0,0E0,0E0,0E0,0E0],"parents":[2147483647,0,0,1,1,2,2,3,3,4,4,5,5,6,6],"right_children":[2,4,6,8,10,12,14,-1,-1,-1,-1,-1,-1,-1,-1],"split_conditions":[-2.509626E0,6.2895507E-1,1.1625162E0,-4.3598714E0,4.1666093E-1,-4.137505E-1,1.534013E0,-4.936758E1,1.10182295E1,2.148291E2,3.0567657E1,-2.2425673E1,2.3144834E0,2.352057E1,-1.4126503E1],"split_indices":[5,2,1,0,4,4,2,0,0,0,0,0,0,0,0],"split_type":[0,0,0,0,0,0,0,0,0,0,0,0,0,0,0],"sum_hessian":[5.551E3,2E1,5.531E3,3E0,1.7E1,4.414E3,1.117E3,1E0,2E0,1.3E1,4E0,9.36E2,3.478E3,8.51E2,2.66E2],"tree_param":{"num_deleted":"0","num_feature":"10","num_nodes":"15","size_leaf_vector":"1"}},{"base_weights":[-2.5324202E0,1.394611E-1,-6.100572E2,2.61997E2,-4.896287E0,2.0945654E2,-9.59825E2,8.58599E1,-1.5062701E1,5.402667E0,-9.101783E0,1.5182169E2,-5.443125E1,-4.274754E1,-3.544912E2],"categories":[],"categories_nodes":[],"categories_segments":[],"categories_sizes":[],"default_left":[0,0,0,0,0,0,0,0,0,0,0,0,0,0,0],"id":84,"left_children":[1,3,5,7,9,11,13,-1,-1,-1,-1,-1,-1,-1,-1],"loss_changes":[8.897031E6,7.198467E6,7.08039E6,5.8449185E6,6.94225E6,2.3243512E6,9.928153E6,0E0,0E0,0E0,0E0,0E0,0E0,0E0,0E0],"parents":[2147483647,0,0,1,1,2,2,3,3,4,4,5,5,6,6],"right_children":[2,4,6,8,10,12,14,-1,-1,-1,-1,-1,-1,-1,-1],"split_conditions":[1.4719371E0,-8.954265E-1,-2.9088032E0,3.021293E-1,-8.2303405E-2,2.821268E0,5.391983E0,8.58599E1,-1.5062701E1,5.402667E0,-9.101783E0,1.5182169E2,-5.443125E1,-4.274754E1,-3.544912E2],"split_indices":[6,8,3,7,2,0,2,0,0,0,0,0,0,0,0],"split_type":[0,0,0,0,0,0,0,0,0,0,0,0,0,0,0],"sum_hessian":[5.48E3,5.457E3,2.3E1,1.02E2,5.355E3,7E0,1.6E1,6.8E1,3.4E1,2.999E3,2.356E3,3E0,4E0,9E0,7E0],"tree_param":{"num_deleted":"0","num_feature":"10","num_nodes":"15","size_leaf_vector":"1"}},{"base_weights":[4.0734592E-1,1.4385428E2,-1.1123477E1,2.3689664E2,-2.2668536E2,2.072071E1,-8.299907E1,-4.7317348E0,9.983699E1,-1.17149315E2,2.7554632E1,2.200134E0,2.3177896E2,-2.208346E2,-1.368841E1],"categories":[],"categories_nodes":[],"categories_segments":[],"categories_sizes":[],"default_left":[0,0,0,0,0,0,0,0,0,0,0,0,0,0,0],"id":85,"left_children":[1,3,5,7,9,11,13,-1,-1,-1,-1,-1,-1,-1,-1],"loss_changes":[9.13698E6,1.4223288E7,1.1704456E7,2.2495872E7,1.0942324E7,3.9194876E7,2.3262868E7,0E0,0E0,0E0,0E0,0E0,0E0,0E0,0E0],"parents":[2147483647,0,0,1,1,2,2,3,3,4,4,5,5,6,6],"right_children":[2,4,6,8,10,12,14,-1,-1,-1,-1,-1,-1,-1,-1],"split_conditions":[-2.1296418E0,6.2060535E-1,-6.277018E-1,-8.4203714E-1,2.1978846E0,-7.556308E-1,-5.452636E-1,-4.7317348E0,9.983699E1,-1.17149315E2,2.7554632E1,2.200134E0,2.3177896E2,-2.208346E2,-1.368841E1],"split_indices":[1,7,0,0,0,0,0,0,0,0,0,0,0,0,0],"split_type":[0,0,0,0,0,0,0,0,0,0,0,0,0,0,0],"sum_hessian":[5.522E3,4.1E2,5.112E3,3.28E2,8.2E1,3.543E3,1.569E3,