{"learner":{"attributes":{"best_iteration":"61","best_score":"69.0038263900377","scikit_learn":"{\"_estimator_type\": \"regressor\"}"},"feature_names":[],"feature_types":[],"gradient_booster":{"model":{"cats":{"enc":[],"feature_segments":[],"sorted_idx":[]},"gbtree_model_param":{"num_parallel_tree":"1","num_trees":"72"},"iteration_indptr":[0,1,2,3,4,5,6,7,8,9,10,11,12,13,14,15,16,17,18,19,20,21,22,23,24,25,26,27,28,29,30,31,32,33,34,35,36,37,38,39,40,41,42,43,44,45,46,47,48,49,50,51,52,53,54,55,56,57,58,59,60,61,62,63,64,65,66,67,68,69,70,71,72],"tree_info":[0,0,0,0,0,0,0,0,0,0,0,0,0,0,0,0,0,0,0,0,0,0,0,0,0,0,0,0,0,0,0,0,0,0,0,0,0,0,0,0,0,0,0,0,0,0,0,0,0,0,0,0,0,0,0,0,0,0,0,0,0,0,0,0,0,0,0,0,0,0,0,0],"trees":[{"base_weights":[1.3831387E0,-6.971622E2,8.516877E2,-9.9812067E2,-3.9554272E2,5.9027795E2,1.4317938E3,-2.4620506E2,-1.6984831E2,-1.1560229E2,-2.0228968E1,6.0965797E1,1.5506673E2,2.5581897E2,3.7633618E2],"categories":[],"categories_nodes":[],"categories_segments":[],"categories_sizes":[],"default_left":[0,0,0,0,0,0,0,0,0,0,0,0,0,0,0],"id":0,"left_children":[1,3,5,7,9,11,13,-1,-1,-1,-1,-1,-1,-1,-1],"loss_changes":[3.2674632E9,2.7374554E8,3.75387E8,5.134797E7,8.105635E7,9.019821E7,5.049024E7,0E0,0E0,0E0,0E0,0E0,0E0,0E0,0E0],"parents":[2147483647,0,0,1,1,2,2,3,3,4,4,5,5,6,6],"right_children":[2,4,6,8,10,12,14,-1,-1,-1,-1,-1,-1,-1,-1],"split_conditions":[-2.0051783E-1,-3.5216322E0,3.8877966E0,-4.7849474E0,-2.0290964E0,1.8062364E0,6.4667845E0,-2.4620506E2,-1.6984831E2,-1.1560229E2,-2.0228968E1,6.0965797E1,1.5506673E2,2.5581897E2,3.7633618E2],"split_indices":[0,0,0,0,0,0,0,0,0,0,0,0,0,0,0],"split_type":[0,0,0,0,0,0,0,0,0,0,0,0,0,0,0],"sum_hessian":[5.499E3,3.019E3,2.48E3,1.51E3,1.509E3,1.711E3,7.69E2,5.86E2,9.24E2,9.31E2,5.78E2,6.74E2,1.037E3,5.77E2,1.92E2],"tree_param":{"num_deleted":"0","num_feature":"10","num_nodes":"15","size_leaf_vector":"1"}},{"base_weights":[7.7760243E0,-4.9971683E2,7.552958E2,-6.961577E2,-8.720143E1,5.6776587E2,1.2113395E3,-1.9501674E2,-1.19369286E2,-4.9590908E1,4.037875E0,8.428988E1,1.4954578E2,2.1875078E2,2.975577E2],"categories":[],"categories_nodes":[],"categories_segments":[],"categories_sizes":[],"default_left":[0,0,0,0,0,0,0,0,0,0,0,0,0,0,0],"id":1,"left_children":[1,3,5,7,9,11,13,-1,-1,-1,-1,-1,-1,-1,-1],"loss_changes":[2.0826895E9,2.649234E8,1.8917069E8,6.077459E7,1.8235164E7,4.115709E7,1.937184E7,0E0,0E0,0E0,0E0,0E0,0E0,0E0,0E0],"parents":[2147483647,0,0,1,1,2,2,3,3,4,4,5,5,6,6],"right_children":[2,4,6,8,10,12,14,-1,-1,-1,-1,-1,-1,-1,-1],"split_conditions":[3.8388187E-1,-2.620904E0,4.4037676E0,-4.688367E0,-1.1902599E0,2.7991226E0,6.4667845E0,-1.9501674E2,-1.19369286E2,-4.9590908E1,4.037875E0,8.428988E1,1.4954578E2,2.1875078E2,2.975577E2],"split_indices":[0,0,0,0,0,0,0,0,0,0,0,0,0,0,0],"split_type":[0,0,0,0,0,0,0,0,0,0,0,0,0,0,0],"sum_hessian":[5.488E3,3.269E3,2.219E3,2.214E3,1.055E3,1.574E3,6.45E2,5.79E2,1.635E3,4.22E2,6.33E2,8.7E2,7.04E2,4.56E2,1.89E2],"tree_param":{"num_deleted":"0","num_feature":"10","num_nodes":"15","size_leaf_vector":"1"}},{"base_weights":[-9.778112E0,-3.9689438E2,6.275866E2,-5.699978E2,-7.597712E1,4.7955063E2,1.01159E3,-1.464954E2,-9.184423E1,-3.871957E1,8.995812E0,7.139729E1,1.2045888E2,1.8291057E2,2.571837E2],"categories":[],"categories_nodes":[],"categories_segments":[],"categories_sizes":[],"default_left":[0,0,0,0,0,0,0,0,0,0,0,0,0,0,0],"id":2,"left_children":[1,3,5,7,9,11,13,-1,-1,-1,-1,-1,-1,-1,-1],"loss_changes":[1.3444573E9,1.8827757E8,1.1656154E8,3.9297216E7,1.6924558E7,2.2170464E7,1.4050624E7,0E0,0E0,0E0,0E0,0E0,0E0,0E0,0E0],"parents":[2147483647,0,0,1,1,2,2,3,3,4,4,5,5,6,6],"right_children":[2,4,6,8,10,12,14,-1,-1,-1,-1,-1,-1,-1,-1],"split_conditions":[6.973888E-1,-2.8737047E0,4.6265635E0,-4.2770715E0,-8.821032E-1,2.750253E0,6.9660473E0,-1.464954E2,-9.184423E1,-3.871957E1,8.995812E0,7.139729E1,1.2045888E2,1.8291057E2,2.571837E2],"split_indices":[0,0,0,0,0,0,0,0,0,0,0,0,0,0,0],"split_type":[0,0,0,0,0,0,0,0,0,0,0,0,0,0,0],"sum_hessian":[5.447E3,3.389E3,2.058E3,2.201E3,1.188E3,1.487E3,5.71E2,8.9E2,1.311E3,6.02E2,5.86E2,7.46E2,7.41E2,4.25E2,1.46E2],"tree_param":{"num_deleted":"0","num_feature":"10","num_nodes":"15","size_leaf_vector":"1"}},{"base_weights":[-3.2448754E0,-3.7008115E2,4.2899533E2,-5.4036743E2,-2.1663063E2,2.4806956E2,6.7702496E2,-1.3447932E2,-9.504923E1,-5.7115047E1,-1.2103486E1,1.952868E1,7.020342E1,1.148489E2,1.8326662E2],"categories":[],"categories_nodes":[],"categories_segments":[],"categories_sizes":[],"default_left":[0,0,0,0,0,0,0,0,0,0,0,0,0,0,0],"id":3,"left_children":[1,3,5,7,9,11,13,-1,-1,-1,-1,-1,-1,-1,-1],"loss_changes":[8.717706E8,7.759507E7,1.1309642E8,1.1794912E7,1.6837832E7,2.2590776E7,2.564416E7,0E0,0E0,0E0,0E0,0E0,0E0,0E0,0E0],"parents":[2147483647,0,0,1,1,2,2,3,3,4,4,5,5,6,6],"right_children":[2,4,6,8,10,12,14,-1,-1,-1,-1,-1,-1,-1,-1],"split_conditions":[-3.5394937E-1,-3.7533448E0,3.320998E0,-5.455075E0,-1.7294098E0,1.5022117E0,5.658002E0,-1.3447932E2,-9.504923E1,-5.7115047E1,-1.2103486E1,1.952868E1,7.020342E1,1.148489E2,1.8326662E2],"split_indices":[0,0,0,0,0,0,0,0,0,0,0,0,0,0,0],"split_type":[0,0,0,0,0,0,0,0,0,0,0,0,0,0,0],"sum_hessian":[5.496E3,2.973E3,2.523E3,1.408E3,1.565E3,1.46E3,1.063E3,4.62E2,9.46E2,1.085E3,4.8E2,5.94E2,8.66E2,7.46E2,3.17E2],"tree_param":{"num_deleted":"0","num_feature":"10","num_nodes":"15","size_leaf_vector":"1"}},{"base_weights":[-3.7217534E0,-2.4497542E2,4.0819968E2,-3.902757E2,-7.37897E1,3.1587097E2,6.547838E2,-1.0393687E2,-6.711614E1,-3.655575E1,2.0593731E0,4.5992325E1,7.3900116E1,1.1976552E2,1.7606352E2],"categories":[],"categories_nodes":[],"categories_segments":[],"categories_sizes":[],"default_left":[0,0,0,0,0,0,0,0,0,0,0,0,0,0,0],"id":4,"left_children":[1,3,5,7,9,11,13,-1,-1,-1,-1,-1,-1,-1,-1],"loss_changes":[5.480679E8,8.648064E7,4.616915E7,1.3139328E7,1.4646777E7,6.75224E6,6.46432E6,0E0,0E0,0E0,0E0,0E0,0E0,0E0,0E0],"parents":[2147483647,0,0,1,1,2,2,3,3,4,4,5,5,6,6],"right_children":[2,4,6,8,10,12,14,-1,-1,-1,-1,-1,-1,-1,-1],"split_conditions":[1.0631086E0,-3.2323508E0,4.6265635E0,-5.054456E0,-1.4767648E0,2.4953158E0,7.2854276E0,-1.0393687E2,-6.711614E1,-3.655575E1,2.0593731E0,4.5992325E1,7.3900116E1,1.1976552E2,1.7606352E2],"split_indices":[0,0,0,0,0,0,0,0,0,0,0,0,0,0,0],"split_type":[0,0,0,0,0,0,0,0,0,0,0,0,0,0,0],"sum_hessian":[5.513E3,3.477E3,2.036E3,1.88E3,1.597E3,1.483E3,5.53E2,5.56E2,1.324E3,6.95E2,9.02E2,5.72E2,9.11E2,4.46E2,1.07E2],"tree_param":{"num_deleted":"0","num_feature":"10","num_nodes":"15","size_leaf_vector":"1"}},{"base_weights":[6.9798887E-1,-2.4296884E2,2.711605E2,-3.5785617E2,-1.4883176E2,1.439848E2,4.3397937E2,-9.337985E1,-6.4594185E1,-3.7625965E1,-1.1909904E1,8.935972E0,4.043516E1,6.975232E1,1.15786255E2],"categories":[],"categories_nodes":[],"categories_segments":[],"categories_sizes":[],"default_left":[0,0,0,0,0,0,0,0,0,0,0,0,0,0,0],"id":5,"left_children":[1,3,5,7,9,11,13,-1,-1,-1,-1,-1,-1,-1,-1],"loss_changes":[3.6543072E8,3.1494544E7,5.4354464E7,4.843856E6,5.620132E6,8.52604E6,1.402816E7,0E0,0E0,0E0,0E0,0E0,0E0,0E0,0E0],"parents":[2147483647,0,0,1,1,2,2,3,3,4,4,5,5,6,6],"right_children":[2,4,6,8,10,12,14,-1,-1,-1,-1,-1,-1,-1,-1],"split_conditions":[-5.3556716E-1,-3.874432E0,3.1661665E0,-5.7356577E0,-2.2374372E0,1.0631086E0,5.346227E0,-9.337985E1,-6.4594185E1,-3.7625965E1,-1.1909904E1,8.935972E0,4.043516E1,6.975232E1,1.15786255E2],"split_indices":[0,0,0,0,0,0,0,0,0,0,0,0,0,0,0],"split_type":[0,0,0,0,0,0,0,0,0,0,0,0,0,0,0],"sum_hessian":[5.543E3,2.916E3,2.627E3,1.312E3,1.604E3,1.476E3,1.151E3,3.15E2,9.97E2,1.113E3,4.91E2,5.46E2,9.3E2,7.27E2,4.24E2],"tree_param":{"num_deleted":"0","num_feature":"10","num_nodes":"15","size_leaf_vector":"1"}},{"base_weights":[5.3425765E-1,-1.9339214E2,2.1339276E2,-2.7993787E2,-1.128857E2,1.2587556E2,3.5457333E2,-7.689331E1,-5.129852E1,-3.0007282E1,-1.0081689E1,9.968531E0,3.5631138E1,3.3671368E1,8.1884575E1],"categories":[],"categories_nodes":[],"categories_segments":[],"categories_sizes":[],"default_left":[0,0,0,0,0,0,0,0,0,0,0,0,0,0,0],"id":6,"left_children":[1,3,5,7,9,11,13,-1,-1,-1,-1,-1,-1,-1,-1],"loss_changes":[2.2616698E8,1.99442E7,3.2228528E7,3.285816E6,3.443874E6,6.406786E6,1.0134744E7,0E0,0E0,0E0,0E0,0E0,0E0,0E0,0E0],"parents":[2147483647,0,0,1,1,2,2,3,3,4,4,5,5,6,6],"right_children":[2,4,6,8,10,12,14,-1,-1,-1,-1,-1,-1,-1,-1],"split_conditions":[-5.3556716E-1,-3.6784778E0,3.4010286E0,-5.8017225E0,-2.367089E0,1.5022117E0,-1.1833626E0,-7.689331E1,-5.129852E1,-3.0007282E1,-1.0081689E1,9.968531E0,3.5631138E1,3.3671368E1,8.1884575E1],"split_indices":[0,0,0,0,0,0,1,0,0,0,0,0,0,0,0],"split_type":[0,0,0,0,0,0,0,0,0,0,0,0,0,0,0],"sum_hessian":[5.477E3,2.866E3,2.611E3,1.38E3,1.486E3,1.613E3,9.98E2,2.5E2,1.13E3,9.31E2,5.55E2,6.58E2,9.55E2,2.28E2,7.7E2],"tree_param":{"num_deleted":"0","num_feature":"10","num_nodes":"15","size_leaf_vector":"1"}},{"base_weights":[-3.1369307E0,-1.3151257E2,2.0378223E2,-2.0965791E2,-4.7880917E1,1.5626295E2,3.653587E2,-5.622817E1,-3.590793E1,-1.9358854E1,-3.8664433E-1,-9.316562E0,3.598007E1,3.9106686E1,8.3311485E1],"categories":[],"categories_nodes":[],"categories_segments":[],"categories_sizes":[],"default_left":[0,0,0,0,0,0,0,0,0,0,0,0,0,0,0],"id":7,"left_children":[1,3,5,7,9,11,13,-1,-1,-1,-1,-1,-1,-1,-1],"loss_changes":[1.4798482E8,2.2458744E7,1.6320072E7,3.775312E6,3.7350835E6,7.919704E6,4.126856E6,0E0,0E0,0E0,0E0,0E0,0E0,0E0,0E0],"parents":[2147483647,0,0,1,1,2,2,3,3,4,4,5,5,6,6],"right_children":[2,4,6,8,10,12,14,-1,-1,-1,-1,-1,-1,-1,-1],"split_conditions":[6.052568E-1,-3.3359325E0,5.0526285E0,-5.3458295E0,-1.6348063E0,-2.6029887E0,-8.3209366E-1,-5.622817E1,-3.590793E1,-1.9358854E1,-3.8664433E-1,-9.316562E0,3.598007E1,3.9106686E1,8.3311485E1],"split_indices":[0,0,0,0,0,1,1,0,0,0,0,0,0,0,0],"split_type":[0,0,0,0,0,0,0,0,0,0,0,0,0,0,0],"sum_hessian":[5.569E3,3.437E3,2.132E3,1.776E3,1.661E3,1.649E3,4.83E2,5.24E2,1.252E3,8.04E2,8.57E2,1.72E2,1.477E3,1.13E2,3.7E2],"tree_param":{"num_deleted":"0","num_feature":"10","num_nodes":"15","size_leaf_vector":"1"}},{"base_weights":[3.0501407E-1,-1.2594579E2,1.3549887E2,-1.8542009E2,-7.695126E1,8.747601E1,2.6029172E2,-6.0874775E1,-3.4756573E1,-3.8842422E1,-1.3671132E1,1.2788721E0,2.4930311E1,5.570786E0,5.7238598E1],"categories":[],"categories_nodes":[],"categories_segments":[],"categories_sizes":[],"default_left":[0,0,0,0,0,0,0,0,0,0,0,0,0,0,0],"id":8,"left_children":[1,3,5,7,9,11,13,-1,-1,-1,-1,-1,-1,-1,-1],"loss_changes":[9.380755E7,8.267084E6,1.5882412E7,1.723152E6,1.559092E6,5.780543E6,4.429088E6,0E0,0E0,0E0,0E0,0E0,0E0,0E0,0E0],"parents":[2147483647,0,0,1,1,2,2,3,3,4,4,5,5,6,6],"right_children":[2,4,6,8,10,12,14,-1,-1,-1,-1,-1,-1,-1,-1],"split_conditions":[-6.5664506E-1,-3.9489546E0,4.0101213E0,-1.5902517E0,-1.5902517E0,-6.9599235E-1,-2.8272123E0,-6.0874775E1,-3.4756573E1,-3.8842422E1,-1.3671132E1,1.2788721E0,2.4930311E1,5.570786E0,5.7238598E1],"split_indices":[0,0,0,1,1,1,1,0,0,0,0,0,0,0,0],"split_type":[0,0,0,0,0,0,0,0,0,0,0,0,0,0,0],"sum_hessian":[5.494E3,2.841E3,2.653E3,1.282E3,1.559E3,1.917E3,7.36E2,1.12E2,1.17E3,1.05E2,1.454E3,6.03E2,1.314E3,7.4E1,6.62E2],"tree_param":{"num_deleted":"0","num_feature":"10","num_nodes":"15","size_leaf_vector":"1"}},{"base_weights":[-1.63502E0,-8.467801E1,1.399042E2,-1.353719E2,-3.1495474E1,1.17184784E2,3.314101E2,-4.534971E1,-2.440204E1,-1.263737E1,-1.2081804E0,-5.046781E1,2.5178373E1,5.1505856E1,8.685351E1],"categories":[],"categories_nodes":[],"categories_segments":[],"categories_sizes":[],"default_left":[0,0,0,0,0,0,0,0,0,0,0,0,0,0,0],"id":9,"left_children":[1,3,5,7,9,11,13,-1,-1,-1,-1,-1,-1,-1,-1],"loss_changes":[6.4305356E7,9.291644E6,8.76304E6,2.127308E6,1.3580849E6,5.855392E6,1.51439E6,0E0,0E0,0E0,0E0,0E0,0E0,0E0,0E0],"parents":[2147483647,0,0,1,1,2,2,3,3,4,4,5,5,6,6],"right_children":[2,4,6,8,10,12,14,-1,-1,-1,-1,-1,-1,-1,-1],"split_conditions":[1.0631086E0,-3.3121903E0,6.2155037E0,-1.1518822E0,-1.6805474E0,-5.0332007E0,7.642787E0,-4.534971E1,-2.440204E1,-1.263737E1,-1.2081804E0,-5.046781E1,2.5178373E1,5.1505856E1,8.685351E1],"split_indices":[0,0,0,1,0,1,0,0,0,0,0,0,0,0,0],"split_type":[0,0,0,0,0,0,0,0,0,0,0,0,0,0,0],"sum_hessian":[5.469E3,3.447E3,2.022E3,1.764E3,1.683E3,1.809E3,2.13E2,2.23E2,1.541E3,7.49E2,9.34E2,4.1E1,1.768E3,1.26E2,8.7E1],"tree_param":{"num_deleted":"0","num_feature":"10","num_nodes":"15","size_leaf_vector":"1"}},{"base_weights":[-2.7287227E-1,-5.844073E1,1.3603056E2,-9.6428474E1,-1.3965095E0,1.23600464E2,3.5692282E2,-3.5280834E1,-1.6316175E1,-1.9711615E1,2.323318E0,7.0323367E0,2.9618723E1,2.038069E1,8.259135E1],"categories":[],"categories_nodes":[],"categories_segments":[],"categories_sizes":[],"default_left":[0,0,0,0,0,0,0,0,0,0,0,0,0,0,0],"id":10,"left_children":[1,3,5,7,9,11,13,-1,-1,-1,-1,-1,-1,-1,-1],"loss_changes":[4.3551156E7,8.342743E6,4.46709E6,2.729798E6,1.9482794E6,3.367478E6,1.201125E6,0E0,0E0,0E0,0E0,0E0,0E0,0E0,0E0],"parents":[2147483647,0,0,1,1,2,2,3,3,4,4,5,5,6,6],"right_children":[2,4,6,8,10,12,14,-1,-1,-1,-1,-1,-1,-1,-1],"split_conditions":[2.0997386E0,-2.5390036E0,7.642787E0,-5.6063824E0,-1.665005E0,-1.3475926E0,-3.2238725E-1,-3.5280834E1,-1.6316175E1,-1.9711615E1,2.323318E0,7.0323367E0,2.9618723E1,2.038069E1,8.259135E1],"split_indices":[0,0,0,0,1,1,1,0,0,0,0,0,0,0,0],"split_type":[0,0,0,0,0,0,0,0,0,0,0,0,0,0,0],"sum_hessian":[5.491E3,3.849E3,1.642E3,2.31E3,1.539E3,1.556E3,8.6E1,3.6E2,1.95E3,1.81E2,1.358E3,3.38E2,1.218E3,1.6E1,7E1],"tree_param":{"num_deleted":"0","num_feature":"10","num_nodes":"15","size_leaf_vector":"1"}},{"base_weights":[3.3704638E-1,-4.4109375E1,1.1411047E2,-9.099174E1,-1.09981365E1,-9.557089E1,1.2621492E2,-4.538521E1,-1.6865612E1,-1.959207E1,-6.137497E-1,-1.0610344E1,-8.974541E1,2.057927E1,4.348309E1],"categories":[],"categories_nodes":[],"categories_segments":[],"categories_sizes":[],"default_left":[0,0,0,0,0,0,0,0,0,0,0,0,0,0,0],"id":11,"left_children":[1,3,5,7,9,11,13,-1,-1,-1,-1,-1,-1,-1,-1],"loss_changes":[2.7847894E7,6.1462385E6,3.938466E6,1.465507E6,1.600851E6,1.2525462E6,3.08894E6,0E0,0E0,0E0,0E0,0E0,0E0,0E0,0E0],"parents":[2147483647,0,0,1,1,2,2,3,3,4,4,5,5,6,6],"right_children":[2,4,6,8,10,12,14,-1,-1,-1,-1,-1,-1,-1,-1],"split_conditions":[2.275716E0,-3.4023798E0,-3.8737628E0,-2.4307516E0,-1.9820087E0,6.002401E0,5.7932534E0,-4.538521E1,-1.6865612E1,-1.959207E1,-6.137497E-1,-1.0610344E1,-8.974541E1,2.057927E1,4.348309E1],"split_indices":[0,0,1,1,1,2,0,0,0,0,0,0,0,0,0],"split_type":[0,0,0,0,0,0,0,0,0,0,0,0,0,0,0],"sum_hessian":[5.505E3,3.959E3,1.546E3,1.638E3,2.321E3,8.4E1,1.462E3,7.5E1,1.563E3,1.93E2,2.128E3,7.6E1,8E0,1.166E3,2.96E2],"tree_param":{"num_deleted":"0","num_feature":"10","num_nodes":"15","size_leaf_vector":"1"}},{"base_weights":[1.3800902E0,-4.8495575E1,6.998529E1,-8.7067604E1,-2.7960852E1,1.911475E1,9.886526E1,-3.752235E1,-1.5861819E1,-1.9046886E1,-4.1684456E0,9.108054E0,-1.2100574E1,1.607128E1,4.2314163E1],"categories":[],"categories_nodes":[],"categories_segments":[],"categories_sizes":[],"default_left":[0,0,0,0,0,0,0,0,0,0,0,0,0,0,0],"id":12,"left_children":[1,3,5,7,9,11,13,-1,-1,-1,-1,-1,-1,-1,-1],"loss_changes":[1.8939248E7,2.536137E6,3.421205E6,8.53341E5,1.00034325E6,1.7805819E6,3.082871E6,0E0,0E0,0E0,0E0,0E0,0E0,0E0,0E0],"parents":[2147483647,0,0,1,1,2,2,3,3,4,4,5,5,6,6],"right_children":[2,4,6,8,10,12,14,-1,-1,-1,-1,-1,-1,-1,-1],"split_conditions":[1.2718432E-1,-4.1226835E0,-2.6127023E-1,-6.089965E0,-1.4522815E0,9.558546E-1,5.8740478E0,-3.752235E1,-1.5861819E1,-1.9046886E1,-4.1684456E0,9.108054E0,-1.2100574E1,1.607128E1,4.2314163E1],"split_indices":[0,0,1,0,1,4,0,0,0,0,0,0,0,0,0],"split_type":[0,0,0,0,0,0,0,0,0,0,0,0,0,0,0],"sum_hessian":[5.533E3,3.204E3,2.329E3,1.112E3,2.092E3,8.44E2,1.485E3,7.8E1,1.034E3,1.99E2,1.893E3,6.34E2,2.1E2,1.277E3,2.08E2],"tree_param":{"num_deleted":"0","num_feature":"10","num_nodes":"15","size_leaf_vector":"1"}},{"base_weights":[-7.8410126E-2,-2.9618425E1,7.615209E1,-5.084865E1,4.835609E0,6.700068E1,2.1995648E2,-1.794326E1,-7.355704E0,-4.054765E1,1.943618E0,5.5933194E0,1.9345463E1,4.9333065E1,1.7162198E-1],"categories":[],"categories_nodes":[],"categories_segments":[],"categories_sizes":[],"default_left":[0,0,0,0,0,0,0,0,0,0,0,0,0,0,0],"id":13,"left_children":[1,3,5,7,9,11,13,-1,-1,-1,-1,-1,-1,-1,-1],"loss_changes":[1.245724E7,2.9166045E6,2.018503E6,1.3458365E6,1.5434665E6,1.684446E6,5.381595E5,0E0,0E0,0E0,0E0,0E0,0E0,0E0,0E0],"parents":[2147483647,0,0,1,1,2,2,3,3,4,4,5,5,6,6],"right_children":[2,4,6,8,10,12,14,-1,-1,-1,-1,-1,-1,-1,-1],"split_conditions":[2.3373406E0,-2.0290964E0,7.642787E0,-3.8144824E-1,-4.1580033E0,-3.3871818E-1,3.331363E0,-1.794326E1,-7.355704E0,-4.054765E1,1.943618E0,5.5933194E0,1.9345463E1,4.9333065E1,1.7162198E-1],"split_indices":[0,0,0,1,1,3,4,0,0,0,0,0,0,0,0],"split_type":[0,0,0,0,0,0,0,0,0,0,0,0,0,0,0],"sum_hessian":[5.53E3,3.986E3,1.544E3,2.466E3,1.52E3,1.453E3,9.1E1,6.54E2,1.812E3,3.4E1,1.486E3,6.29E2,8.24E2,8.1E1,1E1],"tree_param":{"num_deleted":"0","num_feature":"10","num_nodes":"15","size_leaf_vector":"1"}},{"base_weights":[-8.827668E-2,-3.8305264E1,3.7401714E1,-9.1973854E1,-2.9439457E1,-2.0507567E0,6.026026E1,-3.030625E1,-1.5481814E1,-4.062328E1,-5.5115366E0,-3.7021847E1,1.001263E0,6.3329577E0,1.8222286E1],"categories":[],"categories_nodes":[],"categories_segments":[],"categories_sizes":[],"default_left":[0,0,0,0,0,0,0,0,0,0,0,0,0,0,0],"id":14,"left_children":[1,3,5,7,9,11,13,-1,-1,-1,-1,-1,-1,-1,-1],"loss_changes":[7.907373E6,1.2976955E6,2.5126112E6,3.239695E5,7.614511E5,1.322496E6,1.553323E6,0E0,0E0,0E0,0E0,0E0,0E0,0E0,0E0],"parents":[2147483647,0,0,1,1,2,2,3,3,4,4,5,5,6,6],"right_children":[2,4,6,8,10,12,14,-1,-1,-1,-1,-1,-1,-1,-1],"split_conditions":[-1.015864E0,-5.6063824E0,-3.6702988E-1,-6.171568E0,-3.5630767E0,-5.563845E0,2.9965029E0,-3.030625E1,-1.5481814E1,-4.062328E1,-5.5115366E0,-3.7021847E1,1.001263E0,6.3329577E0,1.8222286E1],"split_indices":[0,0,1,0,1,1,0,0,0,0,0,0,0,0,0],"split_type":[0,0,0,0,0,0,0,0,0,0,0,0,0,0,0],"sum_hessian":[5.517E3,2.732E3,2.785E3,3.86E2,2.346E3,1.022E3,1.763E3,7.4E1,3.12E2,2.4E1,2.322E3,3.7E1,9.85E2,9.16E2,8.47E2],"tree_param":{"num_deleted":"0","num_feature":"10","num_nodes":"15","size_leaf_vector":"1"}},{"base_weights":[6.899198E-1,-1.860763E1,5.100275E1,-4.5816856E1,-6.7737956E0,3.0437275E1,9.4960175E1,-1.9464796E1,-8.0335455E0,-5.5476303E0,1.939741E0,-1.6275406E1,8.704747E0,1.5629578E1,2.690091E1],"categories":[],"categories_nodes":[],"categories_segments":[],"categories_sizes":[],"default_left":[0,0,0,0,0,0,0,0,0,0,0,0,0,0,0],"id":15,"left_children":[1,3,5,7,9,11,13,-1,-1,-1,-1,-1,-1,-1,-1],"loss_changes":[5.3235015E6,1.2757339E6,1.3711978E6,3.4554625E5,9.5443056E5,1.5209358E6,3.112675E5,0E0,0E0,0E0,0E0,0E0,0E0,0E0,0E0],"parents":[2147483647,0,0,1,1,2,2,3,3,4,4,5,5,6,6],"right_children":[2,4,6,8,10,12,14,-1,-1,-1,-1,-1,-1,-1,-1],"split_conditions":[2.3960931E0,-4.0366645E0,5.6933933E-1,-6.00458E0,7.860159E-2,-2.7534037E0,5.263253E0,-1.9464796E1,-8.0335455E0,-5.5476303E0,1.939741E0,-1.6275406E1,8.704747E0,1.5629578E1,2.690091E1],"split_indices":[0,0,3,0,1,1,0,0,0,0,0,0,0,0,0],"split_type":[0,0,0,0,0,0,0,0,0,0,0,0,0,0,0],"sum_hessian":[5.481E3,3.962E3,1.519E3,1.2E3,2.762E3,1.036E3,4.83E2,1.17E2,1.083E3,1.215E3,1.547E3,1.08E2,9.28E2,3.41E2,1.42E2],"tree_param":{"num_deleted":"0","num_feature":"10","num_nodes":"15","size_leaf_vector":"1"}},{"base_weights":[2.733105E-1,-1.3473933E1,5.055749E1,-1.563964E2,-1.1184229E1,4.5181053E1,1.7725795E2,-1.5868721E1,-4.9756676E1,-4.2941685E0,4.2493014E0,3.1174662E0,1.3144963E1,1.0361195E0,4.4725067E1],"categories":[],"categories_nodes":[],"categories_segments":[],"categories_sizes":[],"default_left":[0,0,0,0,0,0,0,0,0,0,0,0,0,0,0],"id":16,"left_children":[1,3,5,7,9,11,13,-1,-1,-1,-1,-1,-1,-1,-1],"loss_changes":[3.7445935E6,1.3903726E6,7.842235E5,4.5721188E5,1.3975834E6,6.78074E5,3.7384388E5,0E0,0E0,0E0,0E0,0E0,0E0,0E0,0E0],"parents":[2147483647,0,0,1,1,2,2,3,3,4,4,5,5,6,6],"right_children":[2,4,6,8,10,12,14,-1,-1,-1,-1,-1,-1,-1,-1],"split_conditions":[3.0957978E0,-4.1580033E0,8.417553E0,-6.526673E-1,5.268347E-1,-5.0254136E-1,-8.740078E-2,-1.5868721E1,-4.9756676E1,-4.2941685E0,4.2493014E0,3.1174662E0,1.3144963E1,1.0361195E0,4.4725067E1],"split_indices":[0,1,0,6,3,3,1,0,0,0,0,0,0,0,0],"split_type":[0,0,0,0,0,0,0,0,0,0,0,0,0,0,0],"sum_hessian":[5.415E3,4.253E3,1.162E3,6.6E1,4.187E3,1.116E3,4.6E1,3.7E1,2.9E1,3.179E3,1.008E3,4.58E2,6.58E2,1E1,3.6E1],"tree_param":{"num_deleted":"0","num_feature":"10","num_nodes":"15","size_leaf_vector":"1"}},{"base_weights":[6.3669676E-1,-2.3640974E1,2.4639662E1,-5.77381E1,-1.6683931E1,-5.9491E1,3.0749817E1,-8.660166E0,-2.1696615E1,-9.272618E0,-2.0191212E0,-4.332595E1,-7.635724E0,5.4555025E0,2.6282337E1],"categories":[],"categories_nodes":[],"categories_segments":[],"categories_sizes":[],"default_left":[0,0,0,0,0,0,0,0,0,0,0,0,0,0,0],"id":17,"left_children":[1,3,5,7,9,11,13,-1,-1,-1,-1,-1,-1,-1,-1],"loss_changes":[3.1776598E6,6.421271E5,1.4113578E6,3.3157475E5,4.400745E5,6.1464375E5,8.9016025E5,0E0,0E0,0E0,0E0,0E0,0E0,0E0,0E0],"parents":[2147483647,0,0,1,1,2,2,3,3,4,4,5,5,6,6],"right_children":[2,4,6,8,10,12,14,-1,-1,-1,-1,-1,-1,-1,-1],"split_conditions":[-1.015864E0,-8.072946E-1,-3.1385198E0,8.529927E-1,-5.2587533E0,-6.659921E0,7.642787E0,-8.660166E0,-2.1696615E1,-9.272618E0,-2.0191212E0,-4.332595E1,-7.635724E0,5.4555025E0,2.6282337E1],"split_indices":[0,1,1,4,0,1,0,0,0,0,0,0,0,0,0],"split_type":[0,0,0,0,0,0,0,0,0,0,0,0,0,0,0],"sum_hessian":[5.451E3,2.71E3,2.741E3,4.58E2,2.252E3,1.85E2,2.556E3,3.58E2,1E2,4.08E2,1.844E3,2.1E1,1.64E2,2.472E3,8.4E1],"tree_param":{"num_deleted":"0","num_feature":"10","num_nodes":"15","size_leaf_vector":"1"}},{"base_weights":[1.829886E-3,-1.41862335E1,2.4685268E1,-4.2225403E1,-6.824131E0,3.5338013E1,-2.439754E1,-2.8231644E1,-7.289144E0,-7.068213E0,1.15114525E-1,5.0428596E0,1.3459038E1,7.432697E0,-1.3371689E1],"categories":[],"categories_nodes":[],"categories_segments":[],"categories_sizes":[],"default_left":[0,0,0,0,0,0,0,0,0,0,0,0,0,0,0],"id":18,"left_children":[1,3,5,7,9,11,13,-1,-1,-1,-1,-1,-1,-1,-1],"loss_changes":[1.939114E6,7.2550994E5,1.0575756E6,4.1284112E5,5.879133E5,5.356786E5,9.461159E5,0E0,0E0,0E0,0E0,0E0,0E0,0E0,0E0],"parents":[2147483647,0,0,1,1,2,2,3,3,4,4,5,5,6,6],"right_children":[2,4,6,8,10,12,14,-1,-1,-1,-1,-1,-1,-1,-1],"split_conditions":[1.3028452E0,-6.394326E-1,1.153571E0,-2.6029887E0,-4.4932666E0,4.8756313E0,-1.6941085E-1,-2.8231644E1,-7.289144E0,-7.068213E0,1.15114525E-1,5.0428596E0,1.3459038E1,7.432697E0,-1.3371689E1],"split_indices":[0,3,4,1,0,0,7,0,0,0,0,0,0,0,0],"split_type":[0,0,0,0,0,0,0,0,0,0,0,0,0,0,0],"sum_hessian":[5.535E3,3.515E3,2.02E3,7.3E2,2.785E3,1.66E3,3.6E2,3.9E1,6.91E2,5.73E2,2.212E3,1.262E3,3.98E2,1.47E2,2.13E2],"tree_param":{"num_deleted":"0","num_feature":"10","num_nodes":"15","size_leaf_vector":"1"}},{"base_weights":[-2.734053E-1,-7.345862E0,3.5314564E1,5.5186415E0,-2.4708181E1,2.9524334E1,1.3645467E2,-1.199234E0,4.4487557E0,-9.188418E0,1.0100647E-1,8.779147E0,-2.2226613E0,1.9570313E-1,3.2573032E1],"categories":[],"categories_nodes":[],"categories_segments":[],"categories_sizes":[],"default_left":[0,0,0,0,0,0,0,0,0,0,0,0,0,0,0],"id":19,"left_children":[1,3,5,7,9,11,13,-1,-1,-1,-1,-1,-1,-1,-1],"loss_changes":[1.381558E6,1.02289094E6,5.288896E5,5.0682928E5,1.0434694E6,5.0391294E5,1.7516231E5,0E0,0E0,0E0,0E0,0E0,0E0,0E0,0E0],"parents":[2147483647,0,0,1,1,2,2,3,3,4,4,5,5,6,6],"right_children":[2,4,6,8,10,12,14,-1,-1,-1,-1,-1,-1,-1,-1],"split_conditions":[3.5712888E0,4.436511E-2,8.417553E0,-1.015864E0,4.9324802E-1,5.4386746E-2,-1.365699E0,-1.199234E0,4.4487557E0,-9.188418E0,1.0100647E-1,8.779147E0,-2.2226613E0,1.9570313E-1,3.2573032E1],"split_indices":[0,4,0,0,1,9,3,0,0,0,0,0,0,0,0],"split_type":[0,0,0,0,0,0,0,0,0,0,0,0,0,0,0],"sum_hessian":[5.487E3,4.578E3,9.09E2,2.63E3,1.948E3,8.61E2,4.8E1,1.558E3,1.072E3,1.057E3,8.91E2,6.36E2,2.25E2,8E0,4E1],"tree_param":{"num_deleted":"0","num_feature":"10","num_nodes":"15","size_leaf_vector":"1"}},{"base_weights":[6.37572E-1,-1.376606E1,1.5436319E1,-1.6973923E2,-1.1476535E1,-4.3504934E0,3.1794222E1,-2.1268059E1,-4.440727E1,-4.847525E0,1.8143231E0,-1.5386148E1,-1.8522048E-1,5.232715E0,1.6504377E1],"categories":[],"categories_nodes":[],"categories_segments":[],"categories_sizes":[],"default_left":[0,0,0,0,0,0,0,0,0,0,0,0,0,0,0],"id":20,"left_children":[1,3,5,7,9,11,13,-1,-1,-1,-1,-1,-1,-1,-1],"loss_changes":[1.1651085E6,9.8723144E5,8.7275456E5,1.0901175E5,7.16334E5,3.0339994E5,4.1943025E5,0E0,0E0,0E0,0E0,0E0,0E0,0E0,0E0],"parents":[2147483647,0,0,1,1,2,2,3,3,4,4,5,5,6,6],"right_children":[2,4,6,8,10,12,14,-1,-1,-1,-1,-1,-1,-1,-1],"split_conditions":[-6.596497E-2,-4.4613547E0,-1.3849604E0,2.7969654E0,4.839637E-1,-6.171568E0,6.069277E0,-2.1268059E1,-4.440727E1,-4.847525E0,1.8143231E0,-1.5386148E1,-1.8522048E-1,5.232715E0,1.6504377E1],"split_indices":[3,1,0,2,1,0,0,0,0,0,0,0,0,0,0],"split_type":[0,0,0,0,0,0,0,0,0,0,0,0,0,0,0],"sum_hessian":[5.464E3,2.769E3,2.695E3,3.9E1,2.73E3,1.22E3,1.475E3,1.9E1,2E1,1.684E3,1.046E3,5.4E1,1.166E3,1.329E3,1.46E2],"tree_param":{"num_deleted":"0","num_feature":"10","num_nodes":"15","size_leaf_vector":"1"}},{"base_weights":[-6.5362185E-1,6.1749253E0,-2.3824493E1,-3.6785223E0,2.3736015E1,-5.0311096E1,3.0823083E0,-4.7306895E0,2.1175932E-2,-3.8604515E0,6.0798554E0,2.3654742E0,-1.3003853E1,-1.7415828E0,6.2647285E0],"categories":[],"categories_nodes":[],"categories_segments":[],"categories_sizes":[],"default_left":[0,0,0,0,0,0,0,0,0,0,0,0,0,0,0],"id":21,"left_children":[1,3,5,7,9,11,13,-1,-1,-1,-1,-1,-1,-1,-1],"loss_changes":[8.7306556E5,7.375722E5,8.9526825E5,2.0644739E5,4.399265E5,5.792949E5,2.0804705E5,0E0,0E0,0E0,0E0,0E0,0E0,0E0,0E0],"parents":[2147483647,0,0,1,1,2,2,3,3,4,4,5,5,6,6],"right_children":[2,4,6,8,10,12,14,-1,-1,-1,-1,-1,-1,-1,-1],"split_conditions":[5.310998E-1,6.052568E-1,4.084359E-1,-5.1788077E0,-1.3040998E0,-8.40887E-2,9.833695E-1,-4.7306895E0,2.1175932E-2,-3.8604515E0,6.0798554E0,2.3654742E0,-1.3003853E1,-1.7415828E0,6.2647285E0],"split_indices":[4,0,1,0,3,9,3,0,0,0,0,0,0,0,0],"split_type":[0,0,0,0,0,0,0,0,0,0,0,0,0,0,0],"sum_hessian":[5.516E3,4.261E3,1.255E3,2.73E3,1.531E3,6.32E2,6.23E2,4.34E2,2.296E3,2.05E2,1.326E3,1.21E2,5.11E2,4.4E2,1.83E2],"tree_param":{"num_deleted":"0","num_feature":"10","num_nodes":"15","size_leaf_vector":"1"}},{"base_weights":[-3.4181207E-1,6.3836246E0,-1.8368479E1,-1.1620181E0,2.6606745E1,-1.0304494E1,-5.7250923E1,-9.557013E0,2.0318905E-1,3.5723577E0,1.1479251E1,1.1442481E0,-5.090078E0,-1.3124656E1,6.8044534E0],"categories":[],"categories_nodes":[],"categories_segments":[],"categories_sizes":[],"default_left":[0,0,0,0,0,0,0,0,0,0,0,0,0,0,0],"id":22,"left_children":[1,3,5,7,9,11,13,-1,-1,-1,-1,-1,-1,-1,-1],"loss_changes":[6.6037506E5,6.05381E5,4.6346028E5,2.9350862E5,2.8922944E5,2.9796803E5,1.9633225E5,0E0,0E0,0E0,0E0,0E0,0E0,0E0,0E0],"parents":[2147483647,0,0,1,1,2,2,3,3,4,4,5,5,6,6],"right_children":[2,4,6,8,10,12,14,-1,-1,-1,-1,-1,-1,-1,-1],"split_conditions":[2.9141827E-2,2.010308E0,4.0326843E-1,-1.4225957E0,1.0105237E0,-2.7718082E-2,2.4322317E0,-9.557013E0,2.0318905E-1,3.5723577E0,1.1479251E1,1.1442481E0,-5.090078E0,-1.3124656E1,6.8044534E0],"split_indices":[9,0,6,3,3,8,3,0,0,0,0,0,0,0,0],"split_type":[0,0,0,0,0,0,0,0,0,0,0,0,0,0,0],"sum_hessian":[5.445E3,3.966E3,1.479E3,2.889E3,1.077E3,1.226E3,2.53E2,1.28E2,2.761E3,8.4E2,2.37E2,5.96E2,6.3E2,2.32E2,2.1E1],"tree_param":{"num_deleted":"0","num_feature":"10","num_nodes":"15","size_leaf_vector":"1"}},{"base_weights":[-3.7830614E-2,-9.8794136E1,1.1309963E0,-6.3740852E1,-1.6441006E2,-1.9669523E0,3.618529E1,-8.294144E0,-3.957465E1,-4.006489E1,-7.050187E0,2.0334742E0,-2.2830937E0,5.9360056E0,2.7207624E1],"categories":[],"categories_nodes":[],"categories_segments":[],"categories_sizes":[],"default_left":[0,0,0,0,0,0,0,0,0,0,0,0,0,0,0],"id":23,"left_children":[1,3,5,7,9,11,13,-1,-1,-1,-1,-1,-1,-1,-1],"loss_changes":[6.4143544E5,1.3902394E5,5.964827E5,1.232285E5,9.4989125E4,5.787614E5,2.856702E5,0E0,0E0,0E0,0E0,0E0,0E0,0E0,0E0],"parents":[2147483647,0,0,1,1,2,2,3,3,4,4,5,5,6,6],"right_children":[2,4,6,8,10,12,14,-1,-1,-1,-1,-1,-1,-1,-1],"split_conditions":[-5.0332007E0,1.1873692E0,5.263253E0,2.7040598E0,5.198211E0,-2.0253046E-1,8.817949E0,-8.294144E0,-3.957465E1,-4.006489E1,-7.050187E0,2.0334742E0,-2.2830937E0,5.9360056E0,2.7207624E1],"split_indices":[1,7,0,5,0,4,0,0,0,0,0,0,0,0,0],"split_type":[0,0,0,0,0,0,0,0,0,0,0,0,0,0,0],"sum_hessian":[5.555E3,6.4E1,5.491E3,4.3E1,2.1E1,5.046E3,4.45E2,3.8E1,5E0,1.6E1,5E0,2.209E3,2.837E3,4.19E2,2.6E1],"tree_param":{"num_deleted":"0","num_feature":"10","num_nodes":"15","size_leaf_vector":"1"}},{"base_weights":[-2.4704708E-1,-4.5734797E0,2.4675646E1,-6.302344E-1,-3.994338E1,-2.5384508E1,3.0502695E1,-1.0225834E0,3.3106492E0,-1.1290309E1,-6.2966025E-1,-9.721457E0,-1.7899151E0,9.949454E0,3.3356292E0],"categories":[],"categories_nodes":[],"categories_segments":[],"categories_sizes":[],"default_left":[0,0,0,0,0,0,0,0,0,0,0,0,0,0,0],"id":24,"left_children":[1,3,5,7,9,11,13,-1,-1,-1,-1,-1,-1,-1,-1],"loss_changes":[5.904621E5,6.5075206E5,2.3705378E5,3.2352556E5,2.8409456E5,3.2006488E4,1.9232075E5,0E0,0E0,0E0,0E0,0E0,0E0,0E0,0E0],"parents":[2147483647,0,0,1,1,2,2,3,3,4,4,5,5,6,6],"right_children":[2,4,6,8,10,12,14,-1,-1,-1,-1,-1,-1,-1,-1],"split_conditions":[1.0105237E0,1.1226699E0,-4.2224874E0,1.1036183E0,1.347065E0,-5.165262E-1,-1.813579E-1,-1.0225834E0,3.3106492E0,-1.1290309E1,-6.2966025E-1,-9.721457E0,-1.7899151E0,9.949454E0,3.3356292E0],"split_indices":[3,4,0,1,1,1,7,0,0,0,0,0,0,0,0],"split_type":[0,0,0,0,0,0,0,0,0,0,0,0,0,0,0],"sum_hessian":[5.474E3,4.665E3,8.09E2,4.198E3,4.67E2,8.4E1,7.25E2,3.33E3,8.68E2,3.22E2,1.45E2,3.4E1,5E1,3.02E2,4.23E2],"tree_param":{"num_deleted":"0","num_feature":"10","num_nodes":"15","size_leaf_vector":"1"}},{"base_weights":[5.372138E-1,1.6669506E1,-4.672789E0,-1.6300158E1,2.1197071E1,-1.0388347E1,1.3308147E1,-2.059419E1,-2.5768151E0,-1.4338752E1,4.44326E0,-8.1465334E-1,-6.9280314E0,1.7040055E0,8.57424E0],"categories":[],"categories_nodes":[],"categories_segments":[],"categories_sizes":[],"default_left":[0,0,0,0,0,0,0,0,0,0,0,0,0,0,0],"id":25,"left_children":[1,3,5,7,9,11,13,-1,-1,-1,-1,-1,-1,-1,-1],"loss_changes":[4.6033178E5,1.9992256E5,4.2561056E5,4.663739E4,1.12933125E5,4.8106284E5,1.4104462E5,0E0,0E0,0E0,0E0,0E0,0E0,0E0,0E0],"parents":[2147483647,0,0,1,1,2,2,3,3,4,4,5,5,6,6],"right_children":[2,4,6,8,10,12,14,-1,-1,-1,-1,-1,-1,-1,-1],"split_conditions":[-4.988583E-1,-4.188971E0,1.2024425E0,-3.5630767E0,-5.0332007E0,3.96425E-2,5.263253E0,-2.059419E1,-2.5768151E0,-1.4338752E1,4.44326E0,-8.1465334E-1,-6.9280314E0,1.7040055E0,8.57424E0],"split_indices":[4,0,1,1,1,9,0,0,0,0,0,0,0,0,0],"split_type":[0,0,0,0,0,0,0,0,0,0,0,0,0,0,0],"sum_hessian":[5.475E3,1.336E3,4.139E3,1.61E2,1.175E3,3.141E3,9.98E2,5E0,1.56E2,1.2E1,1.163E3,2.493E3,6.48E2,8.6E2,1.38E2],"tree_param":{"num_deleted":"0","num_feature":"10","num_nodes":"15","size_leaf_vector":"1"}},{"base_weights":[-5.3378487E-1,-4.992265E1,1.0694268E0,-1.7937376E2,-3.9092728E1,-1.4985844E0,2.7895346E1,-4.7148785E1,1.2790161E0,-9.3876295E0,4.319791E0,7.579922E-1,-2.446076E0,7.6533327E0,-2.0270402E0],"categories":[],"categories_nodes":[],"categories_segments":[],"categories_sizes":[],"default_left":[0,0,0,0,0,0,0,0,0,0,0,0,0,0,0],"id":26,"left_children":[1,3,5,7,9,11,13,-1,-1,-1,-1,-1,-1,-1,-1],"loss_changes":[4.3317238E5,2.341224E5,3.6508597E5,1.3764122E5,7.719806E4,2.745731E5,1.830075E5,0E0,0E0,0E0,0E0,0E0,0E0,0E0,0E0],"parents":[2147483647,0,0,1,1,2,2,3,3,4,4,5,5,6,6],"right_children":[2,4,6,8,10,12,14,-1,-1,-1,-1,-1,-1,-1,-1],"split_conditions":[-1.874826E0,-5.563845E0,4.8756313E0,5.198211E0,1.6791649E0,1.9378388E-1,1.3675106E0,-4.7148785E1,1.2790161E0,-9.3876295E0,4.319791E0,7.579922E-1,-2.446076E0,7.6533327E0,-2.0270402E0],"split_indices":[3,1,0,0,1,4,4,0,0,0,0,0,0,0,0],"split_type":[0,0,0,0,0,0,0,0,0,0,0,0,0,0,0],"sum_hessian":[5.469E3,1.71E2,5.298E3,1.2E1,1.59E2,4.836E3,4.62E2,9E0,3E0,1.41E2,1.8E1,3.24E3,1.596E3,3.63E2,9.9E1],"tree_param":{"num_deleted":"0","num_feature":"10","num_nodes":"15","size_leaf_vector":"1"}},{"base_weights":[-3.3306858E-1,6.9548714E-1,-7.9454735E1,-4.1970587E0,1.4853035E1,2.6233196E0,-1.03379684E2,-6.705935E-1,-1.7371359E1,-4.276553E0,3.8351235E0,-8.610059E0,3.0971086E0,-2.4491924E1,8.989676E0],"categories":[],"categories_nodes":[],"categories_segments":[],"categories_sizes":[],"default_left":[0,0,0,0,0,0,0,0,0,0,0,0,0,0,0],"id":27,"left_children":[1,3,5,7,9,11,13,-1,-1,-1,-1,-1,-1,-1,-1],"loss_changes":[4.502552E5,3.7839572E5,1.3969484E5,2.8298447E5,2.20165E5,1.065355E4,1.6115931E5,0E0,0E0,0E0,0E0,0E0,0E0,0E0,0E0],"parents":[2147483647,0,0,1,1,2,2,3,3,4,4,5,5,6,6],"right_children":[2,4,6,8,10,12,14,-1,-1,-1,-1,-1,-1,-1,-1],"split_conditions":[2.9496605E0,4.942856E-1,-1.2684616E-1,4.0047655E0,-4.419083E0,-8.6775756E-1,8.417553E0,-6.705935E-1,-1.7371359E1,-4.276553E0,3.8351235E0,-8.610059E0,3.0971086E0,-2.4491924E1,8.989676E0],"split_indices":[4,3,9,2,0,5,0,0,0,0,0,0,0,0,0],"split_type":[0,0,0,0,0,0,0,0,0,0,0,0,0,0,0],"sum_hessian":[5.531E3,5.461E3,7E1,4.059E3,1.402E3,1.6E1,5.4E1,4.019E3,4E1,1.49E2,1.253E3,3E0,1.3E1,4.8E1,6E0],"tree_param":{"num_deleted":"0","num_feature":"10","num_nodes":"15","size_leaf_vector":"1"}},{"base_weights":[-7.5257576E-1,7.611796E0,-8.153449E0,5.2935605E0,4.5039192E1,-2.1002784E0,-2.4163652E1,-2.107498E1,1.2329878E0,-1.9596909E0,1.024097E1,1.5335399E0,-1.737084E0,-7.297977E0,3.2582453E-1],"categories":[],"categories_nodes":[],"categories_segments":[],"categories_sizes":[],"default_left":[0,0,0,0,0,0,0,0,0,0,0,0,0,0,0],"id":28,"left_children":[1,3,5,7,9,11,13,-1,-1,-1,-1,-1,-1,-1,-1],"loss_changes":[3.3941788E5,2.2309605E5,2.818677E5,2.3450231E5,5.121822E4,1.3591786E5,2.5376575E5,0E0,0E0,0E0,0E0,0E0,0E0,0E0,0E0],"parents":[2147483647,0,0,1,1,2,2,3,3,4,4,5,5,6,6],"right_children":[2,4,6,8,10,12,14,-1,-1,-1,-1,-1,-1,-1,-1],"split_conditions":[-3.8676525E-3,1.9952757E0,3.7897375E-1,-5.563845E0,-3.261405E0,-5.989096E-1,1.4414898E0,-2.107498E1,1.2329878E0,-1.9596909E0,1.024097E1,1.5335399E0,-1.737084E0,-7.297977E0,3.2582453E-1],"split_indices":[9,3,4,1,0,2,1,0,0,0,0,0,0,0,0],"split_type":[0,0,0,0,0,0,0,0,0,0,0,0,0,0,0],"sum_hessian":[5.481E3,2.573E3,2.908E3,2.424E3,1.49E2,2.111E3,7.97E2,1.8E1,2.406E3,1.5E1,1.34E2,8.5E2,1.261E3,5.39E2,2.58E2],"tree_param":{"num_deleted":"0","num_feature":"10","num_nodes":"15","size_leaf_vector":"1"}},{"base_weights":[-1.6889686E-2,-6.6290313E-1,7.310411E1,4.7084136E0,-9.453193E0,6.510962E0,8.830481E1,-8.2986206E-1,2.1930263E0,-1.3020066E0,-1.0212806E1,9.020655E0,-8.220401E0,-5.971167E0,1.9796173E1],"categories":[],"categories_nodes":[],"categories_segments":[],"categories_sizes":[],"default_left":[0,0,0,0,0,0,0,0,0,0,0,0,0,0,0],"id":29,"left_children":[1,3,5,7,9,11,13,-1,-1,-1,-1,-1,-1,-1,-1],"loss_changes":[2.5890805E5,2.5656595E5,4.8013656E4,1.869781E5,2.5207283E5,2.0228777E4,5.215325E4,0E0,0E0,0E0,0E0,0E0,0E0,0E0,0E0],"parents":[2147483647,0,0,1,1,2,2,3,3,4,4,5,5,6,6],"right_children":[2,4,6,8,10,12,14,-1,-1,-1,-1,-1,-1,-1,-1],"split_conditions":[8.417553E0,1.3147759E-2,-1.365699E0,-3.0877445E0,1.6631471E0,1.1628902E0,-2.1088645E0,-8.2986206E-1,2.1930263E0,-1.3020066E0,-1.0212806E1,9.020655E0,-8.220401E0,-5.971167E0,1.9796173E1],"split_indices":[0,9,3,0,4,5,2,0,0,0,0,0,0,0,0],"split_type":[0,0,0,0,0,0,0,0,0,0,0,0,0,0,0],"sum_hessian":[5.479E3,5.432E3,4.7E1,3.372E3,2.06E3,9E0,3.8E1,1.396E3,1.976E3,1.925E3,1.35E2,5E0,4E0,3E0,3.5E1],"tree_param":{"num_deleted":"0","num_feature":"10","num_nodes":"15","size_leaf_vector":"1"}},{"base_weights":[-7.4216783E-1,-2.595896E1,1.4513847E0,-1.4743287E1,-5.5200447E1,1.8632272E0,-1.0912887E2,-1.206501E0,-1.0411584E1,-1.2589968E1,4.345447E0,1.0104572E-1,7.0584044E0,-2.8986288E1,-8.356781E0],"categories":[],"categories_nodes":[],"categories_segments":[],"categories_sizes":[],"default_left":[0,0,0,0,0,0,0,0,0,0,0,0,0,0,0],"id":30,"left_children":[1,3,5,7,9,11,13,-1,-1,-1,-1,-1,-1,-1,-1],"loss_changes":[3.0758547E5,1.4512969E5,2.3319444E5,1.04673766E5,7.469328E4,2.3141227E5,3.9755547E4,0E0,0E0,0E0,0E0,0E0,0E0,0E0,0E0],"parents":[2147483647,0,0,1,1,2,2,3,3,4,4,5,5,6,6],"right_children":[2,4,6,8,10,12,14,-1,-1,-1,-1,-1,-1,-1,-1],"split_conditions":[-1.3351392E0,1.0076989E0,4.0203094E0,1.4834913E0,1.8887535E0,2.3283179E0,7.745791E-2,-1.206501E0,-1.0411584E1,-1.2589968E1,4.345447E0,1.0104572E-1,7.0584044E0,-2.8986288E1,-8.356781E0],"split_indices":[3,2,4,4,1,3,2,0,0,0,0,0,0,0,0],"split_type":[0,0,0,0,0,0,0,0,0,0,0,0,0,0,0],"sum_hessian":[5.559E3,4.44E2,5.115E3,3.22E2,1.22E2,5.097E3,1.8E1,2.62E2,6E1,1.11E2,1.1E1,4.899E3,1.98E2,1.1E1,7E0],"tree_param":{"num_deleted":"0","num_feature":"10","num_nodes":"15","size_leaf_vector":"1"}},{"base_weights":[-2.3310436E-1,2.3315397E1,-2.1615791E0,5.211086E0,3.0284473E1,-9.280151E0,4.275243E0,-8.197994E0,2.823052E0,1.9626942E1,5.663021E0,1.7650013E0,-3.0944583E0,6.991522E-1,1.5423096E1],"categories":[],"categories_nodes":[],"categories_segments":[],"categories_sizes":[],"default_left":[0,0,0,0,0,0,0,0,0,0,0,0,0,0,0],"id":31,"left_children":[1,3,5,7,9,11,13,-1,-1,-1,-1,-1,-1,-1,-1],"loss_changes":[2.4777662E5,5.195053E4,2.3111488E5,4.8298926E4,3.7040688E4,2.6863922E5,1.5013444E5,0E0,0E0,0E0,0E0,0E0,0E0,0E0,0E0],"parents":[2147483647,0,0,1,1,2,2,3,3,4,4,5,5,6,6],"right_children":[2,4,6,8,10,12,14,-1,-1,-1,-1,-1,-1,-1,-1],"split_conditions":[-1.0520978E0,9.192199E-2,2.4210104E-1,-6.394326E-1,-1.8919795E0,-1.0952531E0,8.417553E0,-8.197994E0,2.823052E0,1.9626942E1,5.663021E0,1.7650013E0,-3.0944583E0,6.991522E-1,1.5423096E1],"split_indices":[4,0,1,3,2,2,0,0,0,0,0,0,0,0,0],"split_type":[0,0,0,0,0,0,0,0,0,0,0,0,0,0,0],"sum_hessian":[5.454E3,4.12E2,5.042E3,1.15E2,2.97E2,2.394E3,2.648E3,1.8E1,9.7E1,7E0,2.9E2,6.1E2,1.784E3,2.621E3,2.7E1],"tree_param":{"num_deleted":"0","num_feature":"10","num_nodes":"15","size_leaf_vector":"1"}},{"base_weights":[-1.1825155E-1,-3.453749E1,1.0544877E0,-1.0612842E2,-2.8329044E1,-2.7576164E1,2.262753E0,-3.5259853E1,-9.511161E0,-3.3880188E0,-1.1583735E1,-1.1213913E1,-4.0998583E0,8.6944574E-1,-2.7266898E0],"categories":[],"categories_nodes":[],"categories_segments":[],"categories_sizes":[],"default_left":[0,0,0,0,0,0,0,0,0,0,0,0,0,0,0],"id":32,"left_children":[1,3,5,7,9,11,13,-1,-1,-1,-1,-1,-1,-1,-1],"loss_changes":[2.2050892E5,7.69978E4,1.8281945E5,4.915722E4,5.5297E4,4.2002453E4,1.6805494E5,0E0,0E0,0E0,0E0,0E0,0E0,0E0,0E0],"parents":[2147483647,0,0,1,1,2,2,3,3,4,4,5,5,6,6],"right_children":[2,4,6,8,10,12,14,-1,-1,-1,-1,-1,-1,-1,-1],"split_conditions":[-1.7936158E0,-5.0332007E0,-5.8894777E0,-3.2200537E0,9.107838E-1,-6.263887E0,7.348293E-2,-3.5259853E1,-9.511161E0,-3.3880188E0,-1.1583735E1,-1.1213913E1,-4.0998583E0,8.6944574E-1,-2.7266898E0],"split_indices":[3,1,0,3,4,0,9,0,0,0,0,0,0,0,0],"split_type":[0,0,0,0,0,0,0,0,0,0,0,0,0,0,0],"sum_hessian":[5.461E3,1.79E2,5.282E3,1.3E1,1.66E2,2.13E2,5.069E3,5E0,8E0,1.21E2,4.5E1,4.1E1,1.72E2,4.482E3,5.87E2],"tree_param":{"num_deleted":"0","num_feature":"10","num_nodes":"15","size_leaf_vector":"1"}},{"base_weights":[8.412611E-3,-3.5514992E-1,8.3263885E1,3.7266666E-1,-4.3588352E1,2.804838E1,9.6318054E1,-4.5475945E-1,2.7285683E0,-1.1688169E1,3.154122E0,7.8714843E0,7.2403973E-1,2.172299E1,1.0314453E1],"categories":[],"categories_nodes":[],"categories_segments":[],"categories_sizes":[],"default_left":[0,0,0,0,0,0,0,0,0,0,0,0,0,0,0],"id":33,"left_children":[1,3,5,7,9,11,13,-1,-1,-1,-1,-1,-1,-1,-1],"loss_changes":[1.6708181E5,1.729525E5,1.4597453E4,1.8988455E5,8.114986E4,1.5150742E3,4.852922E3,0E0,0E0,0E0,0E0,0E0,0E0,0E0,0E0],"parents":[2147483647,0,0,1,1,2,2,3,3,4,4,5,5,6,6],"right_children":[2,4,6,8,10,12,14,-1,-1,-1,-1,-1,-1,-1,-1],"split_conditions":[8.817949E0,2.7187932E0,-1.365699E0,8.794364E-1,6.724875E0,-1.8548342E0,1.4546436E0,-4.5475945E-1,2.7285683E0,-1.1688169E1,3.154122E0,7.8714843E0,7.2403973E-1,2.172299E1,1.0314453E1],"split_indices":[0,4,3,3,0,2,5,0,0,0,0,0,0,0,0],"split_type":[0,0,0,0,0,0,0,0,0,0,0,0,0,0,0],"sum_hessian":[5.518E3,5.495E3,2.3E1,5.405E3,9E1,5E0,1.8E1,4.507E3,8.98E2,7.2E1,1.8E1,3E0,2E0,1.3E1,5E0],"tree_param":{"num_deleted":"0","num_feature":"10","num_nodes":"15","size_leaf_vector":"1"}},{"base_weights":[1.9115609E-1,-1.9144818E0,1.5889521E1,4.4808587E-1,-2.1224003E1,-1.4611524E1,2.026509E1,7.167467E-1,-1.9656442E0,2.1334538E0,-5.802594E0,3.0047216E0,-4.7871146E0,3.606345E0,1.4344495E1],"categories":[],"categories_nodes":[],"categories_segments":[],"categories_sizes":[],"default_left":[0,0,0,0,0,0,0,0,0,0,0,0,0,0,0],"id":34,"left_children":[1,3,5,7,9,11,13,-1,-1,-1,-1,-1,-1,-1,-1],"loss_changes":[1.7915584E5,2.1802772E5,8.584364E4,1.3727244E5,1.2972591E5,2.2741477E4,6.317867E4,0E0,0E0,0E0,0E0,0E0,0E0,0E0,0E0],"parents":[2147483647,0,0,1,1,2,2,3,3,4,4,5,5,6,6],"right_children":[2,4,6,8,10,12,14,-1,-1,-1,-1,-1,-1,-1,-1],"split_conditions":[1.6573567E0,9.558546E-1,-2.9884534E0,3.4715384E-1,-1.2761896E0,3.083352E-1,2.4322317E0,7.167467E-1,-1.9656442E0,2.1334538E0,-5.802594E0,3.0047216E0,-4.7871146E0,3.606345E0,1.4344495E1],"split_indices":[1,4,0,2,2,4,3,0,0,0,0,0,0,0,0],"split_type":[0,0,0,0,0,0,0,0,0,0,0,0,0,0,0],"sum_hessian":[5.418E3,4.778E3,6.4E2,4.258E3,5.2E2,8E1,5.6E2,3.263E3,9.95E2,1.02E2,4.18E2,1.9E1,6.1E1,5.38E2,2.2E1],"tree_param":{"num_deleted":"0","num_feature":"10","num_nodes":"15","size_leaf_vector":"1"}},{"base_weights":[1.23472385E-1,1.1895416E1,-2.4515052E0,1.0663979E1,5.094597E1,-1.9282823E0,-7.152176E1,2.2543788E0,-1.7594906E1,4.7474E0,1.69402E1,-9.518412E-1,1.9465866E0,1.4371175E0,-1.9203154E1],"categories":[],"categories_nodes":[],"categories_segments":[],"categories_sizes":[],"default_left":[0,0,0,0,0,0,0,0,0,0,0,0,0,0,0],"id":35,"left_children":[1,3,5,7,9,11,13,-1,-1,-1,-1,-1,-1,-1,-1],"loss_changes":[1.6720255E5,4.706417E4,1.634278E5,5.8616914E4,2.554264E4,1.4836927E5,6.6237125E4,0E0,0E0,0E0,0E0,0E0,0E0,0E0,0E0],"parents":[2147483647,0,0,1,1,2,2,3,3,4,4,5,5,6,6],"right_children":[2,4,6,8,10,12,14,-1,-1,-1,-1,-1,-1,-1,-1],"split_conditions":[-6.536488E-1,9.5526534E-1,4.0047655E0,3.3925738E0,-3.1223172E-1,1.3309901E0,-1.5597987E0,2.2543788E0,-1.7594906E1,4.7474E0,1.69402E1,-9.518412E-1,1.9465866E0,1.4371175E0,-1.9203154E1],"split_indices":[4,6,2,5,0,1,5,0,0,0,0,0,0,0,0],"split_type":[0,0,0,0,0,0,0,0,0,0,0,0,0,0,0],"sum_hessian":[5.514E3,9.89E2,4.525E3,9.6E2,2.9E1,4.492E3,3.3E1,9.55E2,5E0,1.7E1,1.2E1,3.615E3,8.77E2,8E0,2.5E1],"tree_param":{"num_deleted":"0","num_feature":"10","num_nodes":"15","size_leaf_vector":"1"}},{"base_weights":[-7.568358E-1,-1.2071901E1,1.5546093E0,-6.584107E0,-3.425572E1,7.8165406E-1,3.5927845E1,-8.2929957E-1,-7.8074145E0,-7.9675255E0,2.70156E0,4.5709258E-1,-3.5746732E0,-2.7356472E0,9.250585E0],"categories":[],"categories_nodes":[],"categories_segments":[],"categories_sizes":[],"default_left":[0,0,0,0,0,0,0,0,0,0,0,0,0,0,0],"id":36,"left_children":[1,3,5,7,9,11,13,-1,-1,-1,-1,-1,-1,-1,-1],"loss_changes":[1.432389E5,1.1287116E5,1.2080761E5,5.8852438E4,4.959461E4,1.24851234E5,5.185133E4,0E0,0E0,0E0,0E0,0E0,0E0,0E0,0E0],"parents":[2147483647,0,0,1,1,2,2,3,3,4,4,5,5,6,6],"right_children":[2,4,6,8,10,12,14,-1,-1,-1,-1,-1,-1,-1,-1],"split_conditions":[-8.734052E-1,1.0076989E0,2.796634E0,1.9912572E0,5.5032387E0,9.380294E-2,-1.6348063E0,-8.2929957E-1,-7.8074145E0,-7.9675255E0,2.70156E0,4.5709258E-1,-3.5746732E0,-2.7356472E0,9.250585E0],"split_indices":[3,2,3,4,0,9,0,0,0,0,0,0,0,0,0],"split_type":[0,0,0,0,0,0,0,0,0,0,0,0,0,0,0],"sum_hessian":[5.475E3,9.28E2,4.547E3,7.45E2,1.83E2,4.448E3,9.9E1,6.94E2,5.1E1,1.64E2,1.9E1,4.117E3,3.31E2,1.7E1,8.2E1],"tree_param":{"num_deleted":"0","num_feature":"10","num_nodes":"15","size_leaf_vector":"1"}},{"base_weights":[-1.2902628E-1,7.6686554E0,-3.077681E0,-2.0304062E0,1.6608133E1,-3.6949846E-1,-1.2581798E1,-5.3433776E0,5.3521395E-3,-2.8422089E1,3.4789464E0,6.744694E-1,-1.9014231E0,-3.0748847E0,4.2722273E0],"categories":[],"categories_nodes":[],"categories_segments":[],"categories_sizes":[],"default_left":[0,0,0,0,0,0,0,0,0,0,0,0,0,0,0],"id":37,"left_children":[1,3,5,7,9,11,13,-1,-1,-1,-1,-1,-1,-1,-1],"loss_changes":[1.2703512E5,1.3147781E5,1.0318253E5,3.6971617E4,1.0097686E5,1.0674388E5,8.4596625E4,0E0,0E0,0E0,0E0,0E0,0E0,0E0,0E0],"parents":[2147483647,0,0,1,1,2,2,3,3,4,4,5,5,6,6],"right_children":[2,4,6,8,10,12,14,-1,-1,-1,-1,-1,-1,-1,-1],"split_conditions":[-2.877585E-2,6.2179714E-2,4.5831603E-1,-1.6995186E0,-2.3600817E0,1.2016578E-1,2.8377805E0,-5.3433776E0,5.3521395E-3,-2.8422089E1,3.4789464E0,6.744694E-1,-1.9014231E0,-3.0748847E0,4.2722273E0],"split_indices":[9,6,4,3,4,2,1,0,0,0,0,0,0,0,0],"split_type":[0,0,0,0,0,0,0,0,0,0,0,0,0,0,0],"sum_hessian":[5.523E3,1.515E3,4.008E3,7.27E2,7.88E2,3.12E3,8.88E2,5.5E1,6.72E2,3E0,7.85E2,2.214E3,9.06E2,8.21E2,6.7E1],"tree_param":{"num_deleted":"0","num_feature":"10","num_nodes":"15","size_leaf_vector":"1"}},{"base_weights":[-1.64707E-1,-7.0667905E-1,4.4509422E1,-1.9651696E-1,-4.888222E1,1.265056E1,6.015134E1,-2.7850863E-1,3.2898004E0,-5.1866717E0,-1.8683006E1,-1.5356104E1,5.9808497E0,1.3131866E1,-2.268689E0],"categories":[],"categories_nodes":[],"categories_segments":[],"categories_sizes":[],"default_left":[0,0,0,0,0,0,0,0,0,0,0,0,0,0,0],"id":38,"left_children":[1,3,5,7,9,11,13,-1,-1,-1,-1,-1,-1,-1,-1],"loss_changes":[1.3331922E5,1.336911E5,3.212907E4,1.0721015E5,5.5830156E4,3.778543E4,1.8071688E4,0E0,0E0,0E0,0E0,0E0,0E0,0E0,0E0],"parents":[2147483647,0,0,1,1,2,2,3,3,4,4,5,5,6,6],"right_children":[2,4,6,8,10,12,14,-1,-1,-1,-1,-1,-1,-1,-1],"split_conditions":[8.0785055E0,2.9496605E0,-8.006759E-1,1.7542577E0,3.5372698E-1,-4.3303143E-2,1.0096474E0,-2.7850863E-1,3.2898004E0,-5.1866717E0,-1.8683006E1,-1.5356104E1,5.9808497E0,1.3131866E1,-2.268689E0],"split_indices":[0,4,3,3,8,7,8,0,0,0,0,0,0,0,0],"split_type":[0,0,0,0,0,0,0,0,0,0,0,0,0,0,0],"sum_hessian":[5.504E3,5.439E3,6.5E1,5.383E3,5.6E1,2.2E1,4.3E1,5.023E3,3.6E2,3.8E1,1.8E1,3E0,1.9E1,4E1,3E0],"tree_param":{"num_deleted":"0","num_feature":"10","num_nodes":"15","size_leaf_vector":"1"}},{"base_weights":[-3.593686E-1,8.4458885E0,-2.8220885E0,4.7475457E0,2.5248453E1,-1.7523578E0,-3.2285664E1,1.8058671E0,-2.030414E0,4.411531E0,1.7563185E1,-1.164216E0,9.629E-1,-3.8532207E0,-1.747914E1],"categories":[],"categories_nodes":[],"categories_segments":[],"categories_sizes":[],"default_left":[0,0,0,0,0,0,0,0,0,0,0,0,0,0,0],"id":39,"left_children":[1,3,5,7,9,11,13,-1,-1,-1,-1,-1,-1,-1,-1],"loss_changes":[1.17273984E5,7.3331555E4,1.3313886E5,6.197477E4,4.0586375E4,1.0901369E5,1.0450747E5,0E0,0E0,0E0,0E0,0E0,0E0,0E0,0E0],"parents":[2147483647,0,0,1,1,2,2,3,3,4,4,5,5,6,6],"right_children":[2,4,6,8,10,12,14,-1,-1,-1,-1,-1,-1,-1,-1],"split_conditions":[-9.563024E-1,5.198211E0,1.3710412E-1,4.6948743E-1,2.1404443E0,7.607722E-1,9.074732E-1,1.8058671E0,-2.030414E0,4.411531E0,1.7563185E1,-1.164216E0,9.629E-1,-3.8532207E0,-1.747914E1],"split_indices":[2,0,9,4,3,1,6,0,0,0,0,0,0,0,0],"split_type":[0,0,0,0,0,0,0,0,0,0,0,0,0,0,0],"sum_hessian":[5.406E3,1.181E3,4.225E3,9.69E2,2.12E2,4.078E3,1.47E2,7.53E2,2.16E2,2.03E2,9E0,2.518E3,1.56E3,1.2E2,2.7E1],"tree_param":{"num_deleted":"0","num_feature":"10","num_nodes":"15","size_leaf_vector":"1"}},{"base_weights":[7.956419E-1,1.2954713E1,-1.0607746E0,1.3793575E1,-8.986794E1,-1.669328E0,3.235055E1,7.641206E0,2.3513641E0,-2.447563E1,7.2683105E0,1.0975407E0,-9.4048434E-1,8.374676E0,-1.0843642E0],"categories":[],"categories_nodes":[],"categories_segments":[],"categories_sizes":[],"default_left":[0,0,0,0,0,0,0,0,0,0,0,0,0,0,0],"id":40,"left_children":[1,3,5,7,9,11,13,-1,-1,-1,-1,-1,-1,-1,-1],"loss_changes":[1.2355193E5,6.377382E4,9.661342E4,3.535078E4,2.9065988E4,1.01293375E5,3.0801508E4,0E0,0E0,0E0,0E0,0E0,0E0,0E0,0E0],"parents":[2147483647,0,0,1,1,2,2,3,3,4,4,5,5,6,6],"right_children":[2,4,6,8,10,12,14,-1,-1,-1,-1,-1,-1,-1,-1],"split_conditions":[-8.146257E-1,3.3925738E0,3.0252495E0,-1.4468193E0,3.9570806E0,-8.280324E-1,2.1739588E0,7.641206E0,2.3513641E0,-2.447563E1,7.2683105E0,1.0975407E0,-9.4048434E-1,8.374676E0,-1.0843642E0],"split_indices":[4,5,1,2,0,2,2,0,0,0,0,0,0,0,0],"split_type":[0,0,0,0,0,0,0,0,0,0,0,0,0,0,0],"sum_hessian":[5.472E3,7.24E2,4.748E3,7.19E2,5E0,4.664E3,8.4E1,5.4E1,6.65E2,4E0,1E0,1.388E3,3.276E3,6.7E1,1.7E1],"tree_param":{"num_deleted":"0","num_feature":"10","num_nodes":"15","size_leaf_vector":"1"}},{"base_weights":[7.470445E-1,1.5012284E1,-2.784155E-1,1.6290977E1,-4.542683E1,1.5516975E1,-1.24736E0,2.79706E0,9.1985855E0,-5.073611E-1,5.7094483E0,-3.29331E-1,7.2324142E0],"categories":[],"categories_nodes":[],"categories_segments":[],"categories_sizes":[],"default_left":[0,0,0,0,0,0,0,0,0,0,0,0,0],"id":41,"left_children":[1,3,5,7,-1,9,11,-1,-1,-1,-1,-1,-1],"loss_changes":[8.027038E4,1.17644484E5,7.838023E4,2.4490086E4,0E0,6.97051E4,7.21325E4,0E0,0E0,0E0,0E0,0E0,0E0],"parents":[2147483647,0,0,1,1,2,2,3,3,5,5,6,6],"right_children":[2,4,6,8,-1,10,12,-1,-1,-1,-1,-1,-1],"split_conditions":[-1.0973907E0,1.003744E0,-1.1507131E-1,1.0755261E0,-4.542683E1,-3.9138786E-2,8.0785055E0,2.79706E0,9.1985855E0,-5.073611E-1,5.7094483E0,-3.29331E-1,7.2324142E0],"split_indices":[4,7,9,1,0,6,0,0,0,0,0,0,0],"split_type":[0,0,0,0,0,0,0,0,0,0,0,0,0],"sum_hessian":[5.486E3,3.67E2,5.119E3,3.66E2,1E0,2.95E2,4.824E3,3.41E2,2.5E1,1.24E2,1.71E2,4.774E3,5E1],"tree_param":{"num_deleted":"0","num_feature":"10","num_nodes":"13","size_leaf_vector":"1"}},{"base_weights":[4.8698342E-1,-1.779895E1,1.2375498E0,-5.6187325E1,-1.3770404E1,4.0980446E1,8.9907306E-1,-1.3783861E1,-4.539321E0,-4.979837E0,-2.2013414E0,9.879988E0,-1.8110516E1,-5.072269E-2,2.2024505E0],"categories":[],"categories_nodes":[],"categories_segments":[],"categories_sizes":[],"default_left":[0,0,0,0,0,0,0,0,0,0,0,0,0,0,0],"id":42,"left_children":[1,3,5,7,9,11,13,-1,-1,-1,-1,-1,-1,-1,-1],"loss_changes":[7.4492836E4,3.2321242E4,7.008869E4,6.963836E3,5.7234727E3,5.3200695E4,6.0271164E4,0E0,0E0,0E0,0E0,0E0,0E0,0E0,0E0],"parents":[2147483647,0,0,1,1,2,2,3,3,4,4,5,5,6,6],"right_children":[2,4,6,8,10,12,14,-1,-1,-1,-1,-1,-1,-1,-1],"split_conditions":[-5.8894777E0,-6.3967285E0,-2.1088645E0,1.2016578E-1,-1.515291E-1,3.9669296E-1,1.3565061E0,-1.3783861E1,-4.539321E0,-4.979837E0,-2.2013414E0,9.879988E0,-1.8110516E1,-5.072269E-2,2.2024505E0],"split_indices":[0,0,2,2,8,6,3,0,0,0,0,0,0,0,0],"split_type":[0,0,0,0,0,0,0,0,0,0,0,0,0,0,0],"sum_hessian":[5.425E3,2.13E2,5.212E3,1.9E1,1.94E2,4.3E1,5.169E3,1.3E1,6E0,3.7E1,1.57E2,4.1E1,2E0,4.641E3,5.28E2],"tree_param":{"num_deleted":"0","num_feature":"10","num_nodes":"15","size_leaf_vector":"1"}},{"base_weights":[1.1391834E-1,4.684764E-1,-4.6802944E1,9.258019E0,-1.1054159E0,-3.17676E1,-1.2921454E2,1.0870092E0,5.745818E0,8.6206514E-1,-8.210918E-1,1.7445883E-1,-9.232809E0,-3.289611E1,4.711548E0],"categories":[],"categories_nodes":[],"categories_segments":[],"categories_sizes":[],"default_left":[0,0,0,0,0,0,0,0,0,0,0,0,0,0,0],"id":43,"left_children":[1,3,5,7,9,11,13,-1,-1,-1,-1,-1,-1,-1,-1],"loss_changes":[9.093085E4,7.505858E4,4.6697727E4,6.1180266E4,7.4788484E4,1.695661E4,3.620079E4,0E0,0E0,0E0,0E0,0E0,0E0,0E0,0E0],"parents":[2147483647,0,0,1,1,2,2,3,3,4,4,5,5,6,6],"right_children":[2,4,6,8,10,12,14,-1,-1,-1,-1,-1,-1,-1,-1],"split_conditions":[2.2962242E-1,-7.497307E-1,1.5975194E0,3.815195E-1,-1.7470136E-2,3.4220976E-1,4.0203094E0,1.0870092E0,5.745818E0,8.6206514E-1,-8.210918E-1,1.7445883E-1,-9.232809E0,-3.289611E1,4.711548E0],"split_indices":[9,4,2,6,9,3,4,0,0,0,0,0,0,0,0],"split_type":[0,0,0,0,0,0,0,0,0,0,0,0,0,0,0],"sum_hessian":[5.464E3,5.424E3,4E1,8.23E2,4.601E3,3.5E1,5E0,6.89E2,1.34E2,1.64E3,2.961E3,1.1E1,2.4E1,4E0,1E0],"tree_param":{"num_deleted":"0","num_feature":"10","num_nodes":"15","size_leaf_vector":"1"}},{"base_weights":[-2.839421E-1,3.564942E1,-5.9880745E-1,5.1706577E1,1.8808575E1,5.4779306E-2,-1.8397537E1,1.2145479E1,-1.7158692E0,2.6071015E-1,8.987151E0,-1.3791351E-1,3.3433416E0,5.5131683E0,-4.6509924E0],"categories":[],"categories_nodes":[],"categories_segments":[],"categories_sizes":[],"default_left":[0,0,0,0,0,0,0,0,0,0,0,0,0,0,0],"id":44,"left_children":[1,3,5,7,9,11,13,-1,-1,-1,-1,-1,-1,-1,-1],"loss_changes":[6.252083E4,1.2007449E4,6.371503E4,1.3572875E4,1.1375347E4,6.554503E4,4.3954188E4,0E0,0E0,0E0,0E0,0E0,0E0,0E0,0E0],"parents":[2147483647,0,0,1,1,2,2,3,3,4,4,5,5,6,6],"right_children":[2,4,6,8,10,12,14,-1,-1,-1,-1,-1,-1,-1,-1],"split_conditions":[-1.8852534E0,-1.7830095E-1,2.3508143E0,7.1611094E-1,-6.7799777E-1,2.2981157E0,-1.6308701E0,1.2145479E1,-1.7158692E0,2.6071015E-1,8.987151E0,-1.3791351E-1,3.3433416E0,5.5131683E0,-4.6509924E0],"split_indices":[4,5,2,8,1,1,5,0,0,0,0,0,0,0,0],"split_type":[0,0,0,0,0,0,0,0,0,0,0,0,0,0,0],"sum_hessian":[5.523E3,4.7E1,5.476E3,2.3E1,2.4E1,5.283E3,1.93E2,2E1,3E0,1.5E1,9E0,5.058E3,2.25E2,1.8E1,1.75E2],"tree_param":{"num_deleted":"0","num_feature":"10","num_nodes":"15","size_leaf_vector":"1"}},{"base_weights":[-9.642457E-2,-2.1236138E0,6.0897083E0,-2.1941152E-1,-1.4859105E1,-9.292095E0,9.250746E0,3.4695187E0,-3.235952E-1,-4.234429E0,-7.046353E-1,-1.696858E1,-1.5863708E0,-5.474858E-1,2.7404487E0],"categories":[],"categories_nodes":[],"categories_segments":[],"categories_sizes":[],"default_left":[0,0,0,0,0,0,0,0,0,0,0,0,0,0,0],"id":45,"left_children":[1,3,5,7,9,11,13,-1,-1,-1,-1,-1,-1,-1,-1],"loss_changes":[6.8998016E4,1.0049269E5,6.611524E4,8.862239E4,3.8498492E4,2.316906E4,6.0180242E4,0E0,0E0,0E0,0E0,0E0,0E0,0E0,0E0],"parents":[2147483647,0,0,1,1,2,2,3,3,4,4,5,5,6,6],"right_children":[2,4,6,8,10,12,14,-1,-1,-1,-1,-1,-1,-1,-1],"split_conditions":[1.0428338E0,8.653428E-1,-5.576198E-1,-1.5757627E0,-5.9365183E-3,-2.1188776E0,-3.0420558E0,3.4695187E0,-3.235952E-1,-4.234429E0,-7.046353E-1,-1.696858E1,-1.5863708E0,-5.474858E-1,2.7404487E0],"split_indices":[1,5,5,2,1,3,0,0,0,0,0,0,0,0,0],"split_type":[0,0,0,0,0,0,0,0,0,0,0,0,0,0,0],"sum_hessian":[5.5E3,4.143E3,1.357E3,3.605E3,5.38E2,2.31E2,1.126E3,2.65E2,3.34E3,3.45E2,1.93E2,3E0,2.28E2,3.05E2,8.21E2],"tree_param":{"num_deleted":"0","num_feature":"10","num_nodes":"15","size_leaf_vector":"1"}},{"base_weights":[1.7528401E-1,-4.258235E1,5.118646E-1,-4.2635864E1,-3.344482E1,4.2826676E0,-2.2447114E0,-3.1684692E1,-5.306515E0,5.9539145E-1,3.8138902E0,-5.163606E-1,9.640227E0],"categories":[],"categories_nodes":[],"categories_segments":[],"categories_sizes":[],"default_left":[0,0,0,0,0,0,0,0,0,0,0,0,0],"id":46,"left_children":[1,3,5,-1,7,9,11,-1,-1,-1,-1,-1,-1],"loss_changes":[7.9232E4,5.9900164E4,5.67844E4,0E0,3.2079715E4,4.4485055E4,5.379177E4,0E0,0E0,0E0,0E0,0E0,0E0],"parents":[2147483647,0,0,1,1,2,2,4,4,5,5,6,6],"right_children":[2,4,6,-1,8,10,12,-1,-1,-1,-1,-1,-1],"split_conditions":[-2.6194913E0,-2.3600817E0,-2.0253046E-1,-4.2635864E1,-1.7527077E0,1.4414898E0,8.817949E0,-3.1684692E1,-5.306515E0,5.9539145E-1,3.8138902E0,-5.163606E-1,9.640227E0],"split_indices":[3,4,4,0,2,1,0,0,0,0,0,0,0],"split_type":[0,0,0,0,0,0,0,0,0,0,0,0,0],"sum_hessian":[5.503E3,4.2E1,5.461E3,1E0,4.1E1,2.306E3,3.155E3,1E0,4E1,2.12E3,1.86E2,3.135E3,2E1],"tree_param":{"num_deleted":"0","num_feature":"10","num_nodes":"13","size_leaf_vector":"1"}},{"base_weights":[-3.8188297E-1,1.8131235E-1,-2.059054E1,-3.712291E-1,2.5953568E1,-3.0632067E1,3.9225254E1,4.3683988E-1,-9.76044E-1,4.42523E0,2.4943823E1,-2.0193331E0,-8.616758E0,1.0968216E1,-2.311426E0],"categories":[],"categories_nodes":[],"categories_segments":[],"categories_sizes":[],"default_left":[0,0,0,0,0,0,0,0,0,0,0,0,0,0,0],"id":47,"left_children":[1,3,5,7,9,11,13,-1,-1,-1,-1,-1,-1,-1,-1],"loss_changes":[6.296575E4,7.6664836E4,9.129783E4,6.074525E4,3.995635E4,3.255043E4,1.8079996E4,0E0,0E0,0E0,0E0,0E0,0E0,0E0,0E0],"parents":[2147483647,0,0,1,1,2,2,3,3,4,4,5,5,6,6],"right_children":[2,4,6,8,10,12,14,-1,-1,-1,-1,-1,-1,-1,-1],"split_conditions":[2.2324164E0,2.6825962E0,7.2854276E0,1.4384315E-2,1.3130319E0,-2.6023877E-1,1.8223948E0,4.3683988E-1,-9.76044E-1,4.42523E0,2.4943823E1,-2.0193331E0,-8.616758E0,1.0968216E1,-2.311426E0],"split_indices":[4,3,0,9,6,3,5,0,0,0,0,0,0,0,0],"split_type":[0,0,0,0,0,0,0,0,0,0,0,0,0,0,0],"sum_hessian":[5.531E3,5.382E3,1.49E2,5.27E3,1.12E2,1.28E2,2.1E1,3.364E3,1.906E3,1.09E2,3E0,4.9E1,7.9E1,1.6E1,5E0],"tree_param":{"num_deleted":"0","num_feature":"10","num_nodes":"15","size_leaf_vector":"1"}},{"base_weights":[-3.6184907E-1,-7.316696E0,1.0400872E0,-3.5532513E0,-1.7328587E1,5.0009613E0,-1.5369148E0,-3.1539464E-1,-6.2372203E0,-4.9764457E0,-2.546077E-1,1.1984153E0,-3.6092763E0,-1.7197809E0,3.0701932E-1],"categories":[],"categories_nodes":[],"categories_segments":[],"categories_sizes":[],"default_left":[0,0,0,0,0,0,0,0,0,0,0,0,0,0,0],"id":48,"left_children":[1,3,5,7,9,11,13,-1,-1,-1,-1,-1,-1,-1,-1],"loss_changes":[5.3877754E4,3.486704E4,4.6950504E4,3.68127E4,3.0651625E4,4.1521723E4,6.047581E4,0E0,0E0,0E0,0E0,0E0,0E0,0E0,0E0],"parents":[2147483647,0,0,1,1,2,2,3,3,4,4,5,5,6,6],"right_children":[2,4,6,8,10,12,14,-1,-1,-1,-1,-1,-1,-1,-1],"split_conditions":[-8.734052E-1,4.405727E-1,-9.902938E-2,3.9395648E-1,3.4432688E0,6.4667845E0,1.2764825E-1,-3.1539464E-1,-6.2372203E0,-4.9764457E0,-2.546077E-1,1.1984153E0,-3.6092763E0,-1.7197809E0,3.0701932E-1],"split_indices":[3,2,7,8,0,0,1,0,0,0,0,0,0,0,0],"split_type":[0,0,0,0,0,0,0,0,0,0,0,0,0,0,0],"sum_hessian":[5.524E3,9.26E2,4.598E3,6.74E2,2.52E2,1.812E3,2.786E3,6.3E2,4.4E1,1.71E2,8.1E1,1.738E3,7.4E1,8.44E2,1.942E3],"tree_param":{"num_deleted":"0","num_feature":"10","num_nodes":"15","size_leaf_vector":"1"}},{"base_weights":[-1.4934978E-2,-3.3029335E1,2.6300743E-1,-3.700944E1,7.009412E0,-1.9042367E0,5.4475484E0,-1.02397995E1,-4.6123176E0,5.4655643E0,-3.1290934E0,-2.7712458E-1,-4.312179E0,2.1045177E0,-8.1440195E-2],"categories":[],"categories_nodes":[],"categories_segments":[],"categories_sizes":[],"default_left":[0,0,0,0,0,0,0,0,0,0,0,0,0,0,0],"id":49,"left_children":[1,3,5,7,9,11,13,-1,-1,-1,-1,-1,-1,-1,-1],"loss_changes":[5.0559832E4,7.5899023E3,6.140478E4,7.1316523E3,2.729112E3,3.925863E4,4.787208E4,0E0,0E0,0E0,0E0,0E0,0E0,0E0,0E0],"parents":[2147483647,0,0,1,1,2,2,3,3,4,4,5,5,6,6],"right_children":[2,4,6,8,10,12,14,-1,-1,-1,-1,-1,-1,-1,-1],"split_conditions":[-6.263887E0,2.552097E-1,3.7784564E-1,-3.4713686E-1,-1.6779272E-2,1.6043825E0,7.080362E-2,-1.02397995E1,-4.6123176E0,5.4655643E0,-3.1290934E0,-2.7712458E-1,-4.312179E0,2.1045177E0,-8.1440195E-2],"split_indices":[0,8,3,2,3,5,7,0,0,0,0,0,0,0,0],"split_type":[0,0,0,0,0,0,0,0,0,0,0,0,0,0,0],"sum_hessian":[5.508E3,4.5E1,5.463E3,4.1E1,4E0,3.853E3,1.61E3,1.9E1,2.2E1,2E0,2E0,3.755E3,9.8E1,8.62E2,7.48E2],"tree_param":{"num_deleted":"0","num_feature":"10","num_nodes":"15","size_leaf_vector":"1"}},{"base_weights":[-4.002037E-1,1.0816809E0,-6.701397E0,4.791516E1,8.4689415E-1,-5.4351735E0,-3.8996834E1,-5.075E-1,1.1853568E1,3.1381512E-1,-3.272752E0,2.2825937E0,-1.6611618E0,-4.3234344E0,-2.6196426E1],"categories":[],"categories_nodes":[],"categories_segments":[],"categories_sizes":[],"default_left":[0,0,0,0,0,0,0,0,0,0,0,0,0,0,0],"id":50,"left_children":[1,3,5,7,9,11,13,-1,-1,-1,-1,-1,-1,-1,-1],"loss_changes":[5.0906734E4,4.849524E4,4.223523E4,1.2751391E4,5.4627215E4,4.845967E4,5.951681E4,0E0,0E0,0E0,0E0,0E0,0E0,0E0,0E0],"parents":[2147483647,0,0,1,1,2,2,3,3,4,4,5,5,6,6],"right_children":[2,4,6,8,10,12,14,-1,-1,-1,-1,-1,-1,-1,-1],"split_conditions":[7.0386875E-1,-1.3284321E0,9.657961E-1,-1.4507174E0,1.8378377E0,-8.90663E-2,1.3130319E0,-5.075E-1,1.1853568E1,3.1381512E-1,-3.272752E0,2.2825937E0,-1.6611618E0,-4.3234344E0,-2.6196426E1],"split_indices":[2,8,7,6,4,9,6,0,0,0,0,0,0,0,0],"split_type":[0,0,0,0,0,0,0,0,0,0,0,0,0,0,0],"sum_hessian":[5.45E3,4.413E3,1.037E3,2.1E1,4.392E3,9.99E2,3.8E1,4E0,1.7E1,4.216E3,1.76E2,1.45E2,8.54E2,3.3E1,5E0],"tree_param":{"num_deleted":"0","num_feature":"10","num_nodes":"15","size_leaf_vector":"1"}},{"base_weights":[-1.1117641E-1,-3.037381E0,2.5653315E0,-8.260988E-2,-1.433841E1,-1.631541E1,4.0222006E0,8.018893E0,-1.2642676E-1,-4.0571904E0,6.440465E-1,-2.2437315E0,-1.1231696E1,3.2306987E-1,2.1536071E0],"categories":[],"categories_nodes":[],"categories_segments":[],"categories_sizes":[],"default_left":[0,0,0,0,0,0,0,0,0,0,0,0,0,0,0],"id":51,"left_children":[1,3,5,7,9,11,13,-1,-1,-1,-1,-1,-1,-1,-1],"loss_changes":[4.2872383E4,8.731878E4,7.870748E4,4.5815668E4,5.6666805E4,4.099939E4,4.308977E4,0E0,0E0,0E0,0E0,0E0,0E0,0E0,0E0],"parents":[2147483647,0,0,1,1,2,2,3,3,4,4,5,5,6,6],"right_children":[2,4,6,8,10,12,14,-1,-1,-1,-1,-1,-1,-1,-1],"split_conditions":[1.8292162E-1,6.778387E-1,-9.873431E-1,-2.1088645E0,3.5712888E0,6.4667845E0,2.159205E-1,8.018893E0,-1.2642676E-1,-4.0571904E0,6.440465E-1,-2.2437315E0,-1.1231696E1,3.2306987E-1,2.1536071E0],"split_indices":[1,5,5,2,0,0,6,0,0,0,0,0,0,0,0],"split_type":[0,0,0,0,0,0,0,0,0,0,0,0,0,0,0],"sum_hessian":[5.472E3,2.614E3,2.858E3,2.073E3,5.41E2,2.04E2,2.654E3,2.7E1,2.046E3,4.04E2,1.37E2,1.82E2,2.2E1,1.957E3,6.97E2],"tree_param":{"num_deleted":"0","num_feature":"10","num_nodes":"15","size_leaf_vector":"1"}},{"base_weights":[4.5149815E-1,-1.937128E1,8.565621E-1,-3.9698357E1,-1.4690921E1,6.1240277E0,-6.8241113E-1,-9.0170355E0,-1.3759583E0,-3.9988286E0,-1.2066766E0,1.064536E0,8.525445E0,-3.8157997E-1,2.128147E0],"categories":[],"categories_nodes":[],"categories_segments":[],"categories_sizes":[],"default_left":[0,0,0,0,0,0,0,0,0,0,0,0,0,0,0],"id":52,"left_children":[1,3,5,7,9,11,13,-1,-1,-1,-1,-1,-1,-1,-1],"loss_changes":[4.410654E4,9.881984E3,4.36333E4,3.2255762E3,4.0574355E3,3.5372523E4,5.7829332E4,0E0,0E0,0E0,0E0,0E0,0E0,0E0,0E0],"parents":[2147483647,0,0,1,1,2,2,3,3,4,4,5,5,6,6],"right_children":[2,4,6,8,10,12,14,-1,-1,-1,-1,-1,-1,-1,-1],"split_conditions":[-6.0538006E0,-6.3967285E0,-3.0193043E-1,3.9905962E-1,6.512024E-2,3.473113E0,4.8756313E0,-9.0170355E0,-1.3759583E0,-3.9988286E0,-1.2066766E0,1.064536E0,8.525445E0,-3.8157997E-1,2.128147E0],"split_indices":[0,0,7,4,2,3,0,0,0,0,0,0,0,0,0],"split_type":[0,0,0,0,0,0,0,0,0,0,0,0,0,0,0],"sum_hessian":[5.49E3,1.09E2,5.381E3,1.9E1,9E1,1.216E3,4.165E3,1.6E1,3E0,5.5E1,3.5E1,1.191E3,2.5E1,3.759E3,4.06E2],"tree_param":{"num_deleted":"0","num_feature":"10","num_nodes":"15","size_leaf_vector":"1"}},{"base_weights":[8.185924E-2,1.741527E1,-3.53477E-1,2.0186213E1,-3.5943287E1,1.8931575E-1,-1.644621E1,8.3373575E0,2.5785906E0,4.5350566E0,-4.014519E-2,-4.01679E0,5.5203757E0],"categories":[],"categories_nodes":[],"categories_segments":[],"categories_sizes":[],"default_left":[0,0,0,0,0,0,0,0,0,0,0,0,0],"id":53,"left_children":[1,3,5,7,-1,9,11,-1,-1,-1,-1,-1,-1],"loss_changes":[4.219507E4,7.846275E4,4.7652637E4,2.0788586E4,0E0,4.629507E4,2.9076273E4,0E0,0E0,0E0,0E0,0E0,0E0],"parents":[2147483647,0,0,1,1,2,2,3,3,5,5,6,6],"right_children":[2,4,6,8,-1,10,12,-1,-1,-1,-1,-1,-1],"split_conditions":[-1.5282481E0,1.003744E0,2.3508143E0,-2.1027985E0,-3.5943287E1,-9.829132E-1,5.5032387E0,8.3373575E0,2.5785906E0,4.5350566E0,-4.014519E-2,-4.01679E0,5.5203757E0],"split_indices":[4,7,2,1,0,6,0,0,0,0,0,0,0],"split_type":[0,0,0,0,0,0,0,0,0,0,0,0,0],"sum_hessian":[5.59E3,1.36E2,5.454E3,1.35E2,1E0,5.277E3,1.77E2,3.3E1,1.02E2,8.9E1,5.188E3,1.64E2,1.3E1],"tree_param":{"num_deleted":"0","num_feature":"10","num_nodes":"13","size_leaf_vector":"1"}},{"base_weights":[1.7047808E-1,9.9453497E-1,-1.314972E1,-8.97553E-2,1.4091776E1,-1.5745214E1,1.9301138E1,1.1629279E-2,-1.2757378E1,3.037607E0,-1.926327E1,-1.0941196E1,-2.4810262E0,4.1599843E-1,1.0696686E1],"categories":[],"categories_nodes":[],"categories_segments":[],"categories_sizes":[],"default_left":[0,0,0,0,0,0,0,0,0,0,0,0,0,0,0],"id":54,"left_children":[1,3,5,7,9,11,13,-1,-1,-1,-1,-1,-1,-1,-1],"loss_changes":[5.991239E4,7.2995484E4,2.7087777E4,4.4734207E4,4.902992E4,3.7710367E4,1.4016552E4,0E0,0E0,0E0,0E0,0E0,0E0,0E0,0E0],"parents":[2147483647,0,0,1,1,2,2,3,3,4,4,5,5,6,6],"right_children":[2,4,6,8,10,12,14,-1,-1,-1,-1,-1,-1,-1,-1],"split_conditions":[1.6631471E0,1.8887535E0,3.5028994E0,1.6232997E0,4.0047655E0,-8.0269897E-1,-1.12689205E-1,1.1629279E-2,-1.2757378E1,3.037607E0,-1.926327E1,-1.0941196E1,-2.4810262E0,4.1599843E-1,1.0696686E1],"split_indices":[4,1,1,6,2,7,6,0,0,0,0,0,0,0,0],"split_type":[0,0,0,0,0,0,0,0,0,0,0,0,0,0,0],"sum_hessian":[5.456E3,5.139E3,3.17E2,4.747E3,3.92E2,2.94E2,2.3E1,4.737E3,1E1,3.89E2,3E0,2.2E1,2.72E2,1.6E1,7E0],"tree_param":{"num_deleted":"0","num_feature":"10","num_nodes":"15","size_leaf_vector":"1"}},{"base_weights":[3.215028E-1,1.4283264E-1,3.8049778E1,6.521941E-1,-1.5521593E1,7.0096436E1,2.4930958E1,4.858556E-2,1.066836E1,3.5739388E0,-5.139689E0,2.1576416E0,1.5636621E1,2.6622722E-1,6.5417643E0],"categories":[],"categories_nodes":[],"categories_segments":[],"categories_sizes":[],"default_left":[0,0,0,0,0,0,0,0,0,0,0,0,0,0,0],"id":55,"left_children":[1,3,5,7,9,11,13,-1,-1,-1,-1,-1,-1,-1,-1],"loss_changes":[3.7184207E4,4.382999E4,9.183203E3,1.1470794E5,5.9247766E4,2.513789E3,3.627584E3,0E0,0E0,0E0,0E0,0E0,0E0,0E0,0E0],"parents":[2147483647,0,0,1,1,2,2,3,3,4,4,5,5,6,6],"right_children":[2,4,6,8,10,12,14,-1,-1,-1,-1,-1,-1,-1,-1],"split_conditions":[8.817949E0,6.4667845E0,-2.500036E-1,6.069277E0,-1.3128897E0,-1.874826E0,-1.0992869E-1,4.858556E-2,1.066836E1,3.5739388E0,-5.139689E0,2.1576416E0,1.5636621E1,2.6622722E-1,6.5417643E0],"split_indices":[0,0,1,0,1,3,4,0,0,0,0,0,0,0,0],"split_type":[0,0,0,0,0,0,0,0,0,0,0,0,0,0,0],"sum_hessian":[5.516E3,5.491E3,2.5E1,5.319E3,1.72E2,6E0,1.9E1,5.279E3,4E1,4E1,1.32E2,1E0,5E0,5E0,1.4E1],"tree_param":{"num_deleted":"0","num_feature":"10","num_nodes":"15","size_leaf_vector":"1"}},{"base_weights":[6.1292154E-1,9.5358104E-1,-4.013143E1,1.3649179E-1,1.1097113E1,-2.783605E1,-1.174613E2,8.484969E0,-2.1151131E-2,3.3031442E0,1.1754294E-2,-1.2176347E1,-2.0638132E0,-2.3710206E0,-2.7242304E1],"categories":[],"categories_nodes":[],"categories_segments":[],"categories_sizes":[],"default_left":[0,0,0,0,0,0,0,0,0,0,0,0,0,0,0],"id":56,"left_children":[1,3,5,7,9,11,13,-1,-1,-1,-1,-1,-1,-1,-1],"loss_changes":[7.70026E4,4.558342E4,4.046715E4,5.215794E4,2.4522133E4,2.3105045E4,1.0266031E4,0E0,0E0,0E0,0E0,0E0,0E0,0E0,0E0],"parents":[2147483647,0,0,1,1,2,2,3,3,4,4,5,5,6,6],"right_children":[2,4,6,8,10,12,14,-1,-1,-1,-1,-1,-1,-1,-1],"split_conditions":[2.7040598E0,1.6265198E0,6.002401E0,-2.1088645E0,5.1266663E-2,2.0844802E-1,-2.3600817E0,8.484969E0,-2.1151131E-2,3.3031442E0,1.1754294E-2,-1.2176347E1,-2.0638132E0,-2.3710206E0,-2.7242304E1],"split_indices":[5,3,2,2,7,6,4,0,0,0,0,0,0,0,0],"split_type":[0,0,0,0,0,0,0,0,0,0,0,0,0,0,0],"sum_hessian":[5.544E3,5.499E3,4.5E1,5.09E3,4.09E2,4E1,5E0,2.8E1,5.062E3,2.74E2,1.35E2,1.3E1,2.7E1,1E0,4E0],"tree_param":{"num_deleted":"0","num_feature":"10","num_nodes":"15","size_leaf_vector":"1"}},{"base_weights":[-1.6795577E-1,-4.829674E1,4.2934857E-2,-6.306233E1,2.0424952E1,1.1470009E1,-3.89999E-1,-1.2826661E0,-1.7376476E1,9.568481E0,-8.924487E0,1.7691796E0,8.218884E0,1.3943987E-1,-1.1179571E0],"categories":[],"categories_nodes":[],"categories_segments":[],"categories_sizes":[],"default_left":[0,0,0,0,0,0,0,0,0,0,0,0,0,0,0],"id":57,"left_children":[1,3,5,7,9,11,13,-1,-1,-1,-1,-1,-1,-1,-1],"loss_changes":[5.5836727E4,2.564123E4,2.7105057E4,2.643043E4,1.1052016E4,1.5184035E4,2.9847137E4,0E0,0E0,0E0,0E0,0E0,0E0,0E0,0E0],"parents":[2147483647,0,0,1,1,2,2,3,3,4,4,5,5,6,6],"right_children":[2,4,6,8,10,12,14,-1,-1,-1,-1,-1,-1,-1,-1],"split_conditions":[-3.2200537E0,5.4539413E0,-1.3680263E0,2.92288E0,-4.1580033E0,5.0526285E0,7.244774E-1,-1.2826661E0,-1.7376476E1,9.568481E0,-8.924487E0,1.7691796E0,8.218884E0,1.3943987E-1,-1.1179571E0],"split_indices":[3,0,4,0,1,0,2,0,0,0,0,0,0,0,0],"split_type":[0,0,0,0,0,0,0,0,0,0,0,0,0,0,0],"sum_hessian":[5.5E3,2.3E1,5.477E3,1.9E1,4E0,1.99E2,5.278E3,6E0,1.3E1,3E0,1E0,1.84E2,1.5E1,4.366E3,9.12E2],"tree_param":{"num_deleted":"0","num_feature":"10","num_nodes":"15","size_leaf_vector":"1"}},{"base_weights":[-3.0613562E-1,-5.8576593E0,8.325161E-1,-5.541609E0,-2.0081184E1,-6.6617837E0,1.7260032E0,-9.9275583E-1,-1.0525994E1,-6.2909074E0,-1.0787766E0,4.52165E0,2.7182317E-1],"categories":[],"categories_nodes":[],"categories_segments":[],"categories_sizes":[],"default_left":[0,0,0,0,0,0,0,0,0,0,0,0,0],"id":58,"left_children":[1,3,5,7,-1,9,11,-1,-1,-1,-1,-1,-1],"loss_changes":[3.4095387E4,2.6875309E4,2.9983064E4,2.4662248E4,0E0,1.4824725E4,3.0615E4,0E0,0E0,0E0,0E0,0E0,0E0],"parents":[2147483647,0,0,1,1,2,2,3,3,5,5,6,6],"right_children":[2,4,6,8,-1,10,12,-1,-1,-1,-1,-1,-1],"split_conditions":[-8.734052E-1,3.3925738E0,-5.2587533E0,1.6232997E0,-2.0081184E1,-6.3967285E0,-4.688367E0,-9.9275583E-1,-1.0525994E1,-6.2909074E0,-1.0787766E0,4.52165E0,2.7182317E-1],"split_indices":[3,5,0,6,0,0,0,0,0,0,0,0,0],"split_type":[0,0,0,0,0,0,0,0,0,0,0,0,0],"sum_hessian":[5.392E3,9.17E2,4.475E3,9.15E2,2E0,4.76E2,3.999E3,9.05E2,1E1,2.2E1,4.54E2,6.8E1,3.931E3],"tree_param":{"num_deleted":"0","num_feature":"10","num_nodes":"13","size_leaf_vector":"1"}},{"base_weights":[-2.4600825E-1,-7.770574E-1,1.0911195E1,-1.167869E0,1.706311E1,1.5847842E1,-4.228661E0,-2.1260962E-2,-1.323655E0,7.190912E0,1.2731287E0,-4.230518E0,3.733791E0,-1.40876255E1,7.953026E-1],"categories":[],"categories_nodes":[],"categories_segments":[],"categories_sizes":[],"default_left":[0,0,0,0,0,0,0,0,0,0,0,0,0,0,0],"id":59,"left_children":[1,3,5,7,9,11,13,-1,-1,-1,-1,-1,-1,-1,-1],"loss_changes":[3.2993082E4,3.707688E4,1.897627E4,3.009784E4,2.280946E4,2.0331934E4,3.4505492E4,0E0,0E0,0E0,0E0,0E0,0E0,0E0,0E0],"parents":[2147483647,0,0,1,1,2,2,3,3,4,4,5,5,6,6],"right_children":[2,4,6,8,10,12,14,-1,-1,-1,-1,-1,-1,-1,-1],"split_conditions":[2.2981157E0,2.6825962E0,1.7714549E0,7.244774E-1,-1.7704897E-1,-7.833491E-1,-8.734052E-1,-2.1260962E-2,-1.323655E0,7.190912E0,1.2731287E0,-4.230518E0,3.733791E0,-1.40876255E1,7.953026E-1],"split_indices":[1,3,4,2,2,2,3,0,0,0,0,0,0,0,0],"split_type":[0,0,0,0,0,0,0,0,0,0,0,0,0,0,0],"sum_hessian":[5.566E3,5.314E3,2.52E2,5.201E3,1.13E2,1.9E2,6.2E1,4.354E3,8.47E2,4E1,7.3E1,1.3E1,1.77E2,6E0,5.6E1],"tree_param":{"num_deleted":"0","num_feature":"10","num_nodes":"15","size_leaf_vector":"1"}},{"base_weights":[-1.7628132E-1,8.9517283E-1,-6.629074E0,-2.2813354E0,2.9537933E0,1.2853975E1,-1.0048976E1,2.6807876E-3,-2.8558743E0,-4.352996E0,7.252521E-1,8.881438E0,6.2222135E-1,-3.3689067E0,-6.244771E-1],"categories":[],"categories_nodes":[],"categories_segments":[],"categories_sizes":[],"default_left":[0,0,0,0,0,0,0,0,0,0,0,0,0,0,0],"id":60,"left_children":[1,3,5,7,9,11,13,-1,-1,-1,-1,-1,-1,-1,-1],"loss_changes":[3.855077E4,3.1277316E4,5.3033484E4,5.178858E4,4.8317586E4,3.6444676E4,3.1766758E4,0E0,0E0,0E0,0E0,0E0,0E0,0E0,0E0],"parents":[2147483647,0,0,1,1,2,2,3,3,4,4,5,5,6,6],"right_children":[2,4,6,8,10,12,14,-1,-1,-1,-1,-1,-1,-1,-1],"split_conditions":[9.7750443E-1,-2.7482409E-2,-1.3992918E0,7.603034E-1,-1.1643748E0,-5.406002E-1,-6.597046E-3,2.6807876E-3,-2.8558743E0,-4.352996E0,7.252521E-1,8.881438E0,6.2222135E-1,-3.3689067E0,-6.244771E-1],"split_indices":[4,1,5,5,5,8,2,0,0,0,0,0,0,0,0],"split_type":[0,0,0,0,0,0,0,0,0,0,0,0,0,0,0],"sum_hessian":[5.574E3,4.781E3,7.93E2,1.88E3,2.901E3,1.18E2,6.75E2,1.579E3,3.01E2,7.6E1,2.825E3,2.7E1,9.1E1,3.4E2,3.35E2],"tree_param":{"num_deleted":"0","num_feature":"10","num_nodes":"15","size_leaf_vector":"1"}},{"base_weights":[3.5666466E-1,8.527497E0,-3.3814406E-1,3.0254694E1,5.7255125E0,-1.4511583E0,5.307309E0,2.89173E0,1.301903E1,1.7484385E0,-4.544159E0,-1.963111E-1,-6.0427413E0,5.8606606E0,3.0991146E-1],"categories":[],"categories_nodes":[],"categories_segments":[],"categories_sizes":[],"default_left":[0,0,0,0,0,0,0,0,0,0,0,0,0,0,0],"id":61,"left_children":[1,3,5,7,9,11,13,-1,-1,-1,-1,-1,-1,-1,-1],"loss_changes":[3.1221617E4,2.6065746E4,3.185861E4,2.6025535E4,3.3065164E4,5.7172367E4,7.5247375E4,0E0,0E0,0E0,0E0,0E0,0E0,0E0,0E0],"parents":[2147483647,0,0,1,1,2,2,3,3,4,4,5,5,6,6],"right_children":[2,4,6,8,10,12,14,-1,-1,-1,-1,-1,-1,-1,-1],"split_conditions":[-6.4843845E-1,-5.5751556E-1,3.5712888E0,1.6619617E0,4.9738183E0,2.2324164E0,-2.6703498E0,2.89173E0,1.301903E1,1.7484385E0,-4.544159E0,-1.963111E-1,-6.0427413E0,5.8606606E0,3.0991146E-1],"split_indices":[7,8,0,3,0,4,1,0,0,0,0,0,0,0,0],"split_type":[0,0,0,0,0,0,0,0,0,0,0,0,0,0,0],"sum_hessian":[5.498E3,4.3E2,5.068E3,4.8E1,3.82E2,4.234E3,8.34E2,3.4E1,1.4E1,3.46E2,3.6E1,4.167E3,6.7E1,1.12E2,7.22E2],"tree_param":{"num_deleted":"0","num_feature":"10","num_nodes":"15","size_leaf_vector":"1"}},{"base_weights":[-5.0832516E-1,2.2074091E0,-3.1758533E0,2.9854782E0,-2.2567406E1,3.065261E1,-3.5572858E0,-5.576409E-2,1.393862E0,-1.585083E1,-1.7794951E0,1.0477808E1,-7.677649E0,-2.5850648E-1,-1.8539813E0],"categories":[],"categories_nodes":[],"categories_segments":[],"categories_sizes":[],"default_left":[0,0,0,0,0,0,0,0,0,0,0,0,0,0,0],"id":62,"left_children":[1,3,5,7,9,11,13,-1,-1,-1,-1,-1,-1,-1,-1],"loss_changes":[3.979269E4,5.2538055E4,3.586402E4,3.43336E4,6.3611863E4,4.8532867E4,3.5450184E4,0E0,0E0,0E0,0E0,0E0,0E0,0E0,0E0],"parents":[2147483647,0,0,1,1,2,2,3,3,4,4,5,5,6,6],"right_children":[2,4,6,8,10,12,14,-1,-1,-1,-1,-1,-1,-1,-1],"split_conditions":[-4.3840744E-3,6.9660473E0,-2.1088645E0,-1.0696402E-1,4.462312E-1,1.3268362E0,3.9905962E-1,-5.576409E-2,1.393862E0,-1.585083E1,-1.7794951E0,1.0477808E1,-7.677649E0,-2.5850648E-1,-1.8539813E0],"split_indices":[7,0,2,3,1,3,4,0,0,0,0,0,0,0,0],"split_type":[0,0,0,0,0,0,0,0,0,0,0,0,0,0,0],"sum_hessian":[5.491E3,2.721E3,2.77E3,2.639E3,8.2E1,3E1,2.74E3,1.451E3,1.188E3,1.5E1,6.7E1,2.3E1,7E0,1.963E3,7.77E2],"tree_param":{"num_deleted":"0","num_feature":"10","num_nodes":"15","size_leaf_vector":"1"}},{"base_weights":[5.582016E-1,1.6623366E0,-4.2983665E0,4.39374E-1,7.4739947E0,1.9108516E0,-1.18239355E1,1.2539995E-1,-9.771434E0,1.572064E0,-1.3810376E1,2.520815E0,-7.6774114E-1,-4.932102E-2,-3.844855E0],"categories":[],"categories_nodes":[],"categories_segments":[],"categories_sizes":[],"default_left":[0,0,0,0,0,0,0,0,0,0,0,0,0,0,0],"id":63,"left_children":[1,3,5,7,9,11,13,-1,-1,-1,-1,-1,-1,-1,-1],"loss_changes":[2.9381861E4,3.1724328E4,4.7451414E4,3.41513E4,2.3484352E4,3.429347E4,3.9320625E4,0E0,0E0,0E0,0E0,0E0,0E0,0E0,0E0],"parents":[2147483647,0,0,1,1,2,2,3,3,4,4,5,5,6,6],"right_children":[2,4,6,8,10,12,14,-1,-1,-1,-1,-1,-1,-1,-1],"split_conditions":[4.9625456E-2,2.9749295E-1,5.4880857E-2,2.7040598E0,1.1873692E0,3.8157836E-1,-3.0083317E-1,1.2539995E-1,-9.771434E0,1.572064E0,-1.3810376E1,2.520815E0,-7.6774114E-1,-4.932102E-2,-3.844855E0],"split_indices":[9,6,6,5,7,1,3,0,0,0,0,0,0,0,0],"split_type":[0,0,0,0,0,0,0,0,0,0,0,0,0,0,0],"sum_hessian":[5.477E3,4.463E3,1.014E3,3.688E3,7.75E2,5.56E2,4.58E2,3.675E3,1.3E1,7.72E2,3E0,1.94E2,3.62E2,1.79E2,2.79E2],"tree_param":{"num_deleted":"0","num_feature":"10","num_nodes":"15","size_leaf_vector":"1"}},{"base_weights":[-2.78132E-1,-3.8623524E1,-1.3668914E-1,-5.194831E1,5.4199707E1,1.3700359E1,-4.978346E-1,-2.411087E1,-6.038029E0,5.3447264E-1,1.572544E1,3.6006382E0,-1.1694211E1,1.5941603E0,-2.0538358E-1],"categories":[],"categories_nodes":[],"categories_segments":[],"categories_sizes":[],"default_left":[0,0,0,0,0,0,0,0,0,0,0,0,0,0,0],"id":64,"left_children":[1,3,5,7,9,11,13,-1,-1,-1,-1,-1,-1,-1,-1],"loss_changes":[2.9515816E4,2.7552578E4,2.7111562E4,2.3229793E4,3.5659307E3,4.390739E4,2.3697193E4,0E0,0E0,0E0,0E0,0E0,0E0,0E0,0E0],"parents":[2147483647,0,0,1,1,2,2,3,3,4,4,5,5,6,6],"right_children":[2,4,6,8,10,12,14,-1,-1,-1,-1,-1,-1,-1,-1],"split_conditions":[-3.2200537E0,1.3926151E0,-9.829132E-1,-5.563845E0,2.750253E0,2.7040598E0,-1.5757627E0,-2.411087E1,-6.038029E0,5.3447264E-1,1.572544E1,3.6006382E0,-1.1694211E1,1.5941603E0,-2.0538358E-1],"split_indices":[3,7,6,1,0,5,2,0,0,0,0,0,0,0,0],"split_type":[0,0,0,0,0,0,0,0,0,0,0,0,0,0,0],"sum_hessian":[5.442E3,1.9E1,5.423E3,1.7E1,2E0,1.37E2,5.286E3,3E0,1.4E1,1E0,1E0,1.3E2,7E0,3.1E2,4.976E3],"tree_param":{"num_deleted":"0","num_feature":"10","num_nodes":"15","size_leaf_vector":"1"}},{"base_weights":[2.6287314E-1,-7.3211724E-1,4.3255854E0,-4.7882703E-1,-2.4477316E1,1.8782988E1,2.1073713E0,2.542049E-1,-5.951475E-1,-8.006689E0,2.2755973E0,1.3571466E1,3.160398E0,6.629705E-1,-2.977663E0],"categories":[],"categories_nodes":[],"categories_segments":[],"categories_sizes":[],"default_left":[0,0,0,0,0,0,0,0,0,0,0,0,0,0,0],"id":65,"left_children":[1,3,5,7,9,11,13,-1,-1,-1,-1,-1,-1,-1,-1],"loss_changes":[2.2418053E4,2.6782545E4,3.4948367E4,1.9267684E4,2.6670676E4,2.0139848E4,1.948366E4,0E0,0E0,0E0,0E0,0E0,0E0,0E0,0E0],"parents":[2147483647,0,0,1,1,2,2,3,3,4,4,5,5,6,6],"right_children":[2,4,6,8,10,12,14,-1,-1,-1,-1,-1,-1,-1,-1],"split_conditions":[1.2682068E0,2.4309115E0,-4.6286115E-1,4.4631436E-2,-7.210836E-1,-3.3593935E-1,6.4667845E0,2.542049E-1,-5.951475E-1,-8.006689E0,2.2755973E0,1.3571466E1,3.160398E0,6.629705E-1,-2.977663E0],"split_indices":[1,5,4,7,1,7,0,0,0,0,0,0,0,0,0],"split_type":[0,0,0,0,0,0,0,0,0,0,0,0,0,0,0],"sum_hessian":[5.544E3,4.454E3,1.09E3,4.408E3,4.6E1,1.44E2,9.46E2,2.592E3,1.816E3,3.2E1,1.4E1,7E0,1.37E2,8.84E2,6.2E1],"tree_param":{"num_deleted":"0","num_feature":"10","num_nodes":"15","size_leaf_vector":"1"}},{"base_weights":[-2.1337856E-1,-5.293953E-1,1.6179388E1,-1.570331E-1,-1.1422186E1,2.354283E1,-8.325342E0,-1.0722269E-1,1.0134584E1,9.871032E0,-3.3690612E0,2.5152276E0,1.2245517E1,-1.4725684E1,7.852739E-1],"categories":[],"categories_nodes":[],"categories_segments":[],"categories_sizes":[],"default_left":[0,0,0,0,0,0,0,0,0,0,0,0,0,0,0],"id":66,"left_children":[1,3,5,7,9,11,13,-1,-1,-1,-1,-1,-1,-1,-1],"loss_changes":[2.875972E4,2.2087527E4,1.9142113E4,1.0151508E5,6.015992E4,3.2705438E4,2.0290953E4,0E0,0E0,0E0,0E0,0E0,0E0,0E0,0E0],"parents":[2147483647,0,0,1,1,2,2,3,3,4,4,5,5,6,6],"right_children":[2,4,6,8,10,12,14,-1,-1,-1,-1,-1,-1,-1,-1],"split_conditions":[2.8377805E0,6.4667845E0,9.822687E-2,6.069277E0,-7.9743886E-1,-2.1110551E-1,-2.9149553E-1,-1.0722269E-1,1.0134584E1,9.871032E0,-3.3690612E0,2.5152276E0,1.2245517E1,-1.4725684E1,7.852739E-1],"split_indices":[1,0,6,0,6,6,8,0,0,0,0,0,0,0,0],"split_type":[0,0,0,0,0,0,0,0,0,0,0,0,0,0,0],"sum_hessian":[5.549E3,5.445E3,1.04E2,5.266E3,1.79E2,8E1,2.4E1,5.228E3,3.8E1,1.4E1,1.65E2,6.3E1,1.7E1,3E0,2.1E1],"tree_param":{"num_deleted":"0","num_feature":"10","num_nodes":"15","size_leaf_vector":"1"}},{"base_weights":[-2.1604382E-1,1.3388257E1,-5.13008E-1,7.8971868E0,7.9013756E1,-2.6116946E0,1.4725434E0,-2.4851465E1,2.049918E0,2.8244923E1,4.874178E0,-1.8508688E-1,-1.8858804E0,3.8802025E-1,-5.6622877E0],"categories":[],"categories_nodes":[],"categories_segments":[],"categories_sizes":[],"default_left":[0,0,0,0,0,0,0,0,0,0,0,0,0,0,0],"id":67,"left_children":[1,3,5,7,9,11,13,-1,-1,-1,-1,-1,-1,-1,-1],"loss_changes":[2.2315693E4,4.1897812E4,2.252675E4,3.547045E4,2.7152645E4,3.0203887E4,3.874063E4,0E0,0E0,0E0,0E0,0E0,0E0,0E0,0E0],"parents":[2147483647,0,0,1,1,2,2,3,3,4,4,5,5,6,6],"right_children":[2,4,6,8,10,12,14,-1,-1,-1,-1,-1,-1,-1,-1],"split_conditions":[-1.9545083E0,5.198211E0,2.2244932E-1,-2.3600817E0,-2.5773919E0,1.4858791E-1,7.1611094E-1,-2.4851465E1,2.049918E0,2.8244923E1,4.874178E0,-1.8508688E-1,-1.8858804E0,3.8802025E-1,-5.6622877E0],"split_indices":[5,0,1,4,5,7,8,0,0,0,0,0,0,0,0],"split_type":[0,0,0,0,0,0,0,0,0,0,0,0,0,0,0],"sum_hessian":[5.521E3,1.17E2,5.404E3,1.09E2,8E0,2.627E3,2.777E3,1E0,1.08E2,3E0,5E0,2.107E3,5.2E2,2.735E3,4.2E1],"tree_param":{"num_deleted":"0","num_feature":"10","num_nodes":"15","size_leaf_vector":"1"}},{"base_weights":[2.6304597E-1,6.247787E-1,-1.4636275E1,3.8736317E0,-4.583267E-1,4.983258E1,-1.6536581E1,7.8310165E0,6.626445E-1,1.3138437E0,-2.5564843E-1,2.5595214E0,1.158234E1,-8.174071E0,-1.986633E0],"categories":[],"categories_nodes":[],"categories_segments":[],"categories_sizes":[],"default_left":[0,0,0,0,0,0,0,0,0,0,0,0,0,0,0],"id":68,"left_children":[1,3,5,7,9,11,13,-1,-1,-1,-1,-1,-1,-1,-1],"loss_changes":[2.978653E4,1.8985973E4,1.6872943E4,2.6542775E4,2.3327182E4,4.5570898E2,2.0161848E4,0E0,0E0,0E0,0E0,0E0,0E0,0E0,0E0],"parents":[2147483647,0,0,1,1,2,2,3,3,4,4,5,5,6,6],"right_children":[2,4,6,8,10,12,14,-1,-1,-1,-1,-1,-1,-1,-1],"split_conditions":[1.91768E0,-4.8063514E-1,-1.9092492E0,-3.6898277E0,-8.40887E-2,-2.6194913E0,-1.0876752E-1,7.8310165E0,6.626445E-1,1.3138437E0,-2.5564843E-1,2.5595214E0,1.158234E1,-8.174071E0,-1.986633E0],"split_indices":[5,4,6,1,9,3,6,0,0,0,0,0,0,0,0],"split_type":[0,0,0,0,0,0,0,0,0,0,0,0,0,0,0],"sum_hessian":[5.524E3,5.394E3,1.3E2,1.348E3,4.046E3,3E0,1.27E2,2E1,1.328E3,4.22E2,3.624E3,1E0,2E0,2.6E1,1.01E2],"tree_param":{"num_deleted":"0","num_feature":"10","num_nodes":"15","size_leaf_vector":"1"}},{"base_weights":[-1.16751224E-1,-1.7195379E0,2.3298938E0,7.084329E-2,-4.9323287E0,2.0201597E1,1.8908466E0,-3.2575972E-2,1.1039133E1,1.7611717E0,-1.3496069E0,8.099903E0,1.0289913E0,-1.4018808E1,4.1197798E-1],"categories":[],"categories_nodes":[],"categories_segments":[],"categories_sizes":[],"default_left":[0,0,0,0,0,0,0,0,0,0,0,0,0,0,0],"id":69,"left_children":[1,3,5,7,9,11,13,-1,-1,-1,-1,-1,-1,-1,-1],"loss_changes":[2.1528844E4,1.9080133E4,1.7012297E4,2.7464682E4,2.9668555E4,1.5683791E4,2.596607E4,0E0,0E0,0E0,0E0,0E0,0E0,0E0,0E0],"parents":[2147483647,0,0,1,1,2,2,3,3,4,4,5,5,6,6],"right_children":[2,4,6,8,10,12,14,-1,-1,-1,-1,-1,-1,-1,-1],"split_conditions":[1.19998656E-1,1.3812565E-2,-1.1863415E0,3.8734872E0,-1.2090282E0,1.9061735E-1,-6.659921E0,-3.2575972E-2,1.1039133E1,1.7611717E0,-1.3496069E0,8.099903E0,1.0289913E0,-1.4018808E1,4.1197798E-1],"split_indices":[3,9,6,1,2,5,1,0,0,0,0,0,0,0,0],"split_type":[0,0,0,0,0,0,0,0,0,0,0,0,0,0,0],"sum_hessian":[5.488E3,3.316E3,2.172E3,2.13E3,1.186E3,5.1E1,2.121E3,2.122E3,8E0,1.38E2,1.048E3,2.1E1,3E1,4E0,2.117E3],"tree_param":{"num_deleted":"0","num_feature":"10","num_nodes":"15","size_leaf_vector":"1"}},{"base_weights":[-2.1069746E-1,1.1897848E0,-3.2801814E0,-2.2521194E1,1.4413114E0,1.5465795E1,-3.9027243E0,-1.5981477E0,-6.809307E0,-3.8480423E-3,1.1727203E0,-2.3146168E1,3.9910772E0,-5.2244085E-1,-2.8153002E0],"categories":[],"categories_nodes":[],"categories_segments":[],"categories_sizes":[],"default_left":[0,0,0,0,0,0,0,0,0,0,0,0,0,0,0],"id":70,"left_children":[1,3,5,7,9,11,13,-1,-1,-1,-1,-1,-1,-1,-1],"loss_changes":[2.381902E4,2.2725266E4,2.0319777E4,6.4266797E3,2.4324639E4,3.5294523E4,2.2033854E4,0E0,0E0,0E0,0E0,0E0,0E0,0E0,0E0],"parents":[2147483647,0,0,1,1,2,2,3,3,4,4,5,5,6,6],"right_children":[2,4,6,8,10,12,14,-1,-1,-1,-1,-1,-1,-1,-1],"split_conditions":[1.7702883E-1,-6.263887E0,-1.7452217E0,-8.2321785E-2,3.7784564E-1,-3.2200537E0,2.3508143E0,-1.5981477E0,-6.809307E0,-3.8480423E-3,1.1727203E0,-2.3146168E1,3.9910772E0,-5.2244085E-1,-2.8153002E0],"split_indices":[2,0,4,8,3,3,2,0,0,0,0,0,0,0,0],"split_type":[0,0,0,0,0,0,0,0,0,0,0,0,0,0,0],"sum_hessian":[5.539E3,3.804E3,1.735E3,3.9E1,3.765E3,5.5E1,1.68E3,1.8E1,2.1E1,2.831E3,9.34E2,1E0,5.4E1,1.492E3,1.88E2],"tree_param":{"num_deleted":"0","num_feature":"10","num_nodes":"15","size_leaf_vector":"1"}},{"base_weights":[-4.7277132E-1,-7.1167076E-1,1.6231508E1,-2.3926377E-1,-1.8932316E1,-7.5026245E0,2.647943E1,-9.660002E-2,1.05647955E1,2.5478005E0,-6.7426043E0,-1.26674385E1,2.9255264E0,4.7166166E0,1.3571258E1],"categories":[],"categories_nodes":[],"categories_segments":[],"categories_sizes":[],"default_left":[0,0,0,0,0,0,0,0,0,0,0,0,0,0,0],"id":71,"left_children":[1,3,5,7,9,11,13,-1,-1,-1,-1,-1,-1,-1,-1],"loss_changes":[2.1792482E4,4.6321355E4,1.892703E4,6.7887266E4,6.4094387E4,3.0581672E4,4.8711914E3,0E0,0E0,0E0,0E0,0E0,0E0,0E0,0E0],"parents":[2147483647,0,0,1,1,2,2,3,3,4,4,5,5,6,6],"right_children":[2,4,6,8,10,12,14,-1,-1,-1,-1,-1,-1,-1,-1],"split_conditions":[8.0785055E0,6.4667845E0,-4.3303143E-2,6.2155037E0,-3.2238725E-1,4.839637E-1,3.3925738E0,-9.660002E-2,1.05647955E1,2.5478005E0,-6.7426043E0,-1.26674385E1,2.9255264E0,4.7166166E0,1.3571258E1],"split_indices":[0,0,7,0,1,1,5,0,0,0,0,0,0,0,0],"split_type":[0,0,0,0,0,0,0,0,0,0,0,0,0,0,0],"sum_hessian":[5.457E3,5.381E3,7.6E1,5.246E3,1.35E2,2.3E1,5.3E1,5.223E3,2.3E1,4.3E1,9.2E1,6E0,1.7E1,5.1E1,2E0],"tree_param":{"num_deleted":"0","num_feature":"10","num_nodes":"15","size_leaf_vector":"1"}}]},"name":"gbtree"},"learner_model_param":{"base_score":"[2.471891E3]","boost_from_average":"1","num_class":"0","num_feature":"10","num_target":"1"},"objective":{"name":"reg:squarederror","reg_loss_param":{"scale_pos_weight":"1"}}},"version":[3,1,2]}